3312 128
593 0.16708283639610633 0.0 0.0 0.23827673022658918 0.0 0.0 0.059030799311303374 0.0 0.0 0.0 0.4396969518409151 0.0 0.0 0.0 0.0 0.0 0.21487269751205643 0.0 0.0 0.0 0.3157492093730037 0.0 0.0 0.0 0.5162731760299054 0.0 0.0 0.0 0.3098639855326809 0.0 0.3392809415195492 1.3002774418877707 0.0 0.0 0.0 0.0 0.0 0.0 0.06464732835245937 0.0 0.0 0.0 0.2262287054125915 0.0 0.0 0.0 0.6542615407005085 0.0 0.0 0.0 0.0 0.0 0.0 0.0 0.9783852275928465 0.0 0.0 0.0 0.0 0.0 0.0 0.0 0.0 0.6821220714417721 0.0 0.0 0.0 0.0 0.0 0.982557115643302 0.0 0.0 0.0 0.0 0.0 0.0 0.24889546649487942 0.37998750762622235 0.0 0.0 0.0 0.0 0.0 0.0 0.0 0.0 0.0 0.4146103415628184 0.9060644384750718 0.5528203046398126 0.0 0.0 0.0 0.0 0.0 0.0 0.3818126729658443 0.0 0.0 0.15985367922270524 0.8370048142912753 0.3442783744928546 0.0 0.0 0.0 0.0 0.7421820728366393 0.0 0.0 0.0 0.4302907129377384 0.0 1.1699215530896245 0.3647068273397552 0.0 0.7868148810802231 0.0 0.0 0.0 0.0 0.0 0.0 0.0 0.0 0.0410529272518196 0.0 0.24034796200486847 0.0
643 1.9194657518539384 0.0 0.0 0.0 0.5810700749381288 0.0 0.0 0.0 0.0 0.0 0.2850291168315422 0.0 0.0 1.169128556713695 0.13766921242816732 0.0 0.0 0.0 0.08644351636935076 0.0 0.0 0.0 0.6772116532976948 0.17618942622956704 0.0 0.0 0.0 0.0 0.0 0.7562290729414658 0.0 0.93752366257129 0.0 0.0 0.0 0.0 0.5805590311267375 0.13838021858421093 0.0 0.0 0.0 0.0 0.0 0.0 0.0 0.0 0.0 1.4776759375910262 0.11831341175390186 0.0 0.0 0.0 0.0 0.0 1.5218922151786072 0.0 0.18393754596088094 0.0 0.0 0.0 1.0083831026839454 0.0 0.0 0.0 0.0 0.0 0.0 0.4828339147655891 0.0 0.0 0.0 0.0 0.08615384743534647 0.0 0.0 0.15779549026200015 0.8633859001917058 0.0 0.4011313642031277 0.0 0.47975999242650025 0.21649547003466493 0.8436358638473498 0.0 0.0 0.02459026525789218 1.0519711660990851 0.0 0.2573111176881685 0.0 0.0 0.0 0.0 1.442424424791868 0.0 0.24845918703868 0.0 0.49245724167430305 0.12278675012183789 0.0 0.13729052325835234 0.19668002984813315 0.047522719845030835 0.0 0.004654338399294792 0.08944579051630586 0.04560834672462966 0.7613809501060906 0.01420732542736956 0.12410495512058767 0.23386485533279805 0.0 0.0 0.0 0.3051254862824348 0.33909529592741194 0.2859040251997493 1.5137616372314888 0.8607832802081425 0.020380312491518504 0.0 0.0 0.0 0.9770145428516681 0.0 1.1260664834395104 0.0 0.2808468393833231
592 0.03560692275193759 0.0 0.0 0.0 0.0 0.13381968731171967 0.0 0.0 0.0 0.5298221898256446 0.0 0.0 0.0 0.7153979155684099 0.4495589059965004 0.0 0.0 0.0 0.5965758175099166 0.0 1.0002817729765083 0.13954995926633493 0.0 0.0 0.1503822304448043 0.0 0.0 0.8156860807272033 0.20210080732020375 0.0 0.0 0.0 0.0 2.1181919885934692 0.0 0.0 0.0 0.0 1.213861474761981 0.0 0.0 0.0 0.0 0.0 2.6495240088740206 0.0 0.0 0.0 0.0 0.14445866399432128 0.48246960285079443 0.0 0.0 0.4640968668557098 0.9373657482571489 0.23163282732064258 0.0 0.0 0.0 0.00966088792775935 0.0 0.0 0.0 0.15746094887501877 0.7431167345205762 0.0 0.15682911951425016 0.0 0.0 0.06769385627315821 0.0 0.0 0.6065534588864986 0.0 0.03257300753390835 0.0 0.0 0.0 0.0 0.0 0.0 0.05535513886844682 0.0 0.3085027963652985 0.05187922096817987 0.0 0.0 0.0 0.70964125765514 0.0 0.0 0.17068675784233253 0.0 0.36826489205204094 0.9863083280027187 0.8096362335534295 1.9565766702341973 0.0 0.0 1.6124823885113229 0.0 0.658196585508166 0.0 0.0 0.0 0.0 0.12497141255413778 0.0 0.03166216627863324 0.0 0.12299416948594724 0.0 0.0 0.0 0.0 0.0 0.4744491748526612 0.0 1.4230854503190193 0.0 0.0 0.0 0.0 0.0 1.2674757842353992 0.0 0.5439366025788106 0.0
344 0.1559025610132578 0.667186638284069 0.0 0.0 0.0 0.0 0.0 0.9802499566404994 0.0 0.08615653020495787 0.0 0.7436187446730205 0.46727594393997546 0.28881478887032247 1.0427662560231565 1.0566942270311446 0.0 0.4538065710590242 0.0 0.0 0.0 0.0 0.0 0.0 0.0 0.0 0.0 0.0 0.5600628162647909 0.04753473815460145 0.05412697116837154 0.13663506703257472 0.3100134197578144 0.0 0.0 0.0 0.7599098785375654 0.0 0.0 0.0 1.6711745267886815 0.0 0.8596226733639398 0.5367456090268213 0.44576094919057735 0.0 0.029905936837755182 0.7005250887569345 0.3652225539331425 0.8973634870668165 0.15095939631321223 0.0 0.15229758792265788 0.0 0.0 0.9907041817558312 0.0 0.0 0.0 0.0 0.0 0.0 0.902836332485251 0.4405460839330153 0.2551504537325944 0.0 0.18138438905446366 0.0 0.0 0.2932905015071907 0.0 0.0 0.0 0.0 0.0 0.0 0.7417810212925884 0.0 0.2243677189731123 0.14031058670117985 0.0 0.0 0.0 0.08644008896677456 0.6949228999403371 0.7260724185941104 0.34006886374771217 0.0 0.0 0.0 0.0 0.0 0.0 0.0 0.14523577462897413 0.2241975424144928 0.0 0.5714120456728781 0.7122194611605662 0.0 0.0 0.0 0.25904512080464964 0.20881726389903754 0.6125921465701566 0.8039864047044883 0.0 0.8570428057171762 0.0 0.0 0.0 0.7978732293111602 0.0 0.9363358270469118 1.084907712143639 0.26416660224556854 0.0 0.3498944548561385 0.0 0.0 0.1950619197580678 0.0 0.0 0.460268319528119 0.0 0.0 0.0 0.2735590718514406
345 0.0 0.0 0.1435981534392383 0.0 0.0 0.0 1.2557987985693977 0.0 0.0 0.0 0.0 0.0 1.0617874581831508 0.8318313437052504 0.0 0.3467362699044316 0.03864443623908891 0.0 0.6145399262895643 0.0 0.0 0.0 0.09435293889190396 0.0 0.514147784458212 0.8359932917366625 0.17181811490546361 0.35675040710885403 0.0 0.0 0.6148965198270931 0.0 0.48012575613782993 1.0488197817121978 0.0 0.024728533266271776 0.0 0.6998498617035559 0.22862712621454973 0.9827237342397862 0.0 0.0 0.4067185074813128 0.0 0.0 0.7600359548679794 0.0 0.0 0.4953969275840607 0.0 0.0 0.0 0.0 0.0 0.0 0.0 0.0 0.0 0.0 0.593153946430893 0.0 0.18117543106004544 0.0 0.0 0.8555770364831607 0.0 0.25888093226689324 0.0 0.0 0.26118357702521444 0.0 0.10507232864937939 0.0 0.2291003007435201 0.0 0.1744045578360626 0.0 0.0 0.0 0.0019321510370530334 0.32496015932207145 0.0 0.23246092568394403 0.23580241147922754 0.0 1.9211512513782758 0.0 0.0 0.754698587085683 0.0 0.8972553830994514 0.0 0.0837046683461346 0.1816237698220045 0.08793858383031743 0.2279313945811787 0.5540275746404361 0.0 0.0 0.0 0.38502300017072205 0.0 0.0 0.0 0.0 0.2930544937474079 0.9855122896734336 0.0 1.0074608125438014 0.4016289512999914 1.0463158295879569 0.7646907224545842 0.0 0.0 0.07098561186262642 1.6534438195119139 0.5869579635253388 0.0 0.08619094374657027 0.0 0.0 0.0 0.0 1.0369121582115493 0.0 0.0 0.1996348918192017 0.8391718714608187
346 0.0 0.0 0.5468551577654364 0.13322063043700103 0.0 0.039563934139183604 0.0 0.0 0.0 0.10651188296759219 0.0 0.0 0.054750078471264896 0.0 0.0 0.0 0.824500196438464 0.0 0.0370139163506833 0.0 0.0 0.3902450448202766 0.0011068079765104164 2.1835990433722503 0.9945414298669045 0.33823441781820124 0.0 0.0 0.3109070377709437 0.2842047846670914 1.0545061372041575 0.0 0.0 0.0 0.28480491221509224 0.0 1.8998690453673486 0.797843722475749 0.0 0.0 0.0 0.0 0.11926203090032156 0.022945622576094914 0.32949119551695444 0.0 1.1612963061506554 0.0 0.0 1.5499987319513984 0.0 0.0 0.0 0.5238418167971401 0.5058499668926295 0.0 0.3444264342889638 0.0 0.0 0.0 0.0 0.0 0.0 2.054730846448452 0.0 0.4624529601468525 1.1728174522630344 0.4913528746414639 0.12405061944376175 1.1329349537100348 0.0 0.0 0.41347644062637184 0.0 0.0 1.284468918721023 0.0 0.0 0.5955986495803974 0.0 0.0 0.0 0.0 0.0 0.6985230935292206 0.0 0.0 0.0 0.09169269201487418 0.0 0.0 0.0 0.0 0.0 0.0 0.0 0.0 0.0 0.0 0.0 0.41123179581432395 1.179121959517109 0.0 0.0 0.0 0.0 0.0 0.0 0.24404117519776003 0.0 0.5067478013393975 0.0 0.0 0.0 0.10688451466709313 0.0 0.4254074793539163 0.0 0.3828547794074572 0.0 0.0 0.0 0.6485505575040006 0.3636355615621725 0.0 0.22222003991644684 0.0 0.0
347 0.0 0.0 0.0 1.4528250325103107 0.0 0.0 1.5356998630555312 0.0 1.073815930482811 0.5919598063229963 0.0445782681405959 0.0 0.0 1.0343967576824737 0.0 0.07172502808331824 0.0 0.0 1.2919643816816182 0.0 0.0946926295520757 0.0 0.5979475264610989 0.0 0.0 0.0 0.037806734832472724 0.0 0.0 0.0 0.27631546413448405 0.0 0.07551784339340117 0.0 0.0 0.0 1.0386885814923725 0.26628839863822834 0.7540835486363047 0.049263946115173055 0.0 0.0 1.7003096050406208 0.5532589908879142 0.4297850907946753 0.0 0.0 0.2683557466267813 0.19072070099834654 0.0 0.0 1.6179423010343212 0.0 0.0 0.0 0.0 0.0 0.0 0.0 0.6181014951604479 0.0 0.0 0.83359664732174 0.0 0.0 0.0 0.0 0.0 0.0 0.1967102731636613 0.0 0.33019967901873853 0.2343377498729657 1.4070591570232176 0.0 0.0 0.0 0.0 0.0 0.0 0.0 0.3761752493726956 0.022113440007051323 0.6527420447741965 0.11771521702789796 0.0 0.0 0.0 0.022543045565580754 0.0 0.0 0.0 0.0 0.3572841433091153 0.0 0.5968127813196569 0.009695036611368927 0.16503796593070724 0.0 0.0 0.3017673147408711 0.8211913447628891 0.0 0.0735700910974629 1.1566659310363936 0.3889559852800034 1.2248373775095232 0.4766849921137074 0.0 0.0 0.6489589685259108 0.268235460292484 0.518981416551675 0.0 0.0 0.0 0.0 0.0 0.0 0.0 0.07853320896880076 0.0 0.0 0.0 0.542530009987953 0.0 0.0 0.6494662320324069
340 0.4102750500797107 0.5626803093709496 0.0 0.36031014854345894 0.678749990002934 0.06326098645899465 0.0 0.34512547016485084 0.0 0.0 0.0 0.2199257086364901 0.0 0.15388923839814492 0.0 0.0 0.0 0.0 0.0 0.0 0.0 0.0 0.0 0.0 0.0 1.1204118462998909 0.0 0.6209563497059886 0.0 0.0 0.0 1.3047597554575707 0.19088300942610228 1.2578322159793067 0.0 0.0 0.0 0.8001615773782849 0.609347136430167 0.0 0.0 0.0 0.8292398006085921 0.8339390567975437 0.0 0.12604532507991628 0.0 0.5572239603205722 0.0 0.07236923002971068 1.540118943178623 0.0 0.0 0.0 0.0 1.8213844879604677 0.0 0.0 0.3156962663121275 0.0 0.0 0.0 0.0 0.0 0.5224099742654629 0.0 0.0 0.054004277440956025 0.0 0.0 0.0 0.0 0.4920883687741976 0.0 0.018249448782977615 0.06999674177137402 0.5723521303664473 0.5615833365631361 0.0 0.2698984236699048 0.0 0.0 0.0 0.0 0.0 0.2706520575513667 0.34664741854083253 0.0 0.0 0.3033229854933693 0.0 0.0 0.7072550382713918 0.3706661211594527 0.0 0.0 0.5877153662983101 0.0 0.49628686092779667 0.0 0.0 0.0 0.0 0.14272611529578896 0.0 0.1134672626627155 0.0 0.0 0.3457508094827828 0.0 0.0 0.0 0.0 0.0 0.0 0.005906433248714004 0.0 0.0 0.2954618000376809 0.0 0.2747645516591488 0.0 0.0 1.0813653869072957 0.017485019339012385 0.0 0.0 0.0
341 0.0 0.0 0.0 1.3985427583504506 0.0 0.0 0.0 0.0 0.3074011651404205 0.0 0.0 0.7736677311676032 0.17863866704322232 0.0 0.0 0.0 0.0 0.0 0.0 0.6622718182646866 0.2924184261375427 0.0 0.0 0.0 0.33581695841430614 1.3303518568663613 1.236703382864918 1.6026809159635864 0.08548658289212718 0.0 0.0 0.0 0.0 0.0 0.0 0.020787920751736133 0.0 0.0 0.0 0.0 0.0 0.0 0.0 1.1692328874049958 0.0 0.0 0.0 0.9359684940108934 0.22762173621516663 1.08784366586106 1.2298449418840849 0.4083940665471147 0.0 0.27959017333547276 0.37419860759521933 1.00086960698524 0.1504545968002159 0.5882862151364026 0.007508523831436405 0.0378258122032425 0.0 0.04118989979633446 0.0 0.44350711773502205 0.0 0.6872006871187566 0.0 0.0 0.7129976266479457 0.2612158834710116 0.0 1.5758767393724116 0.0 0.0 0.8360618151677949 1.1437728918971901 0.0 0.23786582004176823 0.0 0.0 0.0 0.0 0.8997649460346862 0.0 0.0 0.7562110051793384 0.0 0.0 0.0 0.0 0.0 0.0 0.0 0.9540296380824084 0.0 0.0 0.0 0.48039859402379326 0.0 0.0 0.0 0.0 0.0 0.23732203657469783 0.0 0.0 0.0 0.0 0.0 0.0 0.38932899127934345 0.0 0.0 0.0 0.17562070584447811 0.26051273354803195 0.049314183472122936 0.027807855107842595 0.32946960611882153 0.2560348082381136 0.4286374560369097 0.029755424682433515 1.4357221870576053 0.5270247289191599 0.8698159147502734 0.0 2.473517929539314 0.0
342 0.0 0.0 0.498174631765487 0.0 0.0 0.0 0.0 0.0 0.5873017651593894 0.8002432027411447 0.3970716119194292 0.0 0.0 0.0 0.6672695253414741 0.574136242687392 0.0 0.0 0.0 0.0 0.3837734575827567 0.0 0.0 0.0 0.0 0.0 0.1565479288761542 0.0 0.0 0.0 0.0 0.5759353861100769 0.0 0.0 0.0 0.23099158769376518 0.036773042325622354 0.0 0.0 0.0 0.0 0.09127570551407836 0.0 0.0 0.4303626487410157 0.26794429571954687 0.0 0.0 0.20753286857914796 0.0 1.316313970153576 0.11655866198230927 0.0 0.0 0.0 0.21832758018747908 0.17885883140025882 0.0 0.0 0.10850295234668528 0.0 0.0 1.597770113499971 0.0 0.0 0.8257275147674685 1.0212029988408644 0.0 0.0 0.0 0.0 2.3748250761220167 0.0 0.6003599398115135 0.0 1.0017205750727018 1.076861193975895 0.0 0.0 0.0 0.0 0.0 0.0 0.0 0.0 0.6119859493061551 0.2674185747374314 0.5248205302404765 0.1945945626454699 0.0 1.158650154832343 0.0 0.0 0.9007215573966931 0.26077989432467547 0.0 0.0 0.08711529833173894 0.32352802221957777 0.0 0.0 0.0 0.0 0.02156474924129609 0.0 0.0 0.0 0.0 0.0 0.0 0.0 0.0 0.0 0.0 0.2382572924624116 0.0 0.0 2.3106990240989114 0.3873961070290516 0.0 0.0 0.0 0.0 0.0 0.12464299135999517 0.7490816155741785 0.6153108862536165 0.0
343 0.0 0.0 0.0 0.9320435944208928 0.0 0.0 0.0 0.0 0.0 0.21136244577672275 0.0 0.4793690458984373 0.11418234918534775 0.37642830720914894 0.0 0.0 0.05320085506489326 0.0 0.0 0.0 0.0 0.5036039091266276 0.0 0.0 0.0 1.0069307742395686 0.0 0.23173830019074615 0.0 0.06544288911381516 0.0 0.2837828808934778 0.0 0.0 0.0 0.0 0.45489054000531537 0.0767298597531405 0.8943859393158834 0.0 2.045756010710694 0.0 0.0 0.5206059529522538 0.0 0.6357138961702936 0.0 1.4951035402879758 0.0 0.0 0.056673924594979115 0.0 0.7356791763323506 0.25568279685380857 0.0 0.0 0.9864546824000154 0.959449355446597 1.0142255798231221 0.2350921088804513 0.0 0.0 0.0 0.0 0.0 0.9700808305529821 0.0 0.0 0.0 0.0 0.0 0.0 0.0 0.10282095143145899 0.6681650607162564 1.1470079860494877 0.4279843839764326 1.5319810273259575 0.0 0.054537223847487375 0.0 0.0 0.0 0.8567826008626896 0.0 0.0 0.5071015844665256 0.28144174757264206 0.23158868904426713 0.0 0.0 0.0 0.0 0.0 0.0 0.0 0.0 0.0 0.5712115784157995 0.0 0.0 1.2234632141739032 0.0 0.6252266622896434 0.03686821338793635 0.0 0.0 0.0 0.0 0.0 0.0 0.0 0.0 0.0 0.0 0.0 0.0 0.0 0.011931385569436072 0.18624847782114906 0.0 0.0 0.6948028623987834 1.0046555599170741 0.0 0.0 0.002472310756883117 0.0
348 0.0 0.0 0.0 0.62358579903284 0.0 0.0 0.04591810455064151 0.0 0.7875380236728117 0.005514699741132498 0.0 0.0 0.14771028532083127 0.4101573660427711 0.0 0.0 0.0 0.0 0.0 0.5606010812602477 0.0 0.0 0.10664785468072485 0.0 1.123759723301099 0.0 0.02866598040118791 0.4106111475412299 0.0 0.0 0.6371727293084581 0.4682651307334272 0.0 0.8340789439803202 0.0 0.18331462985839633 0.099295019492486 1.0218564385345774 0.0 0.38425962448946466 0.0 0.0 0.0 0.0 0.0 0.0 0.2205795987447412 1.8479557507727862 0.0 0.0 0.0 0.0 0.0 0.0 0.0 0.5028377592948974 0.0 0.0 0.2073544463113388 0.1822881262075766 0.0 0.0 0.0 0.0 0.12326401859285395 0.0 0.0 0.0 0.0 0.0 0.0 0.04737571763119113 0.0 0.13660346782909696 0.0 0.0 0.0 0.3461416658506282 0.5446950564620583 0.0 0.0 0.7783881490999561 0.0 0.0 0.8365881476308812 1.1665440743432456 0.0 0.0 0.0 0.27325997378116357 0.4504560757905487 0.0 0.0 0.5495448996863765 0.3507210154165617 0.12056426302225695 0.0 1.8140252018139975 0.0 0.0 0.0 0.0 0.0 0.12924761531136375 0.0 0.0 1.7004911576305288 0.0 0.0 0.4417312933028158 0.0 0.0 0.0 0.0 0.0 0.0 0.0 0.0 0.0 0.34412070741936146 0.0 0.054833778136066845 0.0 0.0 0.0 0.0 0.0 0.0
349 0.0 0.0 0.0 0.5748791787827977 0.33731449908812944 0.0 0.07796425218581793 0.0 0.0 0.0 0.0 0.0 0.0 0.0 0.650621803943342 0.0 0.0 0.5649802388704853 0.877487571984549 0.5234203240535023 0.0 0.0 0.0 0.0 0.0 0.0 0.0 0.0 1.0778127455755253 0.9762769695326456 0.34602817399054836 0.0 0.24379372449105338 0.02291335464246603 0.27785628059897677 0.0 0.010283374768911297 0.0 0.0 0.0 0.3823666461873927 0.0 0.0 0.0 0.0 0.0 0.0 0.0 0.0 0.0 0.0 0.0 0.0 0.34787006371526996 0.0 0.12305948569185769 0.0 0.0 0.0 1.6624425515992913 0.0 1.317788457525334 0.2866158037065568 0.0 0.0 0.0 0.0928531527777798 0.0 0.029237633316042316 0.28583077048696287 0.11728223851144852 1.3420573862286067 0.0 0.0 0.1753869572414163 0.6070916520019514 0.0 0.0 0.0 0.0021991578284400242 0.0 0.0 0.6969706522833091 0.0 0.16881679305809694 0.0 0.0 0.0 0.0 0.0 0.5322429094469381 0.0 0.0 0.0 0.039288845428845094 0.0 0.8254814594212718 0.05698751426433326 0.583431596465712 0.0 0.0 0.0 0.0 0.0 0.0 0.0 0.7065076868934594 0.0 0.0 2.3661721691806012 0.0 0.0 0.0 0.0 0.0 0.0 0.0 0.0 0.0 0.0 0.4353279994755166 0.0 0.3512122305137675 0.2578922012602193 0.0 0.13925263748126837 0.0 0.0
594 0.0 0.13952517859829627 0.0 0.042444795850665525 0.0 0.0 0.0 1.3197131851297144 0.618102234220545 0.0 0.7356135290623615 0.0 0.7746181144142691 0.38230784675257923 1.7916794716647684 0.2751497247164946 0.0 1.8374404313836166 0.0 0.0 0.0 0.0 0.0 0.019002804760419566 0.5966146417487878 0.0 0.0 0.0 1.3165293703620664 0.5112750070911185 0.0 0.0 0.0 0.06723613185185086 0.0 0.07329082076230341 0.0 0.0846967191220445 0.0 0.18536854942398318 0.0 0.19612341201601702 0.0 0.0 0.0 0.0 0.0 0.0 0.1734124181312858 0.0 0.0 0.031133161783940926 0.0 0.456462413464927 0.3809480211956833 0.0 0.5107917982050235 0.0 0.0 0.0 0.0 0.0 0.0 1.0323157943643595 0.0 0.6536651204702405 0.0 0.0 0.3423747299255597 0.0 0.0 0.0 0.0 0.0 0.0 0.0 0.0 0.0 0.860857322466554 0.0 0.10279793073376398 0.6150548947977358 0.0 0.6625090387985291 0.0 0.0 0.0 0.0 0.0 0.0 0.13625945391108368 0.0 0.0 0.0 0.0 0.0 0.2724651213622563 0.0 0.0 0.0 0.0 0.0 0.0 0.0 0.0 0.0 0.0 0.0 0.03581416930169845 0.0 0.3677426237084055 0.47820668722737764 0.0 0.0 0.0 1.4832469425287484 0.0 0.03185539241505029 0.0 0.0 0.10443721886663297 0.0 0.0 0.7830638312850334 0.6730981185917425 0.3484759294752288 0.0 0.0
2318 0.5069670432548709 0.7813937773793665 0.0 0.0 0.0 0.8786168737929987 0.48207674214545737 0.0 0.0 1.4217046643844973 0.0 0.0 0.05442871621525598 0.20039153491815181 0.41974840932868357 0.0 0.0 0.0 0.0 0.0 0.0 0.6028218773310251 0.05380468676549857 0.0 0.5375168098942498 0.0522156894031324 0.0 0.0 0.0 0.0 0.0 0.10318938755667752 1.0386342251870966 0.0 0.0 0.0 0.0 0.0 0.0 0.0 0.0 1.5654499690038144 1.4475817050501885 0.0 0.0 0.0 0.028138901795920667 0.41989614602269204 0.0 0.0 0.0 0.0 0.0 0.0 0.0 0.0 0.0 0.0 0.0 0.0 0.13843611432420985 0.38400993911498893 0.0 0.0 0.0 0.2375238020682324 0.0 0.0 0.0 1.104551480229351 0.0 0.0 0.5432273719197507 0.0 0.0 0.8511016239631232 0.940677012686332 0.0 0.0 0.14306465795056705 0.0 0.0 1.1316249028769798 2.1116839094103863 0.0 0.2596353024343739 0.0 0.22027122099997012 0.6303001474068444 0.0 0.6830504369015581 0.7705307870294631 0.0 0.38248299720159784 0.633002298225802 0.0 0.0 0.0 0.0 1.1138344400733158 0.0 0.0 0.0 0.0 0.8408781589519749 0.9539932098154934 0.7311186036638717 0.0 0.0 0.0 0.0 0.0 0.0 0.718623737750387 0.0 0.0 0.012264639215061482 1.8112171135295323 0.0 0.0 0.0 0.3521543092915873 0.0 0.4689176455056627 0.0 0.0 0.4396375641690608 0.0
2319 0.0 0.0 0.4422087489318902 0.4568598478862409 0.0 0.0 0.4507970406254726 0.0 0.0 0.0014360070021637132 0.0 0.0 0.6723053978189379 0.0 0.4595009621214261 0.0 0.03976508364747851 0.0 0.0 0.0 0.2365548094352349 0.28819663732591294 0.0 0.7721339080919696 0.2948595640386776 0.0 0.0 0.0 0.9143339930178395 0.0 0.0 1.0558636089937192 0.0 0.0 0.0 0.22273690654400197 0.0 0.0 0.0 0.0 0.0 0.0 0.0 0.0 0.0 0.0 0.23501662473102852 0.0 0.0 0.6295362565725064 0.0 0.0 0.0 0.0 0.0 0.0 0.0 0.0 0.0 0.6924652828647679 0.0 0.0 0.28919582795237714 0.0 0.09860909360238064 1.1132976463960482 0.8216814303586487 0.0 0.2033027718360773 0.39774106612279225 0.0 0.0 0.0 0.0 0.0 0.3634462465047123 0.0 0.0 0.0 0.4553091665069805 0.16755032254974833 1.1678961629993987 0.0 0.0 0.24178821007828866 0.0 0.2820135740564234 0.12755869230903913 0.0 0.0 0.0 0.0 0.0 0.0 0.18670809876160893 0.11645119083614233 0.0029127981716361214 1.0139475113648881 0.12114035147109538 0.031932816192526095 0.7370814346934067 0.0 0.0 0.0 0.056191912076972966 0.0 0.08040864501396325 0.0 0.013321111494903297 0.0 0.0 0.20988881799308431 1.2461401292191323 0.0 0.0 0.0 0.6760398773132669 0.0 0.0 1.298521700417185 0.0 0.0 0.0 1.015609684357024 0.0 0.0 0.0 0.0
2316 0.1081914168525292 0.0 0.09089444213683574 0.0 0.6257470819810345 0.0 0.12449375149370041 0.6165473444323805 0.0 0.0 0.0 0.4335185152056407 0.0 0.0 0.0 0.0 0.0 0.0 0.0 0.0 0.06279339485702976 0.0 0.0 0.0 0.9115369762381225 0.8533586636517128 0.0 0.0 0.0 0.10809473634318728 0.0 0.9172147628435879 0.20858879433384583 0.0 0.0 0.21147362162171912 0.0 0.0 0.0 0.0 0.48557242922207383 0.4327727431359519 0.4863955202573956 0.0 0.1631183526064762 0.0 0.13792774586281706 0.6199498889457864 1.8240120517180245 0.0 0.21867281653496057 0.0 1.0218125005416472 0.0 0.0 0.0 0.4022103115372685 0.0 1.0434313739366188 0.0 0.44255544676248937 0.0 0.0 0.0 0.11978356364605784 0.0671313034152017 0.3643249744781019 0.0 1.0212961522274109 0.0 0.0 0.0 0.0 0.0 0.0 0.0 0.14664209469755632 0.0 0.3463273914356688 0.0 0.0 0.0 0.0 0.15358013272078688 0.0 0.620883071438845 0.0 0.0 0.18797218546097458 0.0 0.0 0.04914120320201448 0.0 0.0055724184251716635 0.15370378945290405 0.31954955212723657 0.09112641770926136 0.8774843300595213 0.0 0.0 0.19287261600614744 0.643971330505836 0.0 0.0 0.0 1.1847092841102322 0.1855003952702882 0.7734473557607126 0.2916137641596487 0.0 0.0 0.39948000050871424 0.6441470843775872 0.0 0.5190315571766639 0.3920284286719912 0.17647628302574714 0.5292086673458811 0.0 0.0 0.0 0.05222652762772566 0.1696465709717199 0.0 0.5746199953601105 0.03165257704059326 1.09843958387289 0.14759707392082858
2317 0.0 0.24964525098948592 0.7414443124275064 0.0 0.9054400850504146 0.20931072402080697 0.0 0.16903268348760542 2.2750130335881846 0.0 0.0 0.08061003495580489 0.0 0.52145306431947 0.0 0.9985398595497799 1.307492398821385 0.8961571892195244 0.0 1.059575774697588 0.0 0.0 0.0 0.0 0.0 0.9654280471484594 0.3791314503678781 0.0 0.07185428822139157 0.0 0.0 0.0 0.9569553329016488 0.11401359914614903 0.7780818021046569 0.0 0.0 0.9776608945659833 0.0 0.45603600277618067 0.0 0.0 0.0 0.0 0.7764107743711337 0.2642618727270947 0.5082591746897439 0.6884862141789676 0.0 0.0 0.1136570888794249 0.0 0.6301525275931804 0.14803015322651142 0.06613341260101263 0.0 0.0 0.41334119236265565 0.3664272286990307 0.0 0.0 0.0 0.0 0.0 0.0 0.0 0.0 0.018980036506188347 0.0 0.0 0.0 0.8714606615429453 0.0 0.0 0.0 0.0 0.0 0.0 0.758233298388695 0.43944014865196723 0.0 0.9159710902603815 0.13422418736518088 0.0 0.20114491449951535 0.0 0.41624431363010916 0.0 0.0 0.0 0.3657452308454826 0.0 0.15225208080818636 0.0 0.0 1.1753374594837362 0.0 0.0 0.05301707949495249 1.0089458911312574 0.0 0.04958408967494696 0.0 0.0 0.0 0.0 1.2600073469468218 0.0 0.0 0.0 0.0 0.6731919109297637 0.0 0.0 0.0 0.5705782774111576 0.2605312866860832 0.0 0.0 0.998038309340694 0.0 0.0 0.0 0.6443621957259881 1.6787389948841225 0.0 0.0 1.2145781323742169
2314 0.0 0.0 0.9215898418638855 0.6409414720747753 0.0 0.0 0.5938984163646632 0.0 0.0 0.14042833997360543 0.0 0.0 0.07784704240384444 0.5418082836203467 0.0 0.0 0.0 0.0 0.0 0.0 0.0 0.0 0.0 0.05269800797916216 0.0 0.0 0.0 0.0 0.24609456287064416 0.0 0.0 1.090055618517787 0.01225300302208132 0.10166154421790631 0.0 0.0 0.0 0.0 0.6622629020223448 0.0 0.6624315785188988 0.0 0.2107338168879187 0.4322169580445626 0.0 0.3802840679261437 0.0 0.0 0.0 0.5191282450601776 0.0 0.0 0.4559377785917078 0.0 0.0 1.204339846572005 0.0 0.0 0.0 0.0 0.0 0.0 0.3816658175455392 0.0 0.0 0.2235427936195248 0.0 0.0 0.0 0.0 0.7796471027616224 0.0 1.6608032794704404 1.0571635376656827 0.06271456900077507 0.0 0.0 0.0 0.03731178097919752 0.0 0.0 0.27857377776595804 0.0 0.0 0.0 0.6549005268521466 0.0 0.0 0.0 0.0 0.0 0.0 0.22094881496462201 0.0 0.16585648158866806 0.0 0.0 0.33562164048438425 0.0 0.0 0.0 0.0 0.0 0.0 0.47217069721261096 0.28877451883516675 0.0 0.0 0.0 0.0 0.0 0.8489795832883392 0.8820093396325478 0.23883811097141466 1.4860304259410908 0.2642286909236266 0.09507224937309418 0.0 1.0802607196635332 0.0 0.0 0.0 0.0 0.0 0.06934339233383345 0.0 0.0 0.0
2315 0.0 0.7463606422633677 0.0 1.0226766685526978 0.5314708071514571 0.6822022938287571 0.9324433883559707 0.0 0.0 0.0 0.0 0.32974991180833596 0.0 0.0 0.0 0.0 0.0 0.0 0.820349093196598 0.0 0.0 0.0 0.033591356368630754 0.30245660237788596 1.3147194304040872 0.09573227271677741 0.5953855510513264 0.0 0.0 0.0 0.19602739982628004 0.0 0.0 0.0 0.0 0.0 0.0 0.0 0.0915776758124889 0.0 0.16906433758954748 0.0 0.0 0.0 0.0 0.0 0.0 0.0 0.4755092866564237 0.0 0.03289278350364045 2.362185407027313 0.0 0.19124978851843363 0.0 0.17480823382586938 1.1852250258953883 0.50076432626081 0.0 0.0 1.1340997598978169 0.0 0.0 0.0 0.0 0.0 0.0 0.0 0.0 0.0 0.34335742659501395 0.30991248513134245 0.0 1.6069008925422759 0.0 0.0 0.0 0.7724237995763749 0.011066565074935138 0.0 1.7422793675605017 0.5047142836815315 0.0 0.07764412027911806 0.0 0.35632415880503104 0.0 0.0 0.5314028191092359 0.3649349006390455 0.0 0.0 0.0 0.0 0.0 1.0066116831537393 0.4326012484509646 0.17008829804374284 0.0 0.621637383894803 0.0 0.0 0.0 0.022271150025999123 1.283552104124194 0.19681006382282806 1.0116774206823773 1.6121870542454533 0.26490630750301525 0.0 0.0 0.0 0.0 0.0 0.013154064535829449 0.0 0.0 0.09731990462641191 0.0 0.0 0.0 0.0 0.0 0.0 0.0 0.0 0.0 0.517859137735926
2312 0.0 0.1613801400812639 0.28838043825018345 0.40681561484006856 0.9432168134065967 1.39492436098876 0.0 0.0004736184549809473 0.0 0.0 0.0 0.0 0.2679493155512985 0.5690135283501642 0.0 0.0 0.5070649279311124 0.08423751143652779 0.0 0.0 0.3051844767584467 0.0 1.2187598804178261 0.0 0.12512684515837033 0.0 2.1694509667645154 1.3720269309533994 1.0037807970962325 0.3349216978322612 0.0 0.0 0.6995236996393706 0.33097671309907944 0.435166721468207 0.0 0.0 0.17930757213292872 0.0 0.0 0.0 0.0 0.0 0.11359200281816391 0.5687827142500915 0.4441197153068621 0.7068845633055933 1.1487657340397592 0.0 0.0 0.0 0.0 0.338092494208872 0.0 0.29044147951091764 0.0 0.0 1.0573963533507893 0.31629296570722176 0.0 0.1365917324441093 0.3663428225544207 0.20944620343304746 0.0 0.0 0.0 0.0 0.0 0.0 1.1249420181583147 0.0 0.0 1.220664344630025 0.0 0.0 0.3700730697621522 0.135014525834011 0.0 0.0 0.40696553375098116 0.8785226917669301 0.0 0.16655821715757657 0.0 0.18714689752520905 0.6574991381515278 0.0 0.0 0.0 0.0 0.0 0.0 0.2855680374485332 0.7091857040068323 0.018654125132661552 0.0 0.0 0.7578427147699903 0.4162193745679974 0.0315486428608417 0.7552361674727514 0.0 0.439749084636206 0.0 1.5156639626692976 0.0 0.0 0.0 1.7402556316088746 0.5242302880644839 0.0 0.0 1.0418459885444418 0.0 0.0 0.0 0.0 0.0 0.0 0.0 0.025472632971731808 1.2685640781608765 0.7781474530155111 0.10356309898600247 0.12262561577488684 0.0 0.0 0.5821666323118188
2313 0.5553033712811837 0.0 0.0 0.37291538322075835 0.0 0.0 0.0 0.20319741585098036 0.0 0.0 0.0 0.0 0.0 0.0 0.0 0.0 0.0 0.0 0.0 0.0 0.0 0.0 0.0 0.0 0.0 0.2246426692108338 0.0 0.9966371485576477 0.0 0.0 0.0 0.0 0.0 0.0 0.0 0.0 0.0 0.5263658716016456 0.0 0.0 0.0 0.13996686023380966 0.24106552781281004 0.0 0.0 0.0 0.0 0.23124456480779967 0.0 0.0 0.0 0.0 0.0 0.0 0.0 0.0 0.0 0.0 0.0 0.0 0.0 0.0 0.49875498381839745 0.285284337997182 0.0 0.0 0.0 0.011215447889451377 0.0 0.0 0.18921509514131407 0.0 0.0 0.15868906569967278 0.0 0.0 0.13064504804451982 0.0 0.0 0.18506359075789955 0.0 0.0 0.6836824984441119 0.3499453172991203 0.4217321867920136 0.8809428897381189 0.0 0.0 0.04569423961925791 0.7162902087314741 2.3100708378973995 1.4171754621513195 0.5083249652268489 0.23145073502883864 0.0 0.0 0.0 0.0 0.0 0.790580883692318 0.0 0.0 0.0 0.17881020287671998 0.0 0.0 0.0 1.0321717896160723 1.0088344574302228 0.0 0.02838873933213573 0.7583259833561928 0.0 0.0 0.9684886527551793 0.0 0.0 0.0 0.0 0.8004698045968028 0.19576262058553312 0.0 0.0 0.0 0.0 0.0 0.0 0.48166160651939965
2310 0.031814910076596384 0.0 0.0 0.0 0.0 0.0 0.0 0.9397322523214884 0.16276584453103665 0.0 0.0 0.0 0.0 0.0 0.0 0.0 0.6384959614408222 0.0 0.24926924780110607 1.3418015494200528 0.0 0.0 0.8802760466484519 0.0 0.0 0.0 0.0 0.0 0.0 0.2628141105968453 0.0 0.0 0.028821032270226782 0.0 0.0 0.0 0.0 0.0 0.0 0.8868932791806352 1.1927239543609212 0.0 0.0 0.17459609869449022 0.0 0.38758015771028265 0.33983548215108345 0.602574988904389 0.5385108392236289 0.0 0.3694347055669582 0.0 0.3887590976168681 0.0 0.3950847784949223 0.0 0.0 0.7472716827455921 0.0 0.32347237173556115 0.35031043409516605 0.0 0.04979153998982612 0.0 0.0 0.0 0.0 0.6813557694503775 0.06701674080298882 0.7303308846210204 0.0 0.28694222621015025 0.0 0.26155641409570923 0.0 0.0 0.0 0.0 0.0 1.705759898462574 1.2238705278883943 0.47273669386200085 0.0 0.3292021166056676 0.0 0.06273830335550618 0.0 0.3406540336015849 0.4500242161338091 0.0 1.4899244345892926 0.0 0.0 0.0 0.33621398052126755 0.7608244156066488 0.0 0.0 0.0 1.1591517142566248 0.0 0.0 0.0 0.4591835600014295 0.9374286867358468 0.0 0.0 0.0 0.0 0.0 0.0716457662615412 0.0 0.0 0.018406647216771144 1.0515877857465803 0.0 0.12222041166802923 0.0 0.0 0.0 0.0 0.0 1.95740827880561 0.25264691359690405 0.0 0.0 0.0 0.29891369209045504
2311 0.0 0.0 0.0 0.033792789564363386 0.0 1.0668282000860823 0.0 0.16381132395343145 0.0 0.0 0.0 0.0 0.0 0.0 0.0 0.22837040455018473 0.4453786706419214 0.5074323782099395 0.4846627003334506 0.2352288301432176 0.0 0.2943258538573541 1.2091984964386624 0.0 0.0 1.148174977583591 0.0 0.0 0.0 0.02518489073196176 0.0 0.0 0.24089312428084816 0.4480733603832235 0.0 1.3245845370701403 0.0 0.0 1.854071569481322 0.0 1.4968989766947507 0.0 0.6683008110983725 0.0 0.8115033616541141 0.0 0.4285407349795712 0.0 0.2644607374405476 0.0 0.4361295696328809 0.0 0.0 0.0 0.4872194912232173 0.0 0.0 0.0 0.15881861444843193 0.0 0.0 0.5858880564712416 0.0 0.5916963604827903 0.0 0.0 0.0 0.2930400725666399 0.0 0.0 0.0 0.0 0.0 0.29863292103003947 0.305694484636497 0.0 0.0 0.5819713404520198 0.0 1.1676734860921407 0.6396054563365162 0.0 0.0 0.08211619737910095 0.0 0.0 0.0 0.8431642582163156 0.0 0.46812125499851576 0.0 0.0 0.0 0.0 0.0 0.01170220689894774 0.34177390089881 0.0 0.0 0.24724737909169947 0.23278861649789986 0.0 0.0 0.0 0.0 0.0 0.0 0.49293237291316994 0.0 0.0 0.0 0.0 0.0 0.0 0.0025816480794484528 0.0 1.001736779603371 0.0 0.3125091108414203 0.0 0.0 0.0 0.0 0.0 0.3211260755621639 0.0 0.26692414987829194 0.3060905544330965
298 0.4502810324736366 0.0 0.0 0.34473588486547696 1.5368033150558489 0.0 0.7393563675023119 1.310831158431293 0.0 0.0 1.1724088250679015 0.0 0.0 0.7943454272303295 0.0 0.0 0.5901221753620732 0.0 0.0 0.0 0.4323874172976445 0.0 0.11778623920061296 0.5156914052158411 0.0 0.0 0.0 0.0 0.0 0.0 0.2807435715184384 0.0 0.0 0.0 0.45126151883205273 0.465614303986352 0.0 0.44532938097136954 0.31929287110969273 1.5309674285169907 0.5452476094010793 0.0 0.0 0.7951178359711052 0.0 0.0 0.0 0.0 0.0 0.0 0.0 0.0 0.0 0.08169204813534538 0.0 0.0 0.0 0.0 0.0 0.0 0.0 0.09180084523015836 0.0 0.0 0.5292197815897625 0.0 0.10325077863567864 0.0 0.0 0.0008243973256499655 0.468791305310219 0.0 0.0 0.3346899130796411 0.0 0.0 0.0 0.0 0.0 0.0 0.0 0.5591855281974742 0.0 0.04182186297245709 0.0 0.0 0.0 0.0 0.0 0.0 0.7717081514012651 0.5578904586969222 1.1207226320889982 0.4295460748036466 0.7321186015921071 0.46333900304365233 0.0 0.0 0.6214407838749032 0.0 0.21199287200230696 0.0 0.6399799766302909 0.0 0.0 0.8350267303349159 1.0544913912972056 0.0 0.2474813244608966 1.2465192007823003 0.2717441718060675 0.0 0.0 0.0 0.0 1.0875322322899252 0.3135761248277981 0.0 1.134965062095147 0.0 0.0 0.0 0.09352408627960596 0.0 0.0 0.19611796120352523 0.0 0.0
299 0.0 0.8093367127640094 0.0 0.38112722626976275 0.0 0.0 0.3556225342967622 0.0 0.8141849467599532 1.0783479122137045 0.003915455602557525 0.0 0.0 0.13991810942584687 0.0 0.019043213083826192 0.0 0.0 0.0 0.13763350065282964 0.0 0.50070330781555 0.0 0.4314164697752558 0.0 0.0 0.0 0.7177619661954412 0.0 0.7324831373674402 0.0 0.0 0.011949053691389598 0.0 0.0 0.0 0.12139867522712636 0.5477827762455647 0.0 0.46822195194958227 0.11872011507415768 0.0 0.08519393782766176 0.0 0.0 0.0 0.5926385672796651 0.0 1.0422273693355322 1.2967686535260796 0.0016787400313377039 0.0 0.0 1.5751938770168368 0.09711517130667263 0.0 0.8502189737170753 0.0 0.19212359219626923 0.0 0.23521053559711466 0.0 0.0 0.0 0.0 0.0 0.0 0.0 0.0 0.074823394326737 0.0 0.0 0.28210133972938456 0.0 1.0001967299306727 0.42139847072345954 0.0 0.0 0.7133761189850786 0.0 0.0 0.23424824941604347 1.5515395029300327 0.39781124797403317 0.0 0.0 0.0 0.6489546929641906 0.0 0.09763847086476009 0.0 0.0 0.0 0.0 0.0 0.9234889984481585 0.5308628503573409 0.0 0.0 0.0 0.23760454347783797 0.0 0.0 0.0 0.1469341717559321 0.0 0.2632750079721881 0.07522310101623589 0.3659123451161873 0.0 0.0 0.5001062310259724 0.0 0.0 0.0 0.0 1.074628256157253 0.0 0.0 0.035361147427750435 1.9917037528025934 0.7010288855776976 0.0 0.4178910914768825 0.0 0.3026600222898145 0.0 0.0
296 1.1963750964879711 0.0 0.5811862453043046 0.0 0.6716812698451615 0.0 0.14052606536837906 0.0 0.03889351976364418 0.0 0.0 0.08315549370854106 0.0 0.0 0.0 0.1305751184816652 0.0 0.0 0.0 0.0 0.0 0.0 0.8970285054734576 0.0 0.6726506731348693 0.0 0.0 0.0 0.0 0.0 0.0 0.0 0.0 3.3884136871436263 0.29529294069492906 0.0 0.07589536405233055 0.0 0.0 0.7263781298085699 0.0 0.0 1.1223421919672367 0.2790214146064387 0.0 0.03838178569474513 0.0 0.3032785482011784 0.08848824357981692 0.5223259745866035 0.24934983177386535 0.17546533504511272 0.0 0.7195874064169572 0.8767051124630126 0.0 0.0 0.0 0.0 0.050542208665888565 0.0 0.0 0.28114350368642693 0.22513306559438745 0.0 0.6148741155509723 0.12756971048305818 0.7427831557129603 0.0 0.0 0.0 0.0 0.21514512851740253 0.0 0.0 0.0 0.16357691597834662 0.0 0.0 0.0 0.0 0.37642242894608413 0.03652426094626914 0.0 0.0 0.0 0.11885595098588322 0.8102337920848379 0.15164273858448082 0.0 1.3338318378281535 0.3814734171490199 0.0 0.0 0.0 0.20768451579968128 0.1580693813697858 0.28718614127819164 0.0 0.5474239675522133 0.0 0.01012866800467631 0.0 0.0 0.0 0.1300542367008527 0.0 0.7080493608056719 0.0 0.0 0.0 0.7209927121511222 0.0 0.0 0.0 0.34799099957580953 0.0 0.9489627146409605 0.3386450404483947 0.5957269425011151 0.0 0.0 0.0 0.0 0.0 0.7051826310477904 1.3041511015036895 0.045905910759918345
297 0.0 0.0 0.39369285357397754 0.0 0.0 0.0 0.0 0.0 0.21477973809171486 0.07129250395080731 0.0 0.025507100073165603 0.09749331910989348 0.45796091309096354 0.0 0.0 0.5501724165273058 0.20167331052728815 0.0 0.0 1.3377155410477848 0.0 0.0 0.13969160974865621 0.0 0.50654418483713 0.5837492515547705 0.11640891618912896 0.0 0.0 0.0026756167803120567 0.3610299511225818 2.6531730191007203 0.0 1.406107705976655 0.09736034320293938 0.0 0.1647187954874796 0.0 0.0 0.0 0.0 0.0 0.2388518314198575 1.2157554792859793 0.0 0.5451354945664656 0.9449585960368899 1.2642983833607944 0.0 0.0 0.0 0.0 0.9491075209433569 0.8456923537268554 0.0 0.5100056100431924 0.0 0.8782433164864974 0.0 0.8441386812359103 0.40042396011741105 0.6516048588619525 0.0 0.0 0.0 0.5645601495409631 0.0 0.0 0.8828590759585103 0.0 0.0 0.41227470473300026 0.0 0.6646198418845191 0.0 0.0 0.0 0.6691187886954176 1.2518904866550176 1.889678968725461 0.7938451629937714 0.0 0.0 1.105148438107377 0.0 0.26133329349764506 0.0 0.0 0.4887692758052193 0.016155036052231238 0.10064848374723619 0.0 0.0 0.10689578756239869 1.2327753135619255 0.0 0.007318768630580194 0.8767208284700491 0.0 0.0 0.0 0.0 0.0 0.26406273865996094 1.235637007090605 0.0 0.9129516749053705 0.0 0.0 0.0 0.6442837336549327 0.0 0.09650682289286408 0.0 0.4144410908607829 0.5525343732693487 0.0 0.044266966959570844 0.06021939158672925 0.0 0.08526244366869029 0.8998710365812793 0.0 0.0 0.0 0.0 0.11649156180025005
294 0.0 1.4051859119888053 0.0 0.0 1.1201861146809933 0.9225718933155778 0.45671111701581424 0.0 0.0 0.0 0.0 0.11902267321085276 0.0 0.11544537990658318 0.0 0.0 0.0 1.0945719621071854 0.0 0.8114343296605077 0.0 0.0 0.7924396745637042 0.0 0.31958420959445516 1.2415791011234822 0.6378040940095562 0.0 0.0 0.0 0.0 0.10847189581668955 0.41643928721641826 0.0 0.025862901848282313 1.2515946634636763 0.0 0.0 0.8646000096085112 0.0 0.12880925108737157 0.0 0.2701460889790327 0.0 0.328034919389923 0.0 0.5831214352826392 0.0 0.0 0.2870966689268504 0.0 0.0 0.0 0.0 0.0 2.0892095645265583 0.0 0.0 0.0 0.033334480375105224 1.9748456992865333 0.0 0.7210233574165004 0.0 0.0 0.5284920808028393 0.0 0.0 0.0 0.8320449843478204 0.0 0.2510485081806318 0.33534404687659813 0.8538121356240876 0.0 0.0 0.0 0.08152633601483884 0.0 1.0440423832777905 0.07334949452894493 0.0 0.0 0.006175331632699159 0.0 0.2814825500262319 0.6746601667117791 0.8832599129835128 0.0 0.34569240480772245 0.0 0.0 0.39271325047487377 0.03779526113822184 0.0 0.0 0.0 0.0 0.3693377504412669 0.0 0.0 0.0 0.0 0.0 0.0 0.0 0.0 0.0 0.0 0.0 0.21601199102542692 0.0 0.137620394927417 0.43343741103301886 0.524093538095479 0.0 0.0 0.0 0.3487790058450067 0.1285069865606906 0.35738318304218075 0.4761885582597352 0.10017033370228215 0.0 0.5010337017890366 0.0 0.0 0.9334784302598484
295 0.0 0.4044198374953992 0.0 0.0 1.8021993054215812 0.0 0.0 0.15178228357893622 0.6263107377507819 0.0 0.3143808552819806 0.0 0.5364909877735591 0.27402528132083065 0.4985571609373322 0.0 0.0 0.0 0.0 0.7548546708264133 0.0 0.0 0.0 0.0003126384186392991 0.0 0.0 0.0 0.2022995453997788 1.0140499075618292 0.0 0.0 0.0 0.0 1.3594657455926933 1.1183523079150044 0.6435985861720275 0.15343594865214358 0.0 0.18270017389376553 0.0 0.0 0.0 0.027517666709482407 0.3510701906695302 0.0 0.0 0.0 0.10608042118808368 0.0 0.0 0.0 0.0 0.0 0.0 0.0 0.0 0.0 0.22875995169622576 0.0 0.5335246969774975 0.0 0.3120058088631482 0.0 0.0 0.0 0.0 0.0 0.0 0.0 0.04290872032400306 0.0 0.9317151701675503 1.3523275409163438 0.0 0.0 0.0 0.0 0.0 0.0 0.0 0.0 1.159325982066784 0.10600096463407443 0.0 0.0 0.0 0.0 1.4235506172221342 0.0 0.0 0.0 0.0 0.0 0.0 0.0 1.6473372872422634 0.0 0.16177588096357465 0.0 0.7206179075972451 0.08551879978876305 0.0 0.0 0.0 0.0 0.4422934373767677 0.0 0.0 0.7738361116612688 0.0 0.0 0.40853506500112624 0.0 0.0 0.0 0.0 0.0 0.0 0.0 0.0 0.6553190722163272 0.36392205204799716 0.0 0.2920090848332128 0.6657347191311036 0.0 0.0 0.20294832160714588
292 0.0 0.0 0.09770938944026425 0.6731044299660597 0.0 0.0 0.0 0.0 0.03358197993221114 1.8721339016853016 0.0 0.0 0.22184560865425634 0.0 0.0 0.8522583112058857 0.6255281586026179 1.1762555878266645 0.0 0.0 0.0 0.0 0.3427024357581544 0.5877908401700278 0.0 1.1171837972797676 0.6063394379096547 0.0 0.05670649046729707 0.0 0.0 0.37785700300786346 0.07708591827841624 0.0 0.0 0.5597042443272864 0.5963415238681391 0.0 0.6036804823876231 0.0 0.42598845430320864 0.0 0.9565307454148867 0.0 0.0037877491405687016 0.0 0.0 0.0 0.33349812786184335 0.0 0.0 0.31281216933060935 0.0 0.0 0.0 0.789899710229452 0.0 0.3443846311404407 1.3474181034983606 1.0965242692589896 0.0 0.0 0.0 0.0 0.0 0.0 0.0 0.0 0.04891133754185051 0.0 0.0 0.7506744491248263 0.0 0.2571123755430216 0.0 0.0 0.0 0.0 0.0 0.0 0.0 0.0 0.0 0.3700355678523735 0.05388442729982453 0.0 0.0 0.0 1.0041614929503098 0.0 0.07084273431283766 1.1673837695260714 0.0 0.0 0.5826172112475397 0.0 0.0 0.0 0.46339616500008224 0.7830108587231785 0.0 0.0 0.0 0.0 0.0 0.0 0.0 0.0 0.0 0.0 0.23093335103118393 0.0 0.0 0.0 0.6012722806102979 0.0 0.43541953256600996 0.0 0.0 0.033264305252068374 0.0 0.36276715012821503 0.0 1.4072770118778386 0.0 0.0 0.365400451158533 0.0
293 0.2969659782965969 0.0 0.0 0.0 0.0 0.0 0.020481255181428785 0.7939428964723105 0.0 0.49673704025093834 0.0 0.16742585448894798 0.457967267025379 0.0 0.0 0.0 0.0 0.0 1.4278226365771367 0.0 0.3254289807291572 1.9942840072494554 0.0 0.0 0.0 0.2224909302429919 0.0 0.0 0.0 0.0 0.8058241503787935 0.0 0.1293571146911697 0.161385394719941 0.0005079926210110556 0.0 0.0 0.0 0.5080544435907255 0.10104514483011293 0.3958013570119364 0.2647780812785184 0.4881316948876229 0.0 0.0 0.0 0.0 0.0 0.0 0.4734990816235871 0.21642011386384946 1.0647924491434735 0.7336000927626535 0.44942882597551653 0.0 0.0 0.0 0.0 0.0 0.39327663330184803 0.0 0.0 0.3257071406005128 0.0 0.0 0.7077220828854431 0.5843233908465504 0.18661333260163365 0.0 0.8042834448516782 0.0 0.0 0.0 0.22150634480332085 0.22567128612663986 0.0 0.0 0.047631297628826744 0.5838500301054383 0.0 0.0 0.0 0.0 0.0 0.13166022683089668 0.0 0.0 0.0 0.0 0.0 0.0 0.0 0.0 0.0 0.0 0.29244531845816624 0.0 0.2513161502301291 0.0 0.0 0.0 0.0 0.13634008153711627 1.0854938289839586 0.0 0.0 0.6438422133408361 0.06275088081847657 0.573224742570912 0.0 0.0 0.0 0.0 0.0 0.0 0.42328934027845794 0.5384419077205485 0.0 0.8354787546536706 0.0 0.12964533616725066 0.0 0.12015502728732745 0.0 0.3835422828513991 0.0 0.5417003978989455 1.8247615532966568
290 0.3702749242074214 0.0 0.0 1.9245942272062013 1.069114937075567 0.4196528577233348 0.09501843248506764 0.0 0.0 0.0 0.0 0.04386220018520363 0.0 0.0 0.0 0.4626762670079102 0.0 0.28066888321258776 0.0 0.0 0.0 0.0 0.0 0.0 0.6549176445418994 0.21691193317304358 0.0 0.3053274792781318 0.0 0.0 0.0 0.0 0.41737130754752527 0.0 0.27599847685550205 0.0 0.0 0.0 0.1700596830161831 1.536959297126657 0.0 0.008386553831050882 0.33371052453196776 1.0935034302306996 0.0 0.0 0.670365361139484 0.13917821608676387 0.0 0.1746738183809899 0.0 0.044123096411433624 0.0 0.0 0.0 0.0 1.2128740636410467 0.0 0.0 0.08789219211224841 0.7246600716857272 0.33265225940741766 0.0 0.0 0.0 0.1006356862446954 0.0 0.5985443135385743 0.43977640624037967 0.33347003797041674 1.1472791947623848 0.0 0.0 0.0 0.39322099105536246 0.6838006775507116 0.0 0.0 1.1970493500864232 0.00151075520606806 0.0 0.14501161326126297 0.0 0.0 0.4337817960009596 0.0 0.0 0.0 0.0 0.945457167920715 0.0 0.09666762793221531 0.5818883728857905 0.0 0.0 0.0 1.0710411272150142 0.023615661643386694 0.0 0.0 0.0 0.0 0.0 0.0 0.0 0.11065341542441083 0.0 0.0 1.2416990911936976 0.0 0.0 0.24115890156120856 0.0 0.0 0.4670190054360279 0.0 0.0 0.0 0.0 0.0 0.0 0.5342530100702214 0.0 0.0 0.0 0.0 0.0 0.0
291 0.5211945159650583 0.0 0.0 0.6164435195231358 0.0 0.0 0.49605891607942953 0.9386370748975145 0.3760234068101825 0.0 0.0 0.0 0.0 1.035024889893664 0.10257340827198823 0.0 0.0 0.0 0.0 0.952795191130099 0.9923906148512811 0.0 0.0 0.3963114444260576 0.42662452172616344 0.0 0.0 0.0 0.0 0.0 0.0 0.0 0.0 0.0 0.0 0.5508878919732153 0.0894456229911771 0.0 0.7526103881637539 0.32449300171040313 0.5940914508123376 0.0 0.0 0.0 0.09322592392520851 0.0 0.8283689927180828 0.0 0.0 0.5710632414774706 1.0507149670688978 0.0 0.5811175680688526 0.6834713731444505 0.0 0.9963484817151562 1.5574404721677426 0.06597646677843265 0.16544965905297845 0.0 0.0 0.0 0.30980144699422935 0.0 0.29876764119767996 0.39556444408412944 0.0 0.0 0.0 0.41949086144133607 0.0 0.3867538765409169 0.0 0.11359321506587783 0.0 0.0 0.0 0.0 0.0 0.0 0.602542394211231 1.7178606200258146 0.882710340102278 0.0 0.0 0.0 0.0 0.0 0.0 0.0 0.013389523882792614 0.0 0.209821868980204 0.23765044144772593 1.2473187664148382 0.0 0.0 0.0 0.47895316061780036 0.1297810763244107 0.17483524322013533 0.0 0.0 0.0 0.424982093310213 0.0 0.0 0.0 0.0 0.0 0.13920977689801178 0.0 0.0 0.0 0.24046621423971715 0.07825364163430705 0.0 0.0 0.06732470542064685 0.0 1.160070884659714 0.0 0.0 0.0 0.0 0.0 0.31058124955588035 0.7993461545810042
270 1.0119795426651934 0.0 0.0 0.5597932454602456 0.0 0.02845793619345221 0.0 0.5014120061468385 0.0 0.0 0.0 0.0 0.0 0.0 0.05589629720686288 0.0 0.0 0.0 0.5565331073923883 0.0 0.0 0.0 0.2090914444144696 0.0 0.5540191618872348 0.35034389302893065 0.0 0.6311610943299671 0.05414171897133311 0.0 1.72628260628716 0.4447611861231434 0.18865430381132164 0.0 2.1489546635381815 0.23933979081091444 0.10289944580192463 0.8185865384203111 0.2759064081921871 0.09228156928048367 0.0 0.0 0.0 0.0716018110584811 1.3893578691995412 0.0 0.33327885863645595 0.0 0.0 0.0 0.0 0.3896651204335858 0.0 0.0 0.0 0.49318401009353086 0.0 0.0 0.0 0.0 0.0 0.0 1.3625570381882512 0.0 0.13518431243923318 0.0 0.12642118600240226 0.0 0.0 0.0 0.0 0.0 0.0 0.5026793999184007 0.0 0.21024147408343796 1.452309310803693 0.0 0.0 0.4733601101967896 0.15750613294210739 0.0 0.0 0.0 0.0 0.8663758339368175 0.0 0.0 0.0 0.0 1.1515164963404025 0.0 0.6027793266484636 0.23212256559142286 0.21775557343044488 0.06707936594654977 0.0 0.0 1.1620002539378187 0.5379584331028944 0.0 0.23541829118287405 0.0 1.6088501503274864 0.0 0.0 0.4459123955941737 0.0 0.0 0.01795710420983869 0.4802849548717885 0.0 0.0 0.0 0.0 0.0 0.0 0.02178080806082407 0.0 0.1990253067697707 0.07205402789386547 0.0 0.6292593308331138 0.4224912687014802 0.0 0.6790904916897036 0.0 0.0
271 0.9510434272960694 0.8723787539296158 1.0195388872399933 0.0 0.0 0.0 0.0 0.0 0.21795027943920703 0.2811136222774023 0.44767416796578513 0.13170788091660862 0.0 0.9169075260995583 0.0 0.0 0.0 0.8204748602300981 0.04441229039410785 0.0 0.29535827904497775 0.0 0.0 0.0 0.06298240776500082 0.0 0.0 1.293145010434679 0.0 1.3071682681477073 0.07627673180229821 0.0 0.0 0.22359633115053743 0.0 0.48417369008315136 0.0 0.0 0.0 0.5211653299980963 0.0 0.20605805581406297 0.0 0.36444684679340383 0.0 0.0 0.45457171479461267 0.0 0.0 0.0 0.0 0.0 0.0 0.0 0.0 0.34850728775707057 0.0 0.26188822061664957 0.4869436146377532 0.28805217894967494 0.23665253981264064 0.0 0.0 0.0 0.0 0.518151182740046 0.0 0.0 0.18114223590069847 0.06726218396624585 0.0 0.0 0.32099564059629193 0.0 0.0 0.0 0.0 0.0 0.0 0.0 0.40079940492912075 0.0 0.0218961238981381 0.0 0.685626850971706 0.2828000643076229 0.0 0.0 0.0 0.0 0.25996346646519014 0.0 0.9561109472752194 0.0 0.7282556563456053 1.2888235754765478 0.4826705686387944 0.0 0.0 0.0 0.0 0.0 0.1218714602825862 0.0 0.0 0.6525727859849328 0.0 0.0 0.0 0.0 0.6984069926199616 0.0 0.0 0.7979209437559727 0.0 0.0 0.540723803411815 0.0 1.115351691343026 0.0 0.0 0.0 0.0 0.921534673501238 0.0 0.0 0.0 0.0
272 0.4532892500361408 1.813327196014438 0.3033506249687719 0.0 1.0330353345372782 0.0 0.6907122349007887 0.0 0.0 0.0 0.0 0.0 0.0 0.3351910442725354 0.0 0.0 0.23634051110783216 0.0 0.0 0.0 0.18605174488036225 0.28231535219992965 0.0 0.0 1.1684388525195109 0.9732425136156269 0.0 0.6185444274488171 0.0 0.0 0.0 0.0 0.6742898791672487 0.0 0.0 0.0 0.3521334644713052 0.0 0.8035801906274744 0.0 0.0 0.0 0.04396163784978019 0.0 0.20546823722331664 0.0 0.0 0.0 0.0 0.0 0.3993022994202853 0.2955765760109772 0.0 0.15264180502120364 0.0 0.0 1.7387799794630736 0.0 0.7889022674280969 0.0 0.0 0.3254950433951179 0.0 0.0 0.012879901663285204 0.0 1.5076728674062512 0.0 0.0 0.06643928936954288 0.0 0.0 0.0 0.07517381643016759 0.15414856739116647 0.0 0.0 0.0 0.0 0.0 0.0 0.0 0.32354049180137767 0.0 0.0 0.0 0.20213796882652543 0.0 0.0 0.477583032609068 0.0 0.5217395473577824 0.0 0.0 0.010081805479164374 1.1159930843445405 0.0 0.9644288316482539 0.0 0.0 0.0 0.0 0.0 0.0 0.6213636533591331 0.7633135579080218 0.18573884542540178 0.0 0.21496706272252553 0.0 0.0 0.0 1.3393013766176571 0.0 1.123943002969852 0.21818517540466228 0.0 0.0 0.0 0.7064000534858206 0.0 0.1949664258214512 0.0 0.0 0.0 0.0 0.0 0.13985169368036338
273 0.0 0.0 0.0 1.0049461894110032 0.0 0.0 0.0 0.0 0.0 0.7748490867137382 0.0 0.0 0.0 0.8787376136181884 0.0 0.0 0.5687705940545354 0.06892397011797674 0.0 0.2393917317682728 0.0 0.0 0.0 0.0 0.0 0.0 0.9462278677905605 0.0 0.0 0.0 0.0 0.0 0.0 0.7981394924086139 0.30726143173438003 0.0 0.0 0.0 0.0 0.0 0.0 0.0 0.0 0.0 0.29668968361760834 0.0 0.0 0.3796089821254378 0.2818870443309175 0.0 0.0 0.0 0.0 0.007950946880370032 0.13746340979446184 0.0 0.8517565141481725 0.3471015781133223 0.43000196205313773 0.0 0.0 0.11198484396492062 0.0 0.32606683568212075 0.6516592382818369 0.0 0.8821512772080582 0.0 0.6798223177351274 0.30760105416323597 0.567013334726765 0.4288896774973991 0.0 0.0 0.4210316355270475 0.0 0.0 0.0 0.28159892687727733 0.0 0.3632039807107252 0.0 0.0 0.0 0.0 0.0 0.4312819559942282 0.0 0.0 0.0 0.0 0.7837915370596124 0.0 2.2714294294144834 0.0 0.0 0.031296188637447965 0.7152875919366541 0.06979671977278856 0.0 0.0 0.0 0.23409967448766267 0.0 0.6534681641710043 0.0 0.6271211498696616 0.0 0.025986030348032912 0.0 0.0 0.3432262347829329 0.0 0.8214714004540574 0.39445734465627835 0.0 0.0 1.2334442373373455 0.0 0.41074459994088186 0.0 0.0 1.404311870088314 0.0 0.08816145102837822 0.3525824433676455 0.011864559012094824 0.040986462209392956
274 0.0 0.0 0.0 0.0 0.0 0.0 0.25473072198240787 0.0 0.0 0.3681983454850066 0.0 0.5707413316212325 0.0 0.0 0.0 0.5136585405402939 0.0 0.1557060786048379 0.0 0.0 0.023820158867053496 0.0 0.49620702826406143 0.0 0.0 0.0 0.0 0.0 0.186965268710411 0.5258212678564206 0.0 0.3501453443763123 0.0 0.4920618551392115 0.5977269404463087 0.0 0.0 0.12545858089202513 0.0 0.8035877214742018 0.0 0.0 0.0 0.0 0.211368081842869 0.49189251343237245 0.6891737087953178 0.0 1.022523874094165 0.0 0.0 0.061866079428730805 0.0 0.0 0.0 0.1988158854794741 0.6206488726141794 1.015164283349173 0.0 0.0 0.0 0.0 0.04820633554863855 0.0 0.0 0.8287075666839481 0.0 0.780344588262109 0.06283042095870978 0.0 0.6909394326978806 0.0 0.0 0.0 0.0 0.43947064442228484 0.0 0.10674653380209717 0.0 0.0 0.8830929944228956 0.0 0.0 0.0 0.0 0.7393308553686696 0.0 0.4410188358199975 0.06658110501662802 0.5444280074319712 1.0399560612387524 0.26533721960403095 0.0 0.0 0.0 0.5985699493940397 0.0 0.0 0.0 0.0 0.18130712170688895 0.44016545640282806 0.3935351259011786 0.0 0.1246007179758408 0.0 0.0 0.0 0.0 0.0 0.0 0.0 1.0588737933219987 0.7227540399603603 0.0 0.0 0.0 0.018216786800965213 0.0 0.44756090821975225 0.0 0.0 0.0 0.11645262134290159 1.4751795152331963 0.0 0.0 0.0
275 0.0 0.0 0.0 0.4926346136915953 0.0 0.0 1.1937185188292248 0.0 0.513591578560085 0.0 0.0 0.0 1.1497701493767833 2.10980773793003 0.0 0.0 0.0 0.0 0.0 1.2217141111813143 0.0 0.0 0.0 0.0 0.0 0.0 0.5080661945379717 0.0 0.28506688165439215 1.0766747163317636 0.17015552343667714 0.07835536448234261 0.0 0.0 0.0 0.3783212339182591 0.0 0.0 0.0 0.4768806639390405 0.8528661193232037 0.0 0.0 0.0 0.3445133053678085 0.0 0.0 0.0 0.0 0.0 0.3757750750887514 0.0 0.0 0.0 0.0 0.0 0.0 0.7583110051704319 0.2666373728581034 0.0 0.8451809690770634 0.0 0.0 0.0 0.0 0.5868170506781762 0.6587608590688413 0.0 0.0 0.028214776567333382 0.0 0.0 0.0 0.0 0.16515354083868294 0.0 0.0 0.0 0.0 0.0 0.0 0.0 0.13788540235770866 1.1048862637074335 0.0 0.0 0.0 0.5793731967243705 0.08267765730093453 0.592920053007744 0.0 0.0 0.0 0.01331038516545446 0.04492827969283211 0.37175197297594814 0.0 0.20724272876692829 0.3993461739247661 1.2924558303068714 0.0 0.2504383240465503 0.3942285382719578 1.5621536173816535 1.0483240197529862 0.0 0.8691615356102186 0.0 0.0 0.0 0.6918725533532867 0.0 0.0 0.2731282753820584 0.9498854702103794 0.0 0.0 0.7526388211181863 0.5835121273824976 0.0 0.0 1.6020896821299222 0.8907103964709641 0.0 0.0 0.13945458913585448 0.14427300513658972 0.0
276 0.7172272497102719 0.0 0.0 0.014147672145533474 0.0 0.14108277826335813 0.0 0.0 0.2704938697937243 0.24345112826362103 0.0 0.0 0.0 0.0 0.0 0.0 0.0 1.5221948492955493 0.26165290248284606 0.0 0.0 0.0 0.28682084329198543 0.0 0.0 0.9345410391722486 0.08893974585631778 0.0 0.8954093284473692 0.0 0.0 0.405446678870189 1.04290259890647 0.11312063513551816 0.0 0.0 0.2851847607300647 0.0 0.0 0.5040200364278423 0.0674146114385483 0.0 0.0 0.9024886621462072 0.0 0.2504831900431254 0.0 0.0 0.0 0.0 0.5339107341450595 0.0 1.3472463978696343 0.34810957731132924 1.2340917102551627 0.0 0.0 2.03554740197835 0.0 0.0 0.0 0.0 0.0 0.18885936081193963 0.0 0.0 0.0 0.0 0.0 1.0284109902221144 0.0 0.0 0.0 0.0 0.0 0.24936000113003087 0.0 1.8134377766475112 0.0 0.9022952098523763 0.0 0.0 0.0 0.16301025148266646 0.0 0.2456311166156335 1.046960645250372 0.18432227317001956 0.0 1.6150738758944363 0.5992065216399796 0.7091354878792436 0.0 0.2548963574267933 0.6117593344086202 0.0 0.0 0.0 0.0 0.5267909669751342 0.0 1.742391191223586 0.0 0.0 0.669566009068222 0.06245781610651026 0.0 0.048982925539051196 0.0 0.0 0.0 0.0 0.0 0.599238955497957 0.0 0.0 1.4646213622308837 0.0 0.3478597932143045 1.1353440315128385 0.0 0.0 0.21943091901656206 0.3801993389290082 0.0 0.6711935350440307 0.8056557229297611 0.0
277 0.0 0.0 0.6764740252190637 0.5591095649906646 0.07335689971707786 0.0 0.0 0.7770796163036183 0.0 0.9905978782162779 0.08391727554052868 0.0 0.0 0.4779701130189183 0.0 0.2298061131700515 0.0 0.0 0.0 0.0 0.29385486654151083 0.0 0.7012566482248422 0.0 0.0 0.0 0.0 1.0344976947020994 0.0 0.0 0.0 0.0 1.4820796619255137 0.0 0.0 0.23832195645451731 0.0 0.0 0.0 0.0 0.0 0.0 0.0 0.0 0.0 0.7330580356364081 0.0 0.0 0.15956006655700536 0.0 0.0 0.0 0.0 0.0 0.0012411688708318241 0.0 0.0 0.0 0.0 0.18372669418081214 0.0 0.244902490057079 0.0 0.0 0.0 0.0 0.5900919018999267 0.0 0.8099982428669152 0.0 0.0 0.0 0.17470482186395958 0.0 0.4674901566094798 0.0 0.0 0.6762028331823925 0.0 0.05628050480664971 0.2514884212730231 0.6165177741638599 0.0 1.0210164991304844 1.9583784527652486 0.0 0.17532103040826588 0.0 0.5845302818240438 0.0 0.0 0.0 0.2730334218378757 0.0 0.0 0.0 0.0 0.0 0.03572843164803602 0.0 0.0 0.0 0.0 0.0 0.7775753738202323 0.04085351341124838 0.0 0.39145516698055216 0.0 0.3837661286889194 0.0 0.10140623720852508 0.0 0.0 0.0 0.4721425611071004 0.31654166131024597 0.0 0.39402332632620085 0.2568812155803659 0.0 0.0 0.0 0.0 0.0 0.0 0.0 0.0
278 0.0 0.0 0.0 1.3385738634760511 0.8096342340754871 0.0 1.0805641667220307 0.0 0.4163869023726774 0.0 0.0 0.0 0.0 0.0 0.0 0.6935549970222866 0.3916392619515597 0.0 0.0 0.0 0.0 0.2680536732324243 0.0 0.0 0.0 0.2806268108305896 0.0 0.282982952050193 0.0 0.0 0.0 0.17518607850407447 0.0 0.0 0.0 0.5877912779725732 0.0 0.0 0.6280749691288076 0.0 0.0 0.0 0.6769859842727481 0.0 0.5123847565511994 0.0 0.0 0.06852185811817314 0.4555443158208699 0.5965809524524744 0.0 0.0 0.0 0.0 0.0 0.15833214751411964 0.0 0.9850583894768165 0.0 0.0 0.0 0.05919501261862819 0.0 0.0 0.0 0.27384170725545565 0.0 0.0 0.0 0.0 0.0 0.0 0.0 0.12234116849813474 0.025816721549697764 0.0 0.12328183912446468 0.0 0.24986232773776323 0.0 1.1530420795652163 0.24646735805729258 0.06828474823215 0.0 0.0 0.385132444321359 0.0 0.0 0.0 0.0 0.0 0.052726445139063535 0.0 0.0 0.0 0.0 0.6645723033659621 0.0 0.33761467050915683 0.0 0.0 0.0 0.13073027000681564 1.32131817479734 0.10544651034355408 0.0 0.0 0.0 0.0 0.10965064528698283 0.0 0.0 0.0 0.0 0.7041995194049445 0.0 0.8177980132770513 1.194888258690352 0.1875546728196204 0.0 0.6274086447806356 0.0 0.1880859502178714 0.0 0.11721870557777705 0.0 0.0 0.0
279 0.0 0.0 0.0 0.2117204357452116 0.5953581822875726 0.0 0.0 0.09356697214534823 0.0 0.0 0.7228318538324183 0.0 0.13802589240734148 1.4893537795726537 0.0 0.12702703105877095 0.9199594355339561 0.0 0.0 0.0 0.0 0.005286845311651642 0.0 0.0 0.0 0.15858631342719234 0.0 0.21630993247348043 0.0 0.0 0.35628337905334306 0.0 0.0 0.0 0.0 0.0 0.4602588239385458 0.0 0.0 0.0 0.6436025425908276 0.8844856616770109 0.0 0.48073856039439655 0.0 0.0 0.0 0.8038065628432431 0.10938753657656508 0.0 0.0 0.0 0.0 0.540192645042476 0.0 0.5620032271437521 0.014161582701601675 0.0 0.005535390113962624 0.0 0.0 0.0 0.0 0.0 0.0 0.0 0.0 0.0 0.0 0.40365708465516353 0.170028200044284 0.265585927846172 0.0 0.0 0.0 0.0 0.0 0.0 0.0 0.0 0.0 0.0 0.0 0.0 0.027683475399516176 0.0 0.0 0.0 0.0 0.0 0.0 0.0 0.0 0.0 0.0 0.851850919370686 0.0 0.0 1.6126379027784796 0.0 0.0 0.0 0.0 0.0 0.28290840228551106 0.6808590335121126 0.0 0.0 0.0 0.40062887492020444 0.4067309859082031 0.0 0.0 0.6277845558113491 0.0 0.8499456094883361 0.6361292299597838 0.0 0.0 0.0 0.27360837893620354 0.0 0.0 0.0 0.0 0.0 0.0 0.0
738 0.0 0.0 0.0 0.95085310078321 0.09175750009371283 0.0 0.0 0.0 0.0 0.0 0.15443209948635692 0.0 0.042616460903794624 0.1523423003255062 0.9502330676505275 0.0 0.0 0.744262982528122 0.0 0.762856735985481 0.0 0.0 1.3800100845071304 0.1576833523763038 0.0 0.0 0.5409496409598097 0.12413001838472865 0.0 0.44196171489353764 0.0 0.5727494215724365 0.0 0.0 0.0 0.15259608628486 0.4505521276107812 0.08514941174545837 0.0 0.0 0.0 0.04922285489244756 0.4775103234870893 0.0 0.0 0.0 1.2113533980914597 0.0 0.0 1.1662288533194545 0.0 0.0 0.0 0.0 0.0 0.9301998921907939 0.40283823864416946 0.030702167761920775 0.0 0.0 0.0 0.9061661121445355 0.2968237216240502 0.0 0.0 0.0 0.32025374460983325 0.46380847931890606 0.0 0.0 0.0 0.0 0.0 0.03176351409237248 0.0 1.7933351647388984 0.0 0.0 0.26292923069503216 0.0 0.0 0.05429567210995567 0.08263126488443338 0.0 0.0 0.0 0.0 0.7323314028694075 0.0 0.0 0.0 0.6808900010383703 0.0 0.6176202520592817 0.6882477362920292 1.154979905247315 0.0 0.0 0.0 1.9422102219889559 0.0 0.0 0.0 0.0 0.09098002778461459 0.10816786043106709 0.020128777439347965 0.0 0.0 0.0 0.0 0.16025920005250838 0.7271938655522933 0.3380383577569366 1.100216195835866 0.04604726286277267 0.3730145178290426 0.0 0.44820332347183695 0.0 0.0 0.0 0.0 0.24743888319072613 0.2731789953576318 0.0 0.14803759450698836 0.4903079936414317
581 0.0 0.0 0.0 1.5074876358482647 0.0 0.21895296604228806 0.0 0.5091732286336487 0.0 0.0 0.8758236307454467 0.0 0.30378186050262723 0.36959665704853073 1.4002167664458463 0.0 0.0 0.0 0.0 0.0 1.3284555971437542 0.0 0.0 0.0 0.0 0.0 0.3464557783577165 0.9415637823717375 0.0 0.0 1.0513215633205204 0.5262338997165076 0.0 0.0 0.0 0.0 0.6367228759359754 0.0 0.0 0.0 0.0 0.16644810666684307 0.0 0.0 0.0 0.0 0.7855167885899725 0.0 1.8226335884726887 0.0 0.0 0.7153772944223746 0.010850287560651458 0.0 0.0 0.0 0.6492144655243026 0.0 0.0 0.0 0.0 0.0 0.0 0.0 0.0 0.9320790147945304 0.0 0.8635952966989122 0.7659844000937736 0.0 0.0 0.0 0.0 0.0 1.0026692638771713 0.0 0.0 0.0 0.0 0.0 0.0 0.511991543999621 0.8531477227128537 0.0 1.0066891578862787 0.0 0.28298700552990114 0.006020372064755388 0.0 0.8517671464011654 0.0 0.2714023005265684 0.0 0.17574388355529885 0.0 0.30222186246432897 0.013249198588174468 0.0 0.0 0.0 0.0 0.0 0.0 0.0 0.0 0.0 0.0 0.3960685610959334 0.38153055021611854 0.0 0.0 0.0 1.6205178157192273 0.0 0.0 0.0 0.0 0.0 0.0 0.0 0.0 0.4461941580237926 0.21587787117799742 0.0 0.0 0.0 0.0 0.0
2268 0.0 0.0 0.7237245406062948 0.0 0.0 0.42825501562012297 0.0 0.0 0.0 0.0 1.0900261108413083 0.0 0.33077058544531796 0.6584764915447385 0.18616789923922475 0.0 1.3823695993283198 0.0 1.6511372059106741 0.0 0.0 0.0 0.9906626036352079 0.04334558576041555 0.0 0.03796665790171322 0.0 1.7308011035341104 0.0 0.2148036605515306 0.0 0.0 0.0 0.6045066273961983 0.0 0.0 0.08013242995500182 0.0 0.0 0.0 0.5953957541426258 0.5400676631405172 0.0 0.0 1.1593115216425607 0.7560975753462409 0.0 0.0 0.0 0.3937077637681906 0.0 0.0 0.0 0.0 0.0 0.6174408540922828 0.0 0.12245011921090253 0.0 0.0 0.0 0.0 0.0 0.0 0.0 0.0 0.6916483266443118 0.0 1.413942859501217 0.0 0.0 0.0 0.0 0.0 0.0 1.2868181674260653 0.11951120947349829 0.0 0.0 0.0 0.7115776821611043 0.0642272801551606 0.0 0.0 0.0 0.6172150013519077 0.18170829373609002 0.34752008755315 0.0 0.0 0.0 0.17206441186785054 0.0 0.0 0.0 0.0 0.0 0.7287956415860188 0.8175208373531271 0.0 0.23911229609877294 0.0023222519945894143 0.2357236535723191 1.2837372963416693 0.00018170149109769922 1.4414248657229893 0.0 0.0 0.1407513301018781 0.0 0.05271380305779346 0.0 0.0 0.0 0.0 0.0 0.5506011716233294 0.08464957203372284 0.17879127358509575 0.0 0.42639882683762764 0.0 0.0 0.4409245412463695 0.0 0.0 0.1340227549896129 0.063699818100907
2269 0.40695211143674814 0.0 0.0 0.2105541636770934 0.40114266669112536 0.0 0.0 0.0 0.0 0.0 0.0 0.0 0.0 0.0 0.0 0.2920132334122375 0.0 0.36156563054464746 0.0 0.9253408560695036 0.0 0.0 0.0 0.0 0.0 0.0 0.0 0.06693863866640205 0.0 0.0 0.0 0.0 1.1741976064564452 0.0 0.01627980759884783 0.7076208578025477 0.0 0.3896188489784517 0.0 0.0 0.7968040621760553 1.0619728941171225 0.0 0.5204345298684987 0.0 0.0 0.3278584633726141 0.0 0.02131649865685606 0.16207961996118275 0.0 0.28541150300391066 0.26293136815451806 0.0 0.0 0.0 0.0 0.0 2.640192133973704 0.0 0.0 0.04116112081335391 0.0 0.0 0.0 0.0 0.601146980704232 0.0 0.0 0.6581990414337037 0.13519422608006235 0.9434962833977576 0.08983523810584838 0.0 0.7869085553708326 1.7342355664077629 0.040644026805191025 0.0 0.0 0.3858558901974174 0.0 0.0 0.0 0.0 0.0 0.0 0.0 0.0 0.022751222997303 0.0 0.0 0.0 0.45981501155483234 0.0 0.3033625526340698 0.0 0.0 1.0376393181286183 0.0 0.6427783027007311 0.0849273958352268 0.07757269339591798 0.0 0.0 0.0 0.0 0.0 0.0 0.280792211813224 0.0 0.0 0.04715813956294339 0.7755052568262175 0.0 0.0 0.0653791927822148 1.134465116338543 0.6094418786019639 0.0 0.0 0.0 1.0329515048252453 0.0 0.0 0.0 0.0 0.0 0.5699030589209175
2262 0.0 0.0 0.06660433284405577 0.0 0.0 0.0 0.0 0.5585446700971107 0.9032963643899375 1.423457363829649 0.0 0.08293914055333464 0.0 1.0833158840664556 0.0 1.2411268091032481 0.0 0.0 0.0858264373541281 0.0 0.0 0.0 0.0 0.0 0.0 0.0 0.0 0.0 0.08260011028840845 0.0 0.15139730304171342 0.0 0.0 1.0549612395919792 0.7343117766728047 0.1154190169157383 0.0 0.0 0.27932751160561736 0.1153448172925683 0.39911081284794575 0.7834094457086248 0.039049673896867906 0.0 0.0 0.24213477834342806 0.0 0.0 0.7540897775341986 0.0 0.017201633890554437 0.0 0.0 0.0 0.0 0.0 0.060766615206122525 0.0 0.0 0.0 0.0 0.0 0.0 0.0 0.0 2.3966292672210154 0.0 0.32586558128095044 0.8116740058438857 0.0 0.0 0.0 0.0 0.0 0.0 0.0 0.0 0.0 0.48493479592885275 0.0 0.0 0.0 0.7677197748514482 0.0 0.0 0.0 0.05280324434124786 0.0 0.0 0.3381585610673957 0.0 0.0 0.0767600542261074 0.0 0.0 0.0 1.0002313570617591 0.21698685808540463 0.0 0.06682058327821827 0.0 0.0 0.0 0.12088929534226293 0.0 0.0 0.02414890364165594 0.0 0.0 0.0 0.0 1.184781224497223 0.0 1.2619395257533317 0.25317206866646225 0.19851121679981268 0.0 1.4810141851735688 0.0506264702884295 0.47410993252998074 0.0 0.0 1.1285521019101172 0.0 0.3263445194734845 0.0 0.0 0.0
2263 0.9751084402330772 0.0 0.11250106378352097 0.0 0.4852960394578093 0.3245831743970693 0.0 0.0281387143387984 0.0 0.0 0.0 0.0 0.0 0.0 0.5722066228171264 0.0 0.0 0.0 0.0 0.0 0.1891320674260393 0.4094760419344029 0.23114387011223278 0.0 0.0 0.0 0.7501718538147087 0.44845416227120327 0.0 0.2741926648774437 0.019536172347135797 0.0 0.0 0.0 0.16663811821353625 0.0 0.005290593228174538 1.2041633970422951 0.28105966794224724 0.028198266583907988 0.0 0.0 0.0 1.033386611048526 0.0 0.0 0.1698621497622279 0.7372193182240969 0.0 0.0 0.0 0.3015743357686056 0.0 0.0 0.0 0.0 0.3717864912567752 0.0 2.6148855402461773 0.0 0.0 0.0 0.0 0.0 0.0 0.0 0.0 0.0 0.0 0.761223757645485 0.5033440974237798 0.5579458327980176 0.0 0.12941960890630647 0.5376438883148498 0.03024318339648501 0.0 0.0 0.26241853935991194 1.0138288706785317 0.0 0.9065183993728226 0.0 0.0 0.0 0.0 0.5141869114108075 0.0 0.0 0.0 0.0 0.0 0.0 0.9517134031733969 0.07699077120968971 0.6219794162503102 0.37678733070334924 0.48340419810477386 1.0128159157232475 0.0 0.0 0.5106836430904823 0.2483510894728687 0.0 0.6174749907643222 0.0 0.0 0.0 0.0 0.0 1.1482701395475141 0.0 0.0 0.0 0.0 0.0 0.0 0.0 0.06001227621888858 0.0 0.2849323920300946 0.0 0.0 0.0 0.0 0.0 0.3828143941820347 0.0
2260 0.4213278157402567 0.4624649305171821 0.14908954623692103 0.0 0.0 0.06240389056689761 0.0 0.0 0.0 0.6986907179514776 0.0 0.0 0.915971572061866 1.5299203876410037 1.429333534290568 0.38288506500757213 0.0 0.8595315828975745 0.6350911250925728 0.0 0.0 0.0 0.12693331379214354 0.0 0.0 0.0 0.0 0.0 0.0 0.9428862612612751 0.0 0.1712178772586157 0.44278094498900766 0.0 0.44389241711176486 0.0 0.0 0.23562662213961238 0.32137767237548104 0.0 1.0309185566114327 0.0 0.0 0.6209600359675571 0.4002745109824168 0.0 0.35935881029445343 0.27723306129778363 0.0 0.0 0.0 0.0 0.22204466719462743 0.0 0.0 0.0 0.0 0.4262998421254882 0.0 0.664318253360864 0.0 0.0 0.24932169754609215 0.0 1.2431364787637424 0.0 0.05537564574489394 0.0 0.0 0.06873108738564171 0.0 0.0 0.5434811817060244 0.3156568199221497 0.28465935227221567 0.0 0.0 0.7856777918959899 0.6667006877267503 0.0 0.0 0.0 1.9546086813797445 0.4885684652357713 0.0 2.0789126126579243 0.0 0.601885562066919 0.0 0.07741726537382461 0.4861060100865589 0.0 0.0 0.0 0.9862308810689296 0.0 0.3968360371598704 0.0 0.0 0.9553922737164552 0.035623877674620594 0.0 0.0 0.20367671248778152 0.0 0.0 0.12614414086606462 0.5523145588170488 0.0 1.0222277165673808 0.0 0.0 0.7562850435882514 0.0 0.545566407148171 0.7314501102166123 0.0 0.0 0.3556858965820099 0.0 0.0 0.0 0.0 0.0 0.9532321542373603 0.0 1.9478236873721482 0.0
2261 0.5941162684512635 0.0 0.0 0.2207355086204502 0.0 0.0 0.07654954310258322 0.5211887236717703 0.0 0.0340140622966296 0.7910578552819398 0.0 0.00632387574326923 0.0 0.0 0.0 0.43939881732884656 0.0 0.0 0.0 0.6416722028314911 0.8818757310630405 0.0 0.0 0.0 0.29004474568572347 0.0 0.9930958328588844 0.4124304522085052 0.0 0.0 0.0 0.0 0.40022242760740573 0.0 0.0 0.3195509298064538 0.1573865780954075 0.0 0.30650865283710954 0.0 0.0 0.0 0.908898556369616 0.0 0.0 0.0 0.0 0.14853339907318291 0.0 0.0 0.0 0.0 0.0 0.02668442111132335 0.0 0.24135393091924348 0.0 0.3876681739076428 0.039888394315070234 0.0 0.2218394253536775 1.7295484304388196 0.0 0.058578748012895955 0.0 1.5434233609987584 0.0 0.8061494740927729 0.02491436973650497 0.0 0.0 0.0 0.0 0.20872829546423416 0.0 0.0 0.0 0.0 0.0 0.0 0.0 0.0 1.2177032657779874 0.06315382941848367 0.0 0.26713530416006137 0.0 0.3563526270107109 0.0 0.1372294063066004 0.2869129536522836 0.198134116685582 0.0 0.0 0.0 0.0 0.0 0.9265674004267673 0.7386811809322247 0.8690662883626766 0.19354297675392565 0.5081390227883346 0.7821955642325346 0.0 0.0 0.0 0.0 0.1202986253731344 0.05254510439394571 0.04669976962975401 0.0 0.020163277437518848 0.0 0.0 0.2571351537099594 0.35380410140119917 0.0 0.0 0.0 0.0 0.0 0.0 0.0 0.0 0.49155548514432934 0.0 0.09640807917889457
2266 0.0 0.0 0.0 0.0 0.0 0.0 0.0 0.0 0.0 0.5459161356302423 0.0 0.0 0.0 0.9691981845035715 0.22603413966819416 0.0 0.2928191736642124 0.0 0.4390986187900713 0.08339744558967793 0.060934891638176975 0.541560080440687 0.0 0.0 0.05965806545512675 0.0 0.0 0.3231738028523149 0.0 0.0 0.0 0.8149602372467422 0.0 0.0 0.0 0.0 0.1549263795036612 0.0 0.0 0.0 0.02174483651735192 0.0 0.0 0.0 2.7320413673353534 0.0 0.0 0.0 1.7684332177596156 0.0 0.0 0.0 0.5901123497007067 0.0 0.0 0.6257026860931519 0.0 0.0 0.6488193324665426 0.27727283197869723 0.0 1.1727609707735287 0.0 0.0 0.7227283378404449 0.07312740384000362 0.0 0.0 0.34724690774095873 0.0 0.2166149329455225 0.9170925471073378 0.0 0.93613105786832 0.0 0.0 0.34521610870812025 0.0 0.0 0.0 0.34194191476637287 0.9546569994436821 0.0 0.0 0.0 0.1229473859066171 0.5951411308943592 0.0 0.45154660438325067 0.8890142189461532 0.0 0.0 0.0 0.1242613603005129 0.5223138706562913 0.0 0.13648565176058827 0.0 0.07044602872380769 0.9036031010830036 0.0 0.0 0.021417411431508382 0.0 0.0 0.0 0.0 0.0 0.24550613290383955 0.0 0.0 0.0 1.4385818979706206 0.0 0.0 0.212114318287482 0.2529461450330402 0.014756817728442992 0.0 0.0 0.0 0.3109849195445871 0.0 0.0 0.0 0.0 0.0002527552885972185 0.0
2267 0.2471632155723153 0.0 0.0 0.0 0.7095267792402963 1.397707259541397 0.0 0.0 0.0 1.5238956328904678 0.0 0.0 0.05559612020867623 0.0 1.7433179838559918 0.0 0.0 0.0 0.323005220005614 0.0 0.0 1.333175868153089 0.0 0.0 0.0 0.0 0.0 0.0 0.7131644575837713 0.0 0.0 0.6049972968489787 0.0 0.0 0.25046799797084485 0.0 1.9901108330999273 0.07691020429684872 0.0 0.0 0.9577479085014707 0.0 1.1656805745110932 0.9446991677024197 0.0 0.017344758205933914 0.06632805269698334 0.41378027793208955 0.4956169698632951 0.0 0.0 0.7919430190360783 0.7531284703376424 0.0 0.5883923561104815 0.0 0.09868916601648005 0.029343697224063776 0.0 0.0 0.0 0.0 0.0 0.0 0.0 0.4413597518821733 0.0 0.2795437930253809 0.26131138419537503 0.0 0.0 0.0 0.0 0.0 1.4454049623796885 0.4508412066896856 0.0 0.24947393529168607 0.09978897509197643 0.0 0.0 0.0 0.0 0.0 0.09787691516031442 0.0 0.279967977219517 0.0 0.33646598638846936 0.8795286167614627 0.0 0.0 0.0 0.7337412511969932 0.0 0.7623269181136927 0.0 0.0 0.2572593647254652 0.0 0.0 0.0 0.0 0.0 0.1463276299416444 0.0 0.0 0.0 0.5325386852505093 0.0 0.21235838822320743 0.30134226603474973 0.0 0.0 0.0 0.6238371203188158 0.0 0.0 0.0 0.21338027194274495 0.0 0.0 0.0 0.0 0.0 0.0 1.1378947343698298 0.47900715527227955
2264 0.0 0.0 0.0 0.04750790764493207 0.0 0.0 1.17357637860345 0.33199168937047907 0.0 0.7397894610911459 0.7194032679360218 0.0 0.0 0.10070271667452482 0.6687156571414917 0.0 0.0 0.3359139682411524 0.0 0.0 0.0 0.0 0.0 0.0 0.6477257123802962 0.0 0.09949557710371285 0.0 0.0 0.0 0.4101508276084406 0.0 0.0 0.19675561038634976 0.0 0.0 0.4974622916262925 0.5498317256444905 0.5333485084421402 0.20340141366731335 0.0 0.0 0.2120142947348285 0.0 0.0 0.0 0.5332005840224938 0.0 0.0 0.0 0.3752006144810498 0.15404841144949585 0.0 0.0 1.351436065444145 0.0 0.0 0.0 0.0 0.0 0.0 0.0 1.101949466209867 0.0 0.5508348711064368 0.35715374234108527 0.23824966457732938 0.014598562360373872 1.1726893124372935 0.0 0.0 0.1881576786891026 0.2639052951522542 0.3608408037204261 0.3573534988831458 0.0 0.0 0.0 0.0 0.8735529593071387 0.0 0.0 0.0 0.3787021135755588 0.0 0.0 0.0 0.0 0.36577840312986565 1.5962335401791405 0.5146346371088969 0.0 0.9312753108917461 0.0 0.0 0.0 0.0 0.0 0.4310223967692566 0.0 0.0 1.0244237929254123 0.0 0.0 0.18957959171971522 0.0 0.0 0.21486769110859547 0.2954149611904368 1.027852057851469 0.0 0.0 0.0 0.0 0.0 0.6830530923778018 0.0 0.0 1.3012929174767387 0.0 0.0 0.2967434268314081 0.10049942723729796 0.0 0.0 0.0 0.0 0.8270125449114465
2265 0.0 0.13460715536878098 0.6890600785426987 0.24806239428652754 0.8589717997679626 0.0 0.9490652302858628 0.7238244444643003 0.0 0.0 0.0 1.3292735334234647 0.0 0.0 0.0 0.0 0.09795195877616329 0.0 0.0 0.0 0.31050327560753976 0.2401067384174134 0.0 0.0 0.0 0.0 0.2720267797775045 0.26328514507986384 0.0 0.0 0.0 0.0 0.0 0.0 0.0 0.0 0.0 1.0629430555947026 0.0 0.0 0.9401584193945288 0.9473743990665304 0.0 1.093180959464705 0.08803248948365383 0.054365015546002086 0.0 0.8671321641420255 0.3329138005678987 0.2739570422354593 0.0 0.0 0.0 0.0 0.0 0.7644725053750265 0.0 0.0 0.0 0.3684662228947917 0.0 0.0 0.0 0.0 0.0 0.0 0.0 0.0 0.0 0.0 0.0 0.0 0.2569991501122645 0.7660209756372224 0.3938112115873641 0.17336873687212523 1.9827298870284973 0.0 0.0 0.0 0.0 0.0312954834645824 0.0 0.9621888018296897 0.0 0.0 0.005495091207687317 0.981825409901291 0.0 0.0 0.4945703518105441 0.0 0.0 0.0 0.22679380575590266 0.0 0.0 0.0 0.0 0.27734576739792827 1.8110818251298173 0.0 0.0 0.0 0.6905025996951122 0.8269563334966913 0.16736337858590922 0.0 0.0 0.6090386896011223 0.0 0.0 0.0 0.0 0.07865180987156421 0.0 0.0 0.0 0.0 0.0 0.0 0.0 0.730495178631515 1.3976063434640835 0.0 0.0 0.0 0.0
2442 0.0 0.0 0.3331570374250301 0.8624175767873731 0.0 0.0 0.0 0.8170290501184354 0.0 0.0 0.0 1.3833743292190652 0.873759301545107 0.0 0.0 0.9734584644326103 0.0 1.1727558227736883 0.0 0.0 0.0 1.031167336571527 0.24899533646387867 0.0 0.0 0.0 0.0 2.716872110681389 0.0 0.0 0.0 0.0 0.9309119286314398 0.8070189624261256 0.1444059577260337 0.10748075201888374 0.07144476536907214 0.0 0.0 0.0 0.0 0.0 0.0 0.0 0.0 0.0 0.0 0.0 0.157881778155404 0.45961315532282837 0.6345275435715664 0.8479034267678347 0.2845223343108155 0.0 0.0 0.0 0.0 0.0 1.2996113212381848 0.31712933635811164 0.48515465134195085 0.16243679663166388 0.0 0.0 0.08536009824451508 0.47158907949370243 0.7740354143404689 0.0 0.46807275841571216 0.0 0.47616808553364415 1.0163725651700266 0.63546947825863 0.0 0.0 0.0 0.42763065085852553 0.0 0.0 0.0 0.7326333667625894 0.0 0.0 0.0 0.3227037672465676 0.0 0.0 0.0 0.0 0.21125525901654407 1.8219406828221216 0.0 0.0 0.0 0.0 0.05089184512448335 0.0 0.1474242141094768 0.7003305086754187 0.0 0.6185584997670348 1.0142932850351796 0.13227843897039226 0.0 0.5226208606110507 0.0 0.1766660105495424 0.0 0.0 0.0 0.4791448048022007 0.07884333765908372 0.0 0.8190275879537273 0.3604687770163885 0.18593896547230718 0.0 0.0 0.0 0.0 0.0 0.05802203919399482 0.0 0.0 0.5374158144029876 0.0 0.0 0.0
2443 0.0 0.0 0.0 0.0 0.0 0.7128767120132274 0.0 0.7010866959552152 0.0 0.0 1.2477992374141829 0.0 0.0 0.0 0.0 0.0 0.18029238088320637 0.0 0.0 0.368975445131207 0.0 0.0 0.0 0.0 0.17297434276347112 0.0 0.6141323315673962 0.0 0.016167221397354416 0.6338247095231291 0.4653737784575618 0.0 0.0 0.49115718596332997 0.0 0.9592980153017331 0.0 0.0 0.6599078785267972 0.0016105212092697224 0.15327382718547064 0.0 0.0 0.0 0.0 0.18240654249858776 0.0 0.0 0.0 0.06640150822025484 0.505803185018519 0.0 0.48495933943729275 0.0 0.0 0.6486098652551431 0.9865182723756698 0.2244578482208402 0.0 0.0 0.0 0.832408058055816 0.0 0.5433835564361742 0.2915773660483227 0.9549918720368208 0.0 0.0 0.6578719664782277 0.0 0.0 0.0 0.8952244661558827 0.0 0.0 0.3886352237507232 0.0 0.17419154299836187 0.0 0.0 0.0 0.0 0.16000067123997608 0.0 0.0 0.0039746410653012584 1.7942093679604345 1.7171870503727682 0.0 0.0 0.0 0.6028868223825766 0.9996237374364468 0.0 0.0 0.9721215752400337 0.0 0.0 0.0 0.0 0.2708132137354943 0.0 0.07632373810873413 0.0 0.0 0.0 0.0 0.0 0.0 1.1993736140793008 0.0 0.15582361848776125 0.0 0.0 0.0 1.1937848536003983 0.0 1.6776183244293457 0.7467038636381245 0.06777523872291338 0.0 0.0 0.0 0.0 0.0 0.5545028955625902 0.0 0.0
2440 0.0 0.0 0.0 0.0 0.0 0.0 0.0 0.3088114225013534 0.0 0.982557706816459 0.0 0.0 0.0 1.8914912368414518 0.0 0.0 0.0 0.21328191604196559 0.0 0.0 0.0 0.0 0.0 0.16892644854806219 0.0 0.0 0.20311945687865757 0.23425293965890165 0.0 0.7413480092557799 0.0 1.0499208896948407 0.2883817182952438 0.0 2.050240283810069 0.0 0.0 0.0 0.0 0.18802806453171325 0.0 0.8730146334332898 0.0 0.0 0.0 0.0 0.1337318511525793 0.517208826036237 0.0 0.0 0.0 0.2730236277037355 0.0 0.0 0.0 0.0 0.34378923803130695 0.0 0.4713951901048814 0.12422022288031272 0.0 0.0 0.0 0.0 0.14696864834572596 0.8336743259534297 0.439625591414989 0.11852819271351485 0.22985637684442414 0.0 0.0 0.0 0.0 0.0 0.0 0.13619182548649336 0.0 0.550846112164621 0.0 0.0 0.0 0.0 0.0 0.0 0.0 1.5138161467932594 0.016127921435955064 0.0 0.0 0.0 0.0236761170147074 0.0 0.0 1.5594445490548803 1.0322196989507015 0.0 0.0 0.0 0.0 0.0 0.0 0.0 0.0 0.13449099015785995 0.02916054478467506 0.39449306386154354 0.0 1.1866958628724302 0.7363454178698285 0.49930326533978997 0.7941008682580858 0.0 0.0 0.0 0.33226424805334615 0.0 1.1417182054396382 0.5868128215218191 0.0 0.0 0.0 0.0 0.024793187293554717 0.0 1.162102971535231 1.248024329887183 0.19640468326164526 0.0
2441 0.8391681411560736 0.0 0.11824148791941039 0.0 0.31093629346883495 0.0 0.0 0.0 0.568208052441653 0.0 0.0 0.0 0.0 0.2226845123826966 0.0 0.30155278014326614 1.2989197635896812 0.0 0.0 0.0 0.0 0.0 0.525545903005302 0.0 0.0 0.0 0.0 0.0 0.0 0.0 0.0 0.20304586464185198 0.0 0.29053872561890914 0.0 0.0 0.16918442096034228 0.0 1.4247192539015736 0.9210083056039313 0.6082621713824096 0.0 0.17328582677985657 0.0 0.8955723770571465 0.1740517443318185 0.0 0.0 0.0 0.0 0.3992890299514028 0.34707566804385515 0.0 0.0 0.0 0.0 1.1666968409223823 0.8871256632435013 0.0 0.0 0.0 0.4374556415367519 0.0 0.8041150450706323 0.0 0.0 0.213882811782308 0.8064484970817299 0.6269999834760406 0.0 0.0 0.0 0.08259523078156358 0.0 0.0 0.0 0.0 0.0 0.0 0.031607721602186306 0.0 0.0 0.0 0.0 0.5331523381490245 0.9126848035785982 0.22330586214665077 0.0 0.0 0.762925049511122 0.21354041449753863 0.8180798131741637 0.0 0.0 0.0 0.0 0.9500955661350475 0.0 0.601890352826967 0.9099291349528065 0.0 0.0 0.04389666749402077 0.0 0.0 0.9912766184835939 0.8315984374450357 0.4318658629607434 0.0 0.0 0.0 0.0 0.0 0.0 0.0 0.0 0.0 0.0 0.0 0.0 0.0706508546590297 0.4802288655657643 0.03172199473039157 0.0 0.20995394873330975 0.44205444773916314 0.4117627722743062 0.0
2446 0.637505684019576 0.0 0.0 0.0 0.0 0.018342042678323442 0.18087038305293462 0.0 0.0 0.02501211141483144 0.0 0.0 0.0 0.0 0.8927504151215538 0.0 0.0 0.0 0.0 0.0 0.7224893753281947 0.0 0.0 0.0 0.0 0.0 0.0 0.6883146440787099 0.0 0.21794341535833714 0.0 0.0 0.0 0.0 0.42538571196861175 0.0 0.0 0.0 0.16291988120710427 0.0 0.5344677532673139 0.0 0.263387376542832 0.0 0.0 0.0 0.2804887417895978 0.0 0.0 0.34141066759910127 0.0 0.0 0.8275477134282779 0.08927980933509964 0.0 0.18106532971335024 0.0 0.0 0.21153384178621296 0.0 0.5411694120113676 0.0 0.581130953586564 0.0 0.40487613885207774 0.0 0.0 0.0 0.0 0.0 0.0 0.19516289627726432 0.44794292877525754 0.34377854363480914 0.0 0.2160650704561753 0.10377082522802399 0.0 0.0 0.0 0.0 0.0 0.0 0.0 0.0 0.0 0.0 0.0 0.0 0.0 0.8863259475406089 0.4058844052132109 0.5680172078906278 0.0 0.0 0.0 0.0 0.0 0.2863972042030236 0.1562774163640526 0.0 0.7872255564298964 0.2458379421067175 0.15978145500011565 0.14747813342810348 0.0 0.0 0.0 0.0 0.04732322600757951 0.1938542536859029 0.0 0.0 0.0 0.0 0.0 0.0 0.0 0.9095946306884327 0.37957038536921156 0.0 0.0 0.3255900479416827 1.0143081928694468 0.0 0.5253510505369002 0.0 0.0
2447 0.29325662746662656 0.0 0.17568524381472167 0.9054051422148242 0.0 0.3386196578991487 0.0 0.0 0.05945681245655559 0.0 0.0 0.0 0.7635149641701445 0.0 0.0 0.0 0.0 0.0 0.0 1.7662334652539373 0.0 0.0 0.00133421120448334 0.0 0.2390211524050786 0.0 0.0 0.0 0.0 0.243733234624925 0.0 0.0 0.0 0.6103883032777829 0.0 0.0 0.08368763974812136 0.0 0.0 0.0 0.0 0.0 0.9649444041741854 0.0 0.0 1.16800333994581 0.0 0.0 0.0 0.0 0.0 0.14180363311685337 0.0 0.0 0.0 0.0 0.0 0.0 0.0 0.0 0.0 0.1701056865370106 0.0 0.1924801374829297 0.19471466632074982 0.7433561978859781 0.0 0.0 0.9482199803429084 0.9571027983518472 0.0 0.0 0.0 0.0 0.0 1.483040225734931 0.0 1.8097748461781962 0.0 0.713548751587489 0.0 0.19481029772265082 0.0 0.3428180360218533 0.16269165764249732 0.0 0.9929735784862321 0.22643530869592196 0.0 0.0 0.6459100165292639 0.09669894840144622 0.7464696174724367 0.0 0.0 0.0 0.0 0.43567036624899047 0.0 0.0 0.006304375725316206 0.0 0.19231814721665688 1.2221059189560375 1.3807799943706194 0.0 1.3153710047613834 1.3880547529617246 0.16216174280200343 0.1792397659173988 0.0 0.27106274225567967 0.310001842110076 0.0 0.0 0.0 0.0 0.3284613259464824 0.28411256294391374 1.4032326993874416 0.40142823773709396 0.0 0.008788241586513833 0.8568338894954267 0.0 0.7823046338854964 0.0 0.0
2444 0.5930442657449905 0.0 0.4382817956123995 0.3873437499813147 0.0 0.0 0.0 0.10090090259749833 0.5118734827431541 0.0 0.0 0.0 0.0 0.0 0.0 0.0 0.0 0.3794664984877841 0.4140817304166761 0.0 0.32605936404837194 0.10446438126289263 0.0 0.0 0.0 0.8065943840523824 0.0 0.11289394532212238 0.0 0.0 0.13298192525550792 0.0 0.0 0.0 0.0 0.0 0.41149285014638365 0.0 0.0 0.0 0.0 1.1405708473915004 0.0 0.0 1.0306226060831967 0.0 0.9577980635540634 0.0 0.0 0.44179995543887457 0.0 0.0 0.5831053958541187 0.0 0.0 0.0 0.0 0.0 0.0 0.0 0.0 0.0 0.0 0.0 0.0 0.6246630319368345 0.0 0.3477990878409625 0.0 0.0 0.0 0.0 0.0 0.0 0.37331145843793495 0.24196821938926572 0.6473559467093332 0.0 0.0 0.5072445416605594 0.0 0.0 0.0 0.0 0.81670475285067 0.609773786828736 0.0 0.0 0.0 0.0 0.3660864839845598 0.0 0.0 0.0 0.0 0.0 0.0 0.0 0.09293379982539629 0.02074442114854963 0.4691853535975332 0.0 0.0 0.0 0.032704362813965104 0.7946462382115013 0.0 0.0 1.033409476032071 0.0 0.4558605583642568 0.033166605396752064 0.0 0.7976127183380349 0.0 0.12306103950900646 0.6445255309517319 0.1803900329168328 0.13084505133495017 0.0 0.35685998956633 0.0 0.3228576344727296 0.529358268655997 0.4265575253065717 0.0 0.0 0.0
2445 0.4816599805047934 0.7615116429916499 0.0 0.46675833684984647 0.0 0.0 0.45848251124260164 1.2469165565250968 0.0 0.0 0.0 0.0 0.0 0.0 0.0 0.5342790668177961 0.9054587227230011 0.2173988015812062 0.0836724637473902 0.0 0.2571133156936082 0.0 0.0 0.0 0.0 0.0 0.0 0.051442427406690014 0.0 0.0 0.4253486647662582 0.0 0.0 0.025002764574643982 0.0 0.0 0.0 0.0 0.0 0.014494856287119964 1.3555454784103516 0.6626804818610547 0.0 0.0 0.4217439568917954 1.7626790214403767 0.0 0.0 0.14832691911831303 0.6796250112438381 0.08411888327962902 0.0 0.0 0.004669433463418081 0.0 0.0 0.7912871038447719 0.37754581614811056 0.47130221881340517 0.0 0.0 0.05240087119262838 0.0 0.06698297658224524 0.0 0.0 0.07783447553631165 0.0 0.0 0.0 0.0 0.0 0.5049172867353148 0.0 0.6895355246884138 0.0 0.0 0.0 1.0420728701484163 0.0 0.0 0.0 0.0 0.0 1.6568578918148096 0.0 0.0 0.0 0.0 0.0 0.0 0.0 0.15245904071753136 0.0 0.0 0.0 0.0 0.0 0.5538683695360227 0.2281609682422562 0.0 0.0 0.0 0.16806470597431128 0.0 0.5527672555859117 0.0 0.16588051138240825 0.0 1.8774425010324514 0.0 0.0 1.9924516549971403 0.09842879438591795 0.4499380585369871 0.0 0.4972545578408905 0.22043694300783173 0.0 0.0 1.31879628887481 0.0 0.10138808453471711 0.3179552822789243 0.0 0.0 0.0 0.06296783170355891
2448 0.0 0.35926414208374136 0.0 0.0 0.5880628503167559 0.0 0.0 0.0 0.0 0.0 0.0 2.214872003793823 0.0 0.0 0.0811049985875072 0.16395294652830114 0.0 0.0 0.0 0.0 0.0 0.0 0.0 0.0 0.3628585472971206 0.4007854837298034 0.7447011717243143 0.0 0.0 0.0 0.0 0.0 0.19400218146974035 0.0 0.7138004755854023 1.163484763363808 0.0 0.0 0.0 0.0 0.0734857961701602 0.15064993725590875 0.0 0.0 0.0 0.0 0.39600973571834985 0.38963447709146554 0.0 0.0 0.0 0.0 0.6261007614238718 0.1605950218431753 0.17981323300942234 0.0 0.6438710886303712 0.17956413550762454 0.24439308875796828 0.0 0.0 0.0 0.0 0.0 1.500461221293546 0.07692578499780474 0.0 0.0 0.6491891913212589 0.0 0.0 0.7530000253662815 0.17948645314039197 0.0 0.0 2.115161387592092 0.0 0.9620387991975992 0.0323312967191644 0.2648044620840752 0.08610712199590838 0.00974639180182535 0.6964359872527972 0.2554531596498572 0.2832438478853768 0.0956667267215981 0.0 0.0 0.0 0.17366131754604672 0.10982999312085565 1.3460760201625024 0.5017510008739767 0.0 0.950789113942068 0.0 0.19127101408522068 0.0 0.0 0.0 0.0 0.0 0.0 0.0 0.0 0.0 0.0 0.0 0.0 0.0 0.0 0.0 1.3051413906686338 0.0 0.5514284881263568 0.0 0.02210430613798158 0.0 0.0 0.0 1.2275764954171098 0.39543145096192084 0.0 0.3477154869128528 0.0 0.0 0.0 0.0
2449 0.0 0.0 0.0 1.670531874786545 0.7029557290151389 0.025661121366129667 0.0 0.0 0.621270029990145 0.0 0.0 0.5838213328022902 1.069989963753371 0.0 0.6392553135643675 0.14769762080699228 0.0 0.0 0.0 0.08794909558301696 0.43633952920496916 0.0 0.198491225907425 0.0 0.020783754080963526 0.0 0.0 0.08591478760491646 0.0 0.0 0.8309816463911878 0.0 1.5026852856599258 0.0 0.0 0.19325340838947117 0.0 0.052844214035284554 0.0 0.0 0.29685054261390126 0.0 0.858638980038892 0.4474302371714648 0.6000483999283398 0.0 0.0 0.0 0.0 0.0 0.0 0.0 0.0 0.0 0.0 0.0 0.0 0.0 0.6460781831809215 1.8577605391730296 0.0 0.0 0.0 0.0 0.4291009928884771 0.0 0.0 1.452290476787921 0.640643590859616 0.0 1.132556222975461 0.6548188296658695 0.0 0.0 0.0 0.964020970068039 0.5526561031016469 0.014628940277164892 0.0 0.01170590301672666 0.6535011509351405 0.4437730496905415 0.0 0.0 0.4297328421159065 0.0 0.0 0.6009061167863915 0.0 0.0 0.0 0.0 0.0 0.26051475524507633 0.0 0.0 0.9152359185625122 0.0 0.34749241276541515 0.049911946307912666 0.858804337010903 0.0 0.10279663133794528 0.0 0.0 0.0 0.5178479689452384 1.67905643754447 0.0 0.0 0.009076642923265883 0.5389240543556217 0.0 0.0 0.0 0.0 0.1696730216163136 0.04017901272650883 0.0 0.0 0.0 1.113292004000757 0.0 0.0 0.0 0.0 0.0 0.2890725331578897
2189 0.1543897921441331 0.0 0.6341217450990575 0.0 0.8543129446408538 0.0 0.0 0.07451253232529696 0.0 0.004254733727574294 0.8960723656568034 0.0 0.0 0.22760467571738252 0.3325763658965501 0.0 0.0 0.0 0.0 0.0 0.46723364987112015 1.2558590544174055 0.0 0.9354149760125919 0.30680366374820217 0.6326952092313758 0.0 0.0 0.0 0.1421518953584966 0.0 0.9091842221247021 0.0 1.138177264584307 0.0 0.0 0.0 0.0 0.0 0.0 0.0 0.0 0.31313398440068535 0.0 1.1225814703416277 0.0 0.0 1.1159015883882573 0.6693396916551051 0.5991523889734343 0.0 0.0 0.0 0.0 0.0 0.0 0.0 0.0 0.5082296543823401 0.0 0.9306082766536076 0.0 0.0 0.0 0.0 0.0 0.0 0.7883940748856929 0.149090004923359 0.8119356064413386 0.0 0.10464366384527862 0.0 0.0 0.8510586071033138 0.5415454890443956 0.3366144115213017 0.0 0.0 0.0 0.0 0.22822024691009804 0.0 0.9339377298144915 0.001284226820465694 0.0 0.9493292982248704 0.0 0.45321049933764257 0.4512103404545637 0.13284805149800008 0.11565089568437284 0.0 0.0 1.115890746588972 0.0 0.15937673926473284 0.38487903292815695 0.0 0.0 0.0 0.186827219361039 0.0 0.0 0.024821716847892715 0.0 0.19914631195642474 0.0 0.0 0.4492696470440041 0.0 0.31506782967048286 0.8026255844014566 0.0 0.0 0.0 0.0 0.0 0.0 0.0 1.2604127841119621 1.1093922283235986 0.0 0.0 0.0 0.0 0.0 0.0
108 0.0 1.0569181069194025 1.451550103544954 0.0 0.898745334128467 0.13498874199885227 0.0 0.0 0.0 0.0 0.2195965931848244 0.0 1.1385603622665892 0.0 0.4776981901097223 0.0 0.0 0.0 0.41748972008485624 0.0 0.0 0.0 0.0 0.0 0.0 1.039146256127834 0.5444207156360922 0.0 0.7051545085296497 0.0 0.0 0.28197851182174904 0.26004720784946406 0.41277318088621173 0.4801826143254227 0.3410575468385647 0.0 0.0 0.04024667117969162 0.0 0.0 0.0 0.0 0.5152652210960592 0.8915577135381555 0.0 0.0 0.0 0.35508515541987007 0.0 0.0 0.0 0.0 0.689034472576147 0.0 0.0 0.0 0.0 0.0 0.41806286682147986 1.111758715770069 0.0 0.0 0.0 1.6877578873114432 0.7804091096740222 0.4029179534194394 0.5794781792873779 0.0811736030496984 0.9995096800311298 0.0 0.0 0.0 0.0 0.0 0.8969146980976017 0.0 0.6954848790926864 0.7297245707547471 0.0 1.165308747474373 0.45200560170320053 0.0 0.0 0.0 0.0 0.0 0.0 0.0 0.23780186063601147 0.0 0.4108903972106181 0.0 0.0 0.0 0.0 0.25717365400105613 0.0 0.0 0.0 0.0 0.0 0.0 0.0 0.0 0.4645658704913513 0.19493961944380625 0.11561801538295721 0.0029016197648762763 0.0 0.5954548926574037 0.0 0.8242594366688161 0.0767146415413428 0.02125125493489942 0.5989825708141553 0.963103520760961 0.0 0.0 0.3153356602509585 0.369696089934168 0.0 0.0 0.0 0.0 0.0 0.0 0.0
109 0.0 0.471449812338814 0.0 0.0 0.0 0.13705029788326115 0.7557855198349733 0.0 0.0 0.0 0.1380893009997668 0.0 0.0 0.0 0.0 0.0 0.5781212439340047 0.0 0.009619203103772693 0.07419636284495344 0.06484652856747941 0.0 0.0 0.21490504558285323 0.0 0.08261585100164565 0.3143747129346676 0.36186670517683955 1.2229442037287228 1.1873066251973692 0.0 0.0 0.0 1.0689775926457654 0.0 0.0 0.0 0.49196461458364216 0.0 0.0 1.8414562679516489 0.0 0.0 0.07596008954383057 0.0 0.0 0.0 0.0 0.0 0.0 0.4338313350759097 0.0 0.0 1.0483315383395506 0.0 0.0 0.0 0.0 0.6556080569664999 0.0 0.0 0.0 0.04420009861040757 0.0 0.0 0.0 0.2155645108831328 0.0 0.0 0.0 0.22390464458316894 0.0 0.0 0.0 0.0 0.126430341449167 0.5622678161125158 1.1246180310321106 0.0 0.9120117758936905 0.0 0.0 0.0 0.0 0.0 0.31988152672083786 0.0 0.0 0.4386557658084135 0.0 0.0 1.3518981975427171 0.0 0.5826312847550474 0.0 0.0 0.12425660756577502 0.0 0.5967948725312904 0.8143451954963518 0.0 0.0 0.5757575694048849 0.0 0.5218350261336294 0.0 0.49122313758219044 0.0 0.41907298282176997 0.0 0.2918307011720149 0.22019838552900078 0.0 0.3812838342781404 0.16716699979142205 0.3597639132095533 0.0 1.250973586615581 0.024607409119340694 0.2879089394677796 0.0 0.47803122289874633 0.0 0.0 0.0 0.6702664505087044 0.5950593807388809 0.8705113565696017
102 0.0 0.0 0.0 0.13914239434873774 0.0 1.3499431940213527 0.31030149375978777 0.0 0.0 0.0 0.0 0.0 0.0 0.8038490624197819 1.1882906309192935 0.0 0.0 0.4466363533940176 0.0 0.0 0.0 0.0 0.0 0.2685237052788146 0.0 0.34669257578424123 0.0 0.8857558028578012 0.0 1.431163289060079 0.736501404818047 0.0 1.2120331964891577 0.3633952704144086 0.05790304471754103 0.0 0.0 0.7895873055094993 0.0 0.0 0.0 0.0 0.6609551563476855 0.0 0.0 0.0 0.0 1.4938023410519816 0.0 0.0 0.8077652241150903 1.3489464141075025 0.0 0.0 0.0 0.0 0.0 0.0 0.0 0.0 0.0 0.0 0.5974269879264371 0.4175417589285116 0.8349649799158998 0.48365270069455757 0.0 0.0 0.0 0.275961414465668 0.0 0.0 0.059361838286143935 1.4798597320082738 0.2862913393823083 0.46970175287508714 0.0 0.18392265390473303 0.14982322779566645 0.0 0.0 0.0 0.0 0.15415371421609364 0.19065155648498028 0.0 0.0 0.0 1.317527170233772 0.0 0.0 0.0 0.0 0.823475706425577 0.0 0.17807487809405514 0.47679866010219524 0.0 0.0 0.0 0.0 0.09376400230506232 1.1606606304795046 0.0 0.0 1.1183228159801037 0.37248745326397076 0.0 0.0 0.0674571410331935 0.0 0.0 0.0 0.47340082610855155 0.07890999850039651 1.30989659615192 0.2697457428268379 0.07859457584668718 0.0 0.0 0.0 0.8557181766438321 0.0 0.0 0.5880849836526285 0.5105355718379132 0.3592053231200132 0.0
103 0.0 0.0 0.0 0.046008459441656206 0.57449695643332 0.07533339019685298 0.0 1.3921799095833949 0.5903396743708134 0.03691106140397319 0.0 0.0 0.0 0.0 0.0 0.0 0.0 0.0 0.0 0.0 0.0 0.0 0.5939875222174241 0.7502094814148016 0.0 0.0 0.12220098403911626 1.7509272918564007 0.033023114372711986 0.0 0.064249332567664 0.0 0.40271175706838597 0.17285143757526444 0.0 1.51916696504788 0.0 0.0 0.7139248142909025 0.0 0.0 0.0 1.4142494230148492 0.0 0.0 0.0 0.38286302124812477 0.31194205935736574 0.8733384157770886 0.0 0.0 0.0 0.0 0.3535129096621621 0.0 0.0 0.0 0.0 0.24420266537533813 0.06453413276384502 0.0 0.0 0.12113139734304368 0.0 0.0 0.6865062417695523 0.5270271526077273 0.0 0.0 0.11642234392931984 0.0 0.7407953257359619 0.6809040162045664 0.0031989310988192847 0.5203573053495337 0.0 0.0 0.31445524846938977 0.46152608356228936 0.0 0.0 0.6811991953237586 0.0 0.0 0.34691435869333204 0.13659032097886262 0.0 0.4471953221469911 0.0 0.0 0.0 0.0 0.8422215253807107 0.0 0.1498097299691362 0.0 0.0 0.0 0.0 0.0 0.8277824944275606 0.0 0.0 0.0 0.6133538002086109 0.0 0.0 0.0 0.0 0.2176835046131436 0.0 0.0 2.0353577913418346 0.6856257474121754 0.03378795605238987 0.0 0.0 0.0 0.5815066560063532 0.0 0.041367682725675904 0.0 0.0 0.45071939990602083 0.0 0.10240792265295996 0.8141821452496792 0.0
100 0.0 0.0 0.8333632493303418 0.0 1.6585410004660046 2.515408369066234 0.0 0.5701885776841114 0.0 0.6477558503668783 0.0 0.0 0.16521309170929022 0.9151873905031647 0.0 0.0 0.9506932264811343 0.0 0.0 0.0 0.767705131112003 0.13816807250047788 0.0 0.0 0.8439159299582811 0.0 0.0 0.7535682213291586 0.0 1.408622255456577 0.0 0.9977046651450362 0.0 1.5171310518782557 0.0 0.0 0.0 0.04052609750680008 0.4254502386809908 0.0 0.0 0.0 0.32423605890286494 0.2225692911337246 0.6132990892631678 2.0791532157896384 0.0 0.0 0.0 0.0 0.0 0.0 0.03186148491168608 0.0 0.5103285219836469 0.0 1.4380720536623968 0.0 0.0 0.0 0.8880767143023414 0.46026018882992614 0.641316118143474 0.0 0.06564030172961945 0.20627636559097362 0.5835516523909459 0.14845770761148627 0.0 0.0 1.5796414246968 0.192794910735076 0.0 0.0 0.1792886845668781 0.0 1.0129222254088732 0.053654718280343267 0.0 0.0 0.9521939420002379 0.043929252299373306 0.0 0.0 0.15015958925618733 0.0 0.0 0.20489300037056443 0.0 1.2680555041547243 0.0 0.6244877851223115 0.0 1.055889077248032 0.0 0.48355477854742057 0.0 0.7863273290550077 2.027963713307495 0.0 0.0 0.4291772018050631 0.3971953899104902 1.2704859042661132 0.0 0.0 0.0 0.0 0.005033514086175465 0.2818388435490991 0.0 0.15894458393212177 0.0 0.5497134167691677 0.0 0.0 0.0 0.0 0.0 0.0 0.5751173649008982 0.0 0.0 0.0 0.0 0.0 0.0 0.4504945898900824
101 0.0 0.1314990758114806 0.0 0.0 0.18999725486487085 0.0 0.0 0.0 0.0 0.44100381808825323 0.0 0.0 0.5336984574270291 0.3711778444141617 0.5372162786619091 0.0 0.0 0.0 0.0 0.0 1.5142417143125775 0.2824959988775641 0.0 1.0315169935838462 0.4032464597386603 0.0 0.0 0.0 0.0 0.0 0.0 0.0 1.6583421057428465 0.0 0.0 0.16691218361466886 0.1766429481294392 0.0 0.2836383563728331 0.1365928176409585 0.0 0.39813497073831206 0.0 0.0 0.0 0.0 0.0 1.2292112970741957 0.3787225632817532 0.0 0.0 0.0 0.0 0.0 0.40929673747756334 1.1172391797769592 0.0 0.0 0.0 0.0 0.0 0.5689854797965981 0.0 0.16940247997090266 0.0 0.0 0.0 0.34850553492117475 0.0 0.0 0.0 0.0 0.2688543554960319 0.578194711022183 0.08923416007289144 0.0 0.09213399761062875 0.1211515654977545 0.0 0.0 0.0 0.05439329200573119 0.0 0.0 0.0 0.0 0.0 0.3803902044568412 0.0 0.07994705366967952 0.5544798809483722 0.4196641235147144 0.0 1.036058905612598 0.0 0.0 0.0 0.0 0.0 0.0 0.5172037776380521 0.0 0.0 0.0 0.0 0.0 0.0 0.0 0.0 0.0 0.0 0.0 0.0 0.06342532858386078 0.4625834504009673 0.0 0.0 0.0 0.016504417404142477 0.0 0.0 0.43834753051309394 0.0 2.030312836598948 0.0 0.6545018276561878 0.32210137284277796 0.0
106 0.029993077378118592 0.0 0.0 0.0 0.0 0.0 0.0 0.0 0.24897921155927702 0.0 0.025925934096927103 0.0 0.0 0.0 0.42240109630696304 0.0 0.30470692008366884 0.0 0.0 0.0 0.24879217314647026 0.0 0.0 0.0 0.17709586046933778 0.0 0.0 0.0 0.6815091522007767 0.0 0.0 0.5779884669738155 0.0 0.5652270745739503 0.9091430702608634 0.5805469878487871 0.0 0.0 1.184460489085496 0.0 0.0 0.0 0.3238302029613845 0.0 0.0 0.02677711833635259 0.0 0.0 0.37387577026179203 0.0 0.0 0.0 0.0 0.0 0.0 0.9141593654267857 0.0 0.12591819874649124 0.0 0.0 1.2835891264073003 0.3038323731129353 0.02034167044184942 0.34974279268053904 2.139938512777682 0.3073103837772599 0.0 0.0 0.0 0.0 1.8750862646922755 0.4260553575516788 0.0 0.0 0.0 0.0 0.0 0.019448841336813533 0.0 0.7740751224845484 0.39280470799403766 0.0 0.0650605747656688 0.5546044503075684 0.0911215820894654 0.13300397876912323 0.0 0.4117743538556924 0.0 0.0 0.0 0.0 0.0 0.5897419619438243 0.36108518871970846 0.0 0.0 0.5478385785151497 0.9516620723174016 0.03378728997885426 0.0 0.07859319451502006 0.0 0.0 0.02704601972457252 0.0 0.0 0.0 0.0 0.0 0.0 1.9425785906629534 0.0 0.0 0.0 0.0 0.2124490351967907 0.050297223981072926 0.0 0.0 0.0 0.0 0.042589370666371355 0.0 0.0 0.0 1.1981879675127538 0.0
107 0.0 0.0 0.0 0.0 0.0 0.0 0.0 0.18743669529388807 0.0 1.3467758298699433 0.7378687272396786 0.0 0.0946814547914305 0.001955000473694858 0.0 0.0 0.0 1.2635733089767143 0.9274892915460999 0.025981355014725538 0.0 0.0 0.23965756289944898 0.0 0.0 0.0 0.0 0.28474326353209184 0.14896758434464907 0.0 0.0 0.0 0.0 0.0 0.2299637240235378 0.0 0.0 0.04349720950073689 0.0 0.0 0.03887184641177924 0.0 0.0 0.0 0.0 0.06071993655653318 0.0 0.19600245919673415 0.0 0.0 0.022817166723738208 0.6835019290284635 0.0 0.9442400432231841 0.4574910858337643 0.48294023653895235 1.8373917887946492 0.0 0.052949114187633 0.0 0.0 0.0 0.9858424260797359 0.0 0.0 0.0 0.0687554250326803 0.43680274930728963 0.7042520351446341 0.6798539165061516 0.5870904875219191 0.09641222675527283 0.0 0.0 1.6285885575765202 0.38493416321341556 0.0 0.5574805517521186 1.2233391190762997 0.0 0.031175686282152868 0.0 0.12859277160426055 0.0 0.0 0.0 0.0 0.0 0.0 0.011911156627486912 0.0 0.0 0.0 0.013713592240294649 0.0 0.0 0.9351368349719207 0.0 0.0 0.06852967552299075 0.0 0.0 0.035133252487112465 0.834238122357215 0.0 1.0171055419624664 0.5727360068129708 0.0 0.0 0.9321989856034466 0.38344332536631354 0.0 0.0 0.0 0.4050894054978607 0.1658750000472573 0.0 0.0 0.0 0.0 0.23021833178259177 0.18999664892957846 0.7220181407008781 0.06392296808607882 0.0 0.3140717881953588 0.6188548110589559 0.0
104 0.00826707218586331 0.0 0.0 0.0 0.042198603246484064 0.0 0.0 0.0 0.0 0.0 0.0 0.0 0.0 0.032028294205681644 0.0 0.0 0.0 0.0 0.0 0.0 0.0 0.0 0.1436076227698863 0.0 0.0 0.24071389946029895 0.0 0.17968385659014283 0.0 0.0 0.061954901463934765 0.0 0.0 0.0 0.18811136529135283 1.08626270884391 0.0 0.5627358409828034 0.0030356114715934792 0.0 0.2173631888949053 0.0 0.0 0.0 0.247356385153109 0.8207000576389486 0.8386015873900705 0.8295845464236126 0.0 0.0 1.2693935670710712 0.0 0.0 0.0 0.0 0.0 0.0 0.0 0.06785550454522529 0.09893554393829893 0.0 0.0 0.0 0.0 0.7319587953384049 0.0 0.0 0.0 0.0 0.024576282109851664 0.0 0.0 0.9419028340437596 0.0 1.059823645311508 0.2638783296219695 0.0 0.0 0.0 0.0 0.05727830782020901 0.0 0.19397543727082692 0.0 0.0 0.452849463765321 0.0 0.0804395478885025 0.0 0.0 0.0 0.1768678418022202 0.21255953694175936 0.0 0.0 0.0 0.0 0.0 0.0 0.0 0.0 0.0 0.0 0.2174646591460756 0.46017095573293293 0.0 0.23124016835923844 0.0 0.0 0.0 0.0 0.8060975421217697 0.0 0.5949029112590326 0.0 0.0 0.0 0.0 0.7369637179708388 0.5283533349699298 0.15854517011677893 0.0 0.0 0.6312657325269604 0.0 0.0 0.0 1.2913122824004022
105 1.1290202419342559 1.1951574222335377 0.0 0.0 0.0 1.443134488320365 0.07638507963690948 0.43866721443459183 0.2552554047153994 0.0 0.0 0.3709874093170646 0.0 0.0 0.0 0.0 0.0 0.10511554145454882 0.36966227976690624 0.18327723715626296 0.0 0.0 0.0 0.48497082871490765 0.5242204287743829 0.014254684130683655 0.0 0.0 0.0 0.0 0.7868533705112712 0.0 0.0 0.0 0.3476336555984914 0.0 0.0 0.0 0.8965045048874694 0.0 0.0 0.0 0.0 0.1438606400869053 0.0 0.0 1.2214719751364287 0.45655403326536087 0.0 0.0 0.12247106000527774 0.0 0.15029451505732436 0.07896255688241818 0.0 0.0 0.0 0.0 0.0 0.0 0.0 0.0 0.0 0.6081037060315343 0.0 1.1647881557243926 0.0 0.0 0.0 0.0 0.0 0.0 0.0 0.24378265104782518 0.0 0.0 0.0 0.0 0.0 0.11666822623223756 0.6674275593921903 0.22212961760225824 0.0 0.0 0.0 0.2688582382996899 0.0 0.0 0.0 0.0 0.0 0.0 0.7388545627718387 0.0 0.21882025791786688 0.0 1.4883087736153875 0.0 0.09686680222509904 0.0 0.21836657743353222 0.0 0.0 0.05630253726423964 0.0 0.6496555908406259 0.0 1.0894974689846082 0.6622945306753728 0.0 0.0 0.0 0.0 0.34277660613387034 0.0 0.6751159163504692 0.17152243581518808 0.0 0.0 0.3329630049670395 0.0 0.009616054337583089 0.2640079250663674 0.5354638740596389 0.0 0.5073176607561145 0.0 0.0
2046 0.5564086474698912 0.1341965328043264 0.0 0.0 0.0 0.0 0.6000394868799496 0.42852574970891943 0.0 0.3354316392058104 0.0 1.3168429115634426 0.0 0.0 0.0 0.007755295767744354 0.1507172955423688 0.0 0.0 0.0 0.0 0.333806129875596 0.5400752660309707 0.9776992090240234 0.0 0.0 0.0 1.4107070265497683 0.0 1.6589496974464248 0.3759673684336398 0.9544362894562236 0.8287631346647067 0.0 0.0 0.0 0.03358419001656253 0.0 0.2560913468006201 0.0 0.9524499533522973 0.0 0.0 0.4524507287488116 0.5278401416643784 0.0 0.0 0.0 0.0 0.0 0.0 0.05738231468655131 0.0 0.0 1.3386757539375298 0.0 0.0 0.0 1.1800292826852474 0.0 0.0 0.0 0.5479152388733798 0.0 0.19366314950036168 0.3703776271265618 1.1014354278735616 0.519490494623647 0.4567062268499355 0.0 0.0 0.0 0.08452700536119306 0.0 0.44275841819902056 0.6374650298574798 0.0 0.536463497541841 0.19847081527312088 0.0 0.0 0.0 0.0 0.0 0.0 0.3978624230723699 0.0 0.918891389173726 1.1265827241225108 0.6156807942127543 0.0 0.0 0.38080544517945397 0.7484063202951464 0.06163578401661538 0.0 0.0 0.0 0.0 0.0 0.0 0.0 0.0 0.0 0.23157094076686893 0.0 0.0 0.0 0.0 0.0 0.0 0.30781378827901174 0.0 0.4362689860561633 0.0 0.0 0.48529130151391026 0.032530358007752086 0.0 0.055526729279931984 0.0 0.0 0.2226990065329143 0.0 0.0 0.0 0.0 0.22707519730477188
2047 0.0029949277070352694 0.0 0.0 0.7416467570144174 0.0 0.43945731641721886 0.0 0.11011882848876513 0.1045655101887572 0.0 0.2765627578322391 0.6982708185613102 0.0 0.0 0.0 1.399873194983206 0.03654943952908073 0.0 0.0 0.0 0.9662943752115285 0.143788799954956 0.0 0.5302937889700061 0.0 0.0 0.0 0.0 0.0 0.6052193822174767 0.0 0.0 0.0 0.0 0.0 0.0 0.2678656706962253 0.0 0.0 0.0 0.0 0.0 0.40425372786319624 0.11765496894141976 1.9498812152471579 0.0 0.0 0.8058221683744528 0.0 0.0 0.0 0.0 0.0 0.26631866740539795 1.4656254456773106 1.9888857623551515 0.04852375629984386 0.0 0.0 0.0 0.0 0.0 0.5457886023493161 0.0 0.0 0.23998571206512162 0.0 0.0 1.137053480209078 0.0 0.0 0.8421494281438893 0.0 0.0 0.67336421840476 0.0 0.7483290530191837 0.0 0.25131534356986046 0.0 0.19278817894888858 0.0 0.0 0.3843691862715983 0.0 0.7209979530315134 0.0 0.07951448317244755 0.0 0.0 0.0 0.0 0.5977422013140213 0.0 0.0 0.0 2.379388563894396 0.42610515880981364 0.0 0.0 0.0 1.1644240642580266 0.5968944241625779 0.0 0.0 0.0 0.0 0.0 0.19363848408142662 0.0 0.3901904947679547 0.6176446418768613 0.0 0.0 0.0 1.4644573465695727 0.5082325055734371 0.2272961073714492 0.2735035173355101 1.2450094553532192 0.0 0.0 0.0 0.0 0.0 0.0 0.0 0.0
2044 0.0 0.477347679042818 0.5438200918615096 0.0 0.359079335980356 0.0 0.8726448499590098 0.20780720224640112 0.3002075407634184 0.0 0.0 1.370566015559483 0.20430687205847176 0.0239702904862689 0.0 0.0 0.0 0.0 0.0 0.0740340837350182 0.0 0.0 0.516174517481224 0.06870020907068924 0.0 0.37276444293776856 0.0 0.2687835708298065 0.3407054980529903 0.0 0.46845294689491024 0.4518153143863647 0.27143614441065594 1.0053334002792074 0.0 0.0 0.0 0.0 0.06766141334843692 0.0 0.13087745849337407 0.0 0.0 0.46888087082140584 0.0 0.0 0.0 0.0 0.0 0.0 1.298351779157351 0.0 0.0 1.0272268803763924 0.0 0.0 0.2272429998408556 0.0 0.0 0.0 0.08288480386700169 0.0 0.3971954333499015 0.15650876036925132 0.0 0.0 0.0 0.24621293974596503 0.0 0.07508548821238172 0.0 0.0 0.14821396629581787 0.0 0.0 1.6443461167608935 0.18700890667203568 0.0 0.8360255804375221 0.33804869529701476 0.0 0.49461698552246364 0.0 0.0 0.0 0.0 0.0 0.1164573574472357 0.0 0.0 0.0 0.06872310131524635 0.8813680195786776 0.0 0.0 0.0 0.0 1.5533719683892262 0.0 0.0 1.2695388415106543 0.0 0.0 0.0 0.0 0.6371319292704718 0.0 0.0 0.0 0.0 0.0 0.8460219339174186 0.4487635750032638 0.0 0.0 0.12932010325569385 0.0 0.0 1.2426541950274281 0.0 1.8841798870213446 0.0 0.01649381868484803 0.0 0.0 0.0 0.0 0.0
