3312 128
593 0.0 0.0 0.0 0.06619611667168109 0.0 0.0 0.0 0.0 0.0 0.0 0.2633644246951322 0.0 0.0 0.0 0.0 0.0 0.04304415733168295 0.0 0.0 0.0 0.141271473088091 0.0 0.0 0.0 0.33979801089317824 0.0 0.0 0.0 0.1341142625264219 0.0 0.15969950877498135 1.1263127898273622 0.0 0.0 0.0 0.0 0.0 0.0 0.0 0.0 0.0 0.0 0.05319165585240027 0.0 0.0 0.0 0.47441883315821526 0.0 0.0 0.0 0.0 0.0 0.0 0.0 0.7981867608657118 0.0 0.0 0.0 0.0 0.0 0.0 0.0 0.0 0.5070924375595853 0.0 0.0 0.0 0.0 0.0 0.8087692573619946 0.0 0.0 0.0 0.0 0.0 0.0 0.07216196267268078 0.19905703888605386 0.0 0.0 0.0 0.0 0.0 0.0 0.0 0.0 0.0 0.23631440302118198 0.7301108173426516 0.3798219493175507 0.0 0.0 0.0 0.0 0.0 0.0 0.20795615511936186 0.0 0.0 0.0 0.6592672719074031 0.16600757201828412 0.0 0.0 0.0 0.0 0.5645463894740894 0.0 0.0 0.0 0.2539069243522431 0.0 0.992877721926058 0.18841819587847244 0.0 0.6113739024183067 0.0 0.0 0.0 0.0 0.0 0.0 0.0 0.0 0.0 0.0 0.06260183491340893 0.0
643 1.7457865919235458 0.0 0.0 0.0 0.4046616347953604 0.0 0.0 0.0 0.0 0.0 0.10930814295913246 0.0 0.0 0.9950757281633926 0.0 0.0 0.0 0.0 0.0 0.0 0.0 0.0 0.5019086149328134 0.001766072833049609 0.0 0.0 0.0 0.0 0.0 0.5787600226185089 0.0 0.764072502205467 0.0 0.0 0.0 0.0 0.4067321597131119 0.0 0.0 0.0 0.0 0.0 0.0 0.0 0.0 0.0 0.0 1.3057943446196554 0.0 0.0 0.0 0.0 0.0 0.0 1.3421469660577228 0.0 0.008707901269064795 0.0 0.0 0.0 0.8359772352223137 0.0 0.0 0.0 0.0 0.0 0.0 0.30593443031539497 0.0 0.0 0.0 0.0 0.0 0.0 0.0 0.0 0.6860460428522042 0.0 0.22506476035623002 0.0 0.3023322473037189 0.040641326882091426 0.667155822369051 0.0 0.0 0.0 0.8722277368930905 0.0 0.08179014858592007 0.0 0.0 0.0 0.0 1.2630250572943447 0.0 0.06835246534883553 0.0 0.3148877913322338 0.0 0.0 0.0 0.019412605182148306 0.0 0.0 0.0 0.0 0.0 0.5858468469594657 0.0 0.0 0.05772516915551067 0.0 0.0 0.0 0.1293290929349018 0.16304883279281185 0.10994652033729217 1.3387312568982401 0.68558058428604 0.0 0.0 0.0 0.0 0.8017377572172713 0.0 0.9496445908955425 0.0 0.10745407084067196
592 0.0 0.0 0.0 0.0 0.0 0.0 0.0 0.0 0.0 0.3539085458592229 0.0 0.0 0.0 0.5406558367639939 0.2707269506830331 0.0 0.0 0.0 0.42152195254531183 0.0 0.8260594960910974 0.0 0.0 0.0 0.0 0.0 0.0 0.6427110583204978 0.025321115849303247 0.0 0.0 0.0 0.0 1.9397195070956101 0.0 0.0 0.0 0.0 1.0389304446599177 0.0 0.0 0.0 0.0 0.0 2.473560071922577 0.0 0.0 0.0 0.0 0.0 0.30198010953218696 0.0 0.0 0.28743100568751156 0.7574540988108459 0.053532752187302884 0.0 0.0 0.0 0.0 0.0 0.0 0.0 0.0 0.5657456651446295 0.0 0.0 0.0 0.0 0.0 0.0 0.0 0.42552390291310216 0.0 0.0 0.0 0.0 0.0 0.0 0.0 0.0 0.0 0.0 0.13155247374002926 0.0 0.0 0.0 0.0 0.5329664964247371 0.0 0.0 0.0 0.0 0.18954380787648384 0.8093240261342995 0.6274845579570196 1.7810974665669805 0.0 0.0 1.4387839651556986 0.0 0.4796544795582385 0.0 0.0 0.0 0.0 0.0 0.0 0.0 0.0 0.0 0.0 0.0 0.0 0.0 0.0 0.2977634121666909 0.0 1.2458182013565893 0.0 0.0 0.0 0.0 0.0 1.0911198604419559 0.0 0.36419045431310565 0.0
344 0.0 0.4950409171260184 0.0 0.0 0.0 0.0 0.0 0.8058047695905178 0.0 0.0 0.0 0.5675629929912102 0.2897138543123242 0.11327960321700524 0.8632975608321406 0.8806087238414977 0.0 0.2732553841055905 0.0 0.0 0.0 0.0 0.0 0.0 0.0 0.0 0.0 0.0 0.3826572304433439 0.0 0.0 0.0 0.12979044812512508 0.0 0.0 0.0 0.584976057687056 0.0 0.0 0.0 1.4949392322648767 0.0 0.685731647426213 0.3623255593044489 0.2692579851555604 0.0 0.0 0.5272607823384334 0.19077557249568303 0.7167295467547885 0.0 0.0 0.0 0.0 0.0 0.8121821376491861 0.0 0.0 0.0 0.0 0.0 0.0 0.7267434336685381 0.2646127858035729 0.07703521534783782 0.0 0.0040106128123359765 0.0 0.0 0.11871587529834011 0.0 0.0 0.0 0.0 0.0 0.0 0.5623696351119469 0.0 0.04630986458845653 0.0 0.0 0.0 0.0 0.0 0.5147252779878121 0.5528218816328542 0.15927197154744574 0.0 0.0 0.0 0.0 0.0 0.0 0.0 0.0 0.041786327212563416 0.0 0.39292924080849734 0.5343966176903598 0.0 0.0 0.0 0.08851370896588867 0.030105717123043232 0.43753540252606027 0.6232425143611877 0.0 0.6813307062006299 0.0 0.0 0.0 0.6201761353962902 0.0 0.7590708757565598 0.9078550959653044 0.0873924755472169 0.0 0.17401131338035494 0.0 0.0 0.023026354501308292 0.0 0.0 0.2839266446008782 0.0 0.0 0.0 0.09993488640426043
345 0.0 0.0 0.0 0.0 0.0 0.0 1.075725884188236 0.0 0.0 0.0 0.0 0.0 0.8840315914850397 0.656080170196954 0.0 0.17042205747457315 0.0 0.0 0.43874048641394053 0.0 0.0 0.0 0.0 0.0 0.3357132097138424 0.6599565352901473 0.0 0.18311164317094836 0.0 0.0 0.43444935052283545 0.0 0.29978218144968377 0.8696798513986462 0.0 0.0 0.0 0.5240174854588943 0.053155298472422265 0.8055330836096689 0.0 0.0 0.23262689370520692 0.0 0.0 0.5810009698109483 0.0 0.0 0.32085349276547614 0.0 0.0 0.0 0.0 0.0 0.0 0.0 0.0 0.0 0.0 0.4167479152060902 0.0 4.514946195171947e-05 0.0 0.0 0.6770189583677888 0.0 0.08124219502402986 0.0 0.0 0.08637186864167341 0.0 0.0 0.0 0.050664962837342946 0.0 0.0 0.0 0.0 0.0 0.0 0.14647153013010175 0.0 0.05442060858565241 0.05783436988022008 0.0 1.7477791478880333 0.0 0.0 0.5770446978790856 0.0 0.7136838973849501 0.0 0.0 0.0011656265811716545 0.0 0.04533473235612795 0.3780965804681721 0.0 0.0 0.0 0.20570358624459661 0.0 0.0 0.0 0.0 0.11204972643010416 0.8068733698518834 0.0 0.8281766194684939 0.22157508024650022 0.8675408296577423 0.5868932182084321 0.0 0.0 0.0 1.4761742638605597 0.40954471047705615 0.0 0.0 0.0 0.0 0.0 0.0 0.8603977824388479 0.0 0.0 0.019381818934778416 0.6651479192376659
346 0.0 0.0 0.3661829617310091 0.0 0.0 0.0 0.0 0.0 0.0 0.0 0.0 0.0 0.0 0.0 0.0 0.0 0.6517405342578859 0.0 0.0 0.0 0.0 0.21459533238659537 0.0 2.007942788405422 0.8158935348779738 0.16231841462145663 0.0 0.0 0.13340637478817255 0.1045579534770367 0.8741181566459312 0.0 0.0 0.0 0.10527804972377451 0.0 1.7246743666133568 0.6220596874685537 0.0 0.0 0.0 0.0 0.0 0.0 0.15279686625111447 0.0 0.9797323543610766 0.0 0.0 1.3691023109726088 0.0 0.0 0.0 0.34645136009541916 0.32490884964158184 0.0 0.16609320322017287 0.0 0.0 0.0 0.0 0.0 0.0 1.8785734695712581 0.0 0.28657401011757383 0.995199220259388 0.3127994902699452 0.0 0.9581924056446182 0.0 0.0 0.23191369280719493 0.0 0.0 1.110045419505126 0.0 0.0 0.41718396613337416 0.0 0.0 0.0 0.0 0.0 0.5182255998669291 0.0 0.0 0.0 0.0 0.0 0.0 0.0 0.0 0.0 0.0 0.0 0.0 0.0 0.0 0.0 0.23192016616528469 0.9998105471042863 0.0 0.0 0.0 0.0 0.0 0.0 0.06474385572576896 0.0 0.32793714282555214 0.0 0.0 0.0 0.0 0.0 0.24806164728820987 0.0 0.20520984828787128 0.0 0.0 0.0 0.46962119197581637 0.18721619806496884 0.0 0.04415319880977731 0.0 0.0
347 0.0 0.0 0.0 1.2793077850176255 0.0 0.0 1.355664380342598 0.0 0.8950393292096188 0.4154814288175526 0.0 0.0 0.0 0.8585965206994904 0.0 0.0 0.0 0.0 1.1161224001793992 0.0 0.0 0.0 0.42061286345297494 0.0 0.0 0.0 0.0 0.0 0.0 0.0 0.09596591630993463 0.0 0.0 0.0 0.0 0.0 0.8634449310415361 0.09045953855767923 0.5786451969271094 0.0 0.0 0.0 1.5261592838552887 0.3786222608279289 0.25309252847212804 0.0 0.0 0.09492410779278893 0.01616526035251475 0.0 0.0 1.4408473284862438 0.0 0.0 0.0 0.0 0.0 0.0 0.0 0.44169722799595684 0.0 0.0 0.6576279953761035 0.0 0.0 0.0 0.0 0.0 0.0 0.021873180134409118 0.0 0.15246271213295026 0.0527688804324864 1.2286256034704195 0.0 0.0 0.0 0.0 0.0 0.0 0.0 0.19900828548587965 0.0 0.4747711330227868 0.0 0.0 0.0 0.0 0.0 0.0 0.0 0.0 0.0 0.17683046983911938 0.0 0.41423437858362694 0.0 0.0 0.0 0.0 0.12245025687756955 0.6418810246596263 0.0 0.0 0.9814442013455151 0.20795302801037283 1.0460776663205542 0.30049821556962597 0.0 0.0 0.47017900719845046 0.09037624176221727 0.3408642119495351 0.0 0.0 0.0 0.0 0.0 0.0 0.0 0.0 0.0 0.0 0.0 0.365198434992566 0.0 0.0 0.4754826919993097
340 0.23570723012320235 0.3903153068866493 0.0 0.18679264808022186 0.5006006020503764 0.0 0.0 0.17066365827240226 0.0 0.0 0.0 0.04369730456733795 0.0 0.0 0.0 0.0 0.0 0.0 0.0 0.0 0.0 0.0 0.0 0.0 0.0 0.9443567444139438 0.0 0.4474898079032277 0.0 0.0 0.0 1.1295078045900457 0.010542173523549477 1.0787469222208934 0.0 0.0 0.0 0.6243437921986883 0.43386686114265616 0.0 0.0 0.0 0.6551892812486769 0.6593705162221901 0.0 0.0 0.0 0.3838711280732181 0.0 0.0 1.3587118707397776 0.0 0.0 0.0 0.0 1.6426470606722208 0.0 0.0 0.13965639023111084 0.0 0.0 0.0 0.0 0.0 0.34382042898991766 0.0 0.0 0.0 0.0 0.0 0.0 0.0 0.3105466369436146 0.0 0.0 0.0 0.39297850359629705 0.37908871361652907 0.0 0.09065585346091252 0.0 0.0 0.0 0.0 0.0 0.0972978773410104 0.16563194965542757 0.0 0.0 0.12862225744051223 0.0 0.0 0.5314992827062295 0.19020419181885434 0.0 0.0 0.41178005260979017 0.0 0.3184341160485558 0.0 0.0 0.0 0.0 0.0 0.0 0.0 0.0 0.0 0.16646318553056827 0.0 0.0 0.0 0.0 0.0 0.0 0.0 0.0 0.0 0.11775304302239992 0.0 0.10262392596762032 0.0 0.0 0.904843954542535 0.0 0.0 0.0 0.0
341 0.0 0.0 0.0 1.2252764352492902 0.0 0.0 0.0 0.0 0.12889962626508608 0.0 0.0 0.5977156203604599 0.0010639579371270738 0.0 0.0 0.0 0.0 0.0 0.0 0.4831892425745826 0.1170661815181667 0.0 0.0 0.0 0.15739015142879062 1.1545851604029609 1.0546785204741969 1.4291120624544174 0.0 0.0 0.0 0.0 0.0 0.0 0.0 0.0 0.0 0.0 0.0 0.0 0.0 0.0 0.0 0.9948248552364537 0.0 0.0 0.0 0.7625953399656964 0.05324994887588673 0.9071347696374413 1.0486489637888448 0.2314426340980115 0.0 0.1024262499321341 0.19339251991930484 0.8224232290108976 0.0 0.4119998832176603 0.0 0.0 0.0 0.0 0.0 0.2678036030193127 0.0 0.5114154279577615 0.0 0.0 0.5346877369677578 0.08670695671397659 0.0 1.3983576766708703 0.0 0.0 0.6576685587321872 0.9697028567852163 0.0 0.05570048589617764 0.0 0.0 0.0 0.0 0.7219105879800847 0.0 0.0 0.5831017614427344 0.0 0.0 0.0 0.0 0.0 0.0 0.0 0.7737909871453834 0.0 0.0 0.0 0.30193919189083307 0.0 0.0 0.0 0.0 0.0 0.05876813870241924 0.0 0.0 0.0 0.0 0.0 0.0 0.210683493451716 0.0 0.0 0.0 0.0 0.08372190172911527 0.0 0.0 0.15213032907975668 0.07810220613343107 0.25669381063274804 0.0 1.256894458096913 0.35066651252869774 0.6931950906277002 0.0 2.2932392272150124 0.0
342 0.0 0.0 0.3174838156540002 0.0 0.0 0.0 0.0 0.0 0.40857845147367694 0.6239409928090441 0.21913666904535403 0.0 0.0 0.0 0.4877638083280497 0.39787705403746115 0.0 0.0 0.0 0.0 0.20813393262955165 0.0 0.0 0.0 0.0 0.0 0.0 0.0 0.0 0.0 0.0 0.4006669457575188 0.0 0.0 0.0 0.05815327490998584 0.0 0.0 0.0 0.0 0.0 0.0 0.0 0.0 0.2536647874669228 0.08890572990910352 0.0 0.0 0.03294797455440647 0.0 1.1349437478696482 0.0 0.0 0.0 0.0 0.039575697742686385 0.0005211428256425401 0.0 0.0 0.0 0.0 0.0 1.4216786814012514 0.0 0.0 0.6498401058464393 0.8435457957047646 0.0 0.0 0.0 0.0 2.197167722319944 0.0 0.4219217893143171 0.0 0.8272918449592681 0.8972922708213584 0.0 0.0 0.0 0.0 0.0 0.0 0.0 0.0 0.4386103795548445 0.0865177439179207 0.345125716194922 0.016937123035422753 0.0 0.975059735772928 0.0 0.0 0.7202616095563821 0.08252752239399098 0.0 0.0 0.0 0.1456531961912454 0.0 0.0 0.0 0.0 0.0 0.0 0.0 0.0 0.0 0.0 0.0 0.0 0.0 0.0 0.0 0.060999188374531804 0.0 0.0 2.1343904189580494 0.20980990159270582 0.0 0.0 0.0 0.0 0.0 0.0 0.5710129937812912 0.4350139324479638 0.0
343 0.0 0.0 0.0 0.7585265370367544 0.0 0.0 0.0 0.0 0.0 0.03489212764208301 0.0 0.3031441636344338 0.0 0.2006304469937101 0.0 0.0 0.0 0.0 0.0 0.0 0.0 0.3279811460034256 0.0 0.0 0.0 0.830879190571605 0.0 0.058201980563963036 0.0 0.0 0.0 0.10839596344494608 0.0 0.0 0.0 0.0 0.2796416357804405 0.0 0.7189519424538228 0.0 1.86945188411877 0.0 0.0 0.34605567375459795 0.0 0.4566771207455082 0.0 1.3217245458154017 0.0 0.0 0.0 0.0 0.5602759770047531 0.07827408419225956 0.0 0.0 0.8082001627265383 0.7830037543691193 0.8381596939384749 0.05868431357769514 0.0 0.0 0.0 0.0 0.0 0.7941933172756834 0.0 0.0 0.0 0.0 0.0 0.0 0.0 0.0 0.48955801918217373 0.97275152030022 0.2483105589351839 1.3495214567527183 0.0 0.0 0.0 0.0 0.0 0.6788072652766182 0.0 0.0 0.32610491847789375 0.10168189613671888 0.05420578366004353 0.0 0.0 0.0 0.0 0.0 0.0 0.0 0.0 0.0 0.3933463843707486 0.0 0.0 1.0441493106188175 0.0 0.44640802733012336 0.0 0.0 0.0 0.0 0.0 0.0 0.0 0.0 0.0 0.0 0.0 0.0 0.0 0.0 0.0 0.008290195149011914 0.0 0.0 0.5159256834174898 0.8282176777060567 0.0 0.0 0.0 0.0
348 0.0 0.0 0.0 0.4509125528850979 0.0 0.0 0.0 0.0 0.609632391324622 0.0 0.0 0.0 0.0 0.235062880095745 0.0 0.0 0.0 0.0 0.0 0.38231970280102 0.0 0.0 0.0 0.0 0.9457747854967449 0.0 0.0 0.2381283708900525 0.0 0.0 0.45738666949150236 0.2938279402634401 0.0 0.6551909157452225 0.0 0.011171956896947994 0.0 0.846577597152471 0.0 0.20780069312457644 0.0 0.0 0.0 0.0 0.0 0.0 0.03993575017629346 1.674835098799971 0.0 0.0 0.0 0.0 0.0 0.0 0.0 0.3246741734566598 0.0 0.0 0.03251890888122103 0.00673650552535355 0.0 0.0 0.0 0.0 0.0 0.0 0.0 0.0 0.0 0.0 0.0 0.0 0.0 0.0 0.0 0.0 0.0 0.1646747656291488 0.36720625656382877 0.0 0.0 0.6019741914909988 0.0 0.0 0.6567955829588983 0.9936234244377821 0.0 0.0 0.0 0.09946174293708081 0.26768898909865924 0.0 0.0 0.3700244319716694 0.17357047746294493 0.0 0.0 1.6362626846038009 0.0 0.0 0.0 0.0 0.0 0.0 0.0 0.0 1.522665140319838 0.0 0.0 0.2625577753951214 0.0 0.0 0.0 0.0 0.0 0.0 0.0 0.0 0.0 0.16671819439719093 0.0 0.0 0.0 0.0 0.0 0.0 0.0 0.0
349 0.0 0.0 0.0 0.40160754329341447 0.15950576522025542 0.0 0.0 0.0 0.0 0.0 0.0 0.0 0.0 0.0 0.471226053422519 0.0 0.0 0.3844508442186462 0.7022697975386972 0.34506169779126017 0.0 0.0 0.0 0.0 0.0 0.0 0.0 0.0 0.9006189085681807 0.797520901324243 0.16669560805494557 0.0 0.06383490986667066 0.0 0.0988451429321553 0.0 0.0 0.0 0.0 0.0 0.2064532960718822 0.0 0.0 0.0 0.0 0.0 0.0 0.0 0.0 0.0 0.0 0.0 0.0 0.1707992149178353 0.0 0.0 0.0 0.0 0.0 1.4863003567225697 0.0 1.137034669885366 0.11064423588956375 0.0 0.0 0.0 0.0 0.0 0.0 0.1112067488326857 0.0 1.1645568747617787 0.0 0.0 0.0 0.4329761406368013 0.0 0.0 0.0 0.0 0.0 0.0 0.5199206012270036 0.0 0.0 0.0 0.0 0.0 0.0 0.0 0.3489497104224562 0.0 0.0 0.0 0.0 0.0 0.6502402410617145 0.0 0.4058959835401675 0.0 0.0 0.0 0.0 0.0 0.0 0.0 0.5282576826873173 0.0 0.0 2.1862307692803604 0.0 0.0 0.0 0.0 0.0 0.0 0.0 0.0 0.0 0.0 0.26341271860344323 0.0 0.17246319670792265 0.08156910044603145 0.0 0.0 0.0 0.0
594 0.0 0.0 0.0 0.0 0.0 0.0 0.0 1.1462088215431852 0.44040063875355195 0.0 0.5587611987519506 0.0 0.597777632165108 0.2074183359526534 1.613299435951917 0.1001664272611509 0.0 1.6574434133661637 0.0 0.0 0.0 0.0 0.0 0.0 0.41952424873905225 0.0 0.0 0.0 1.1400068090618354 0.3328475409813044 0.0 0.0 0.0 0.0 0.0 0.0 0.0 0.0 0.0 0.010052745105247306 0.0 0.018334783022338423 0.0 0.0 0.0 0.0 0.0 0.0 0.00020284648037134818 0.0 0.0 0.0 0.0 0.2805440800660754 0.20083140556363768 0.0 0.3335674650094281 0.0 0.0 0.0 0.0 0.0 0.0 0.8570452442250065 0.0 0.479048646276169 0.0 0.0 0.16520938220108392 0.0 0.0 0.0 0.0 0.0 0.0 0.0 0.0 0.0 0.6834546775088736 0.0 0.0 0.438952875542259 0.0 0.48540461775263977 0.0 0.0 0.0 0.0 0.0 0.0 0.0 0.0 0.0 0.0 0.0 0.0 0.09839687389068469 0.0 0.0 0.0 0.0 0.0 0.0 0.0 0.0 0.0 0.0 0.0 0.0 0.0 0.1904753753540293 0.3016006304629121 0.0 0.0 0.0 1.3070393022751143 0.0 0.0 0.0 0.0 0.0 0.0 0.0 0.6071250055656694 0.4967975919929323 0.1718945329862876 0.0 0.0
2318 0.3333417151584533 0.6102013162982696 0.0 0.0 0.0 0.700077359754962 0.3031772173619297 0.0 0.0 1.2463660363216074 0.0 0.0 0.0 0.02576495329912755 0.24132258862381892 0.0 0.0 0.0 0.0 0.0 0.0 0.42835119977753316 0.0 0.0 0.36000823308992363 0.0 0.0 0.0 0.0 0.0 0.0 0.0 0.8594108816574378 0.0 0.0 0.0 0.0 0.0 0.0 0.0 0.0 1.3879101342790543 1.2745472410082987 0.0 0.0 0.0 0.0 0.24757324631740274 0.0 0.0 0.0 0.0 0.0 0.0 0.0 0.0 0.0 0.0 0.0 0.0 0.0 0.20406706912708564 0.0 0.0 0.0 0.06272777707185474 0.0 0.0 0.0 0.9309192336985818 0.0 0.0 0.36281389592426994 0.0 0.0 0.6778051104805881 0.7621692118755292 0.0 0.0 0.0 0.0 0.0 0.9547229456073794 1.9348951660746576 0.0 0.08745827832451414 0.0 0.04154902106301135 0.4537444341913872 0.0 0.5006048396476981 0.5927613002507512 0.0 0.2032052136184529 0.4559432456851809 0.0 0.0 0.0 0.0 0.9408371286426446 0.0 0.0 0.0 0.0 0.6668304314574712 0.7741483833492193 0.553503744307527 0.0 0.0 0.0 0.0 0.0 0.0 0.5423633913974105 0.0 0.0 0.0 1.6360703225746551 0.0 0.0 0.0 0.17311095838421556 0.0 0.29355452887176425 0.0 0.0 0.2604670599848809 0.0
2319 0.0 0.0 0.26273835507218446 0.2849112133213225 0.0 0.0 0.27190009664646037 0.0 0.0 0.0 0.0 0.0 0.49602767446249557 0.0 0.28117004500421283 0.0 0.0 0.0 0.0 0.0 0.0623047134482551 0.11372922817841345 0.0 0.5977050503510632 0.11745182599339249 0.0 0.0 0.0 0.7381340420871831 0.0 0.0 0.8817273989675702 0.0 0.0 0.0 0.05116994922686327 0.0 0.0 0.0 0.0 0.0 0.0 0.0 0.0 0.0 0.0 0.054556573351115044 0.0 0.0 0.44980284600642056 0.0 0.0 0.0 0.0 0.0 0.0 0.0 0.0 0.0 0.5175222343500658 0.0 0.0 0.11456470909228181 0.0 0.0 0.9386775358687874 0.6452811587945124 0.0 0.025942668062774177 0.2241851538583321 0.0 0.0 0.0 0.0 0.0 0.19037896151955577 0.0 0.0 0.0 0.27741412918109704 0.0 0.9918393937987029 0.0 0.0 0.06266291608164454 0.0 0.10219509165751853 0.0 0.0 0.0 0.0 0.0 0.0 0.0 0.009699192188930852 0.0 0.0 0.8365451502735292 0.0 0.0 0.559209975594929 0.0 0.0 0.0 0.0 0.0 0.0 0.0 0.0 0.0 0.0 0.03324247585178269 1.0691308020424464 0.0 0.0 0.0 0.49980266668111945 0.0 0.0 1.1214834250550125 0.0 0.0 0.0 0.8402468262609576 0.0 0.0 0.0 0.0
2316 0.0 0.0 0.0 0.0 0.4488856272221196 0.0 0.0 0.4436426649929041 0.0 0.0 0.0 0.25883843533527323 0.0 0.0 0.0 0.0 0.0 0.0 0.0 0.0 0.0 0.0 0.0 0.0 0.734220879346197 0.6785690161825559 0.0 0.0 0.0 0.0 0.0 0.7430862528584072 0.029393854503843058 0.0 0.0 0.0397275529468194 0.0 0.0 0.0 0.0 0.31071484718783265 0.2554028144437879 0.31353994226942317 0.0 0.0 0.0 0.0 0.44807433046552936 1.6505280384413514 0.0 0.03886346494934227 0.0 0.8477330856798598 0.0 0.0 0.0 0.22541533285015056 0.0 0.868682282350234 0.0 0.27004729511407644 0.0 0.0 0.0 0.0 0.0 0.18838716679168357 0.0 0.844165196140243 0.0 0.0 0.0 0.0 0.0 0.0 0.0 0.0 0.0 0.16933996029453893 0.0 0.0 0.0 0.0 0.0 0.0 0.4489944256663736 0.0 0.0 0.011625022374650594 0.0 0.0 0.0 0.0 0.0 0.0 0.13806333216367656 0.0 0.7000643316708974 0.0 0.0 0.015291394926258646 0.46595423170044425 0.0 0.0 0.0 1.0049493937940477 0.008671798654942102 0.5986872985670104 0.11379091825609823 0.0 0.0 0.22303538847061746 0.4674143392007602 0.0 0.3430292291853008 0.21636680843659406 0.0009875008461737982 0.35462163415872855 0.0 0.0 0.0 0.0 0.0 0.0 0.3989562491212829 0.0 0.9193946590169774 0.0
2317 0.0 0.07839789532743635 0.5619507423856709 0.0 0.7284363863829644 0.03076660762267383 0.0 0.0 2.0973857835936323 0.0 0.0 0.0 0.0 0.34675439440237815 0.0 0.8233753174448271 1.1357185970895496 0.7166362193196985 0.0 0.8814690668019054 0.0 0.0 0.0 0.0 0.0 0.7905181526943905 0.1980960827422074 0.0 0.0 0.0 0.0 0.0 0.7777301971206321 0.0 0.5997042007649662 0.0 0.0 0.8029799791027493 0.0 0.2799527531595312 0.0 0.0 0.0 0.0 0.6008882394635543 0.08640193711335249 0.32773707263271934 0.5161615912274486 0.0 0.0 0.0 0.0 0.4558346020712387 0.0 0.0 0.0 0.0 0.2378955324223844 0.1914839004836018 0.0 0.0 0.0 0.0 0.0 0.0 0.0 0.0 0.0 0.0 0.0 0.0 0.6948937131084789 0.0 0.0 0.0 0.0 0.0 0.0 0.5809697911007592 0.2612304206327171 0.0 0.739836760347759 0.0 0.0 0.02200130536704835 0.0 0.23638343049582206 0.0 0.0 0.0 0.1832972244973018 0.0 0.0 0.0 0.0 0.9938417353705046 0.0 0.0 0.0 0.8359215761501991 0.0 0.0 0.0 0.0 0.0 0.0 1.082390711424122 0.0 0.0 0.0 0.0 0.4964960383384241 0.0 0.0 0.0 0.39449383836746915 0.08426710098102776 0.0 0.0 0.8209982635780637 0.0 0.0 0.0 0.46895405767637616 1.502517951754046 0.0 0.0 1.0416987478567126
2314 0.0 0.0 0.7420935679148892 0.4685098624526134 0.0 0.0 0.41499406857455506 0.0 0.0 0.0 0.0 0.0 0.0 0.3671078666990855 0.0 0.0 0.0 0.0 0.0 0.0 0.0 0.0 0.0 0.0 0.0 0.0 0.0 0.0 0.06971693149764173 0.0 0.0 0.9158604616982986 0.0 0.0 0.0 0.0 0.0 0.0 0.4879163971731915 0.0 0.48723810677985535 0.0 0.037695893911019504 0.2587055163250219 0.0 0.2024223536952589 0.0 0.0 0.0 0.33930388920949245 0.0 0.0 0.2816163690615223 0.0 0.0 1.0267131553069566 0.0 0.0 0.0 0.0 0.0 0.0 0.20665353063013756 0.0 0.0 0.048744349325670094 0.0 0.0 0.0 0.0 0.6029863563966225 0.0 1.4803879993221574 0.8798854997415831 0.0 0.0 0.0 0.0 0.0 0.0 0.0 0.10243592511389625 0.0 0.0 0.0 0.4826123260596478 0.0 0.0 0.0 0.0 0.0 0.0 0.04632191720551956 0.0 0.0 0.0 0.0 0.15813824151958433 0.0 0.0 0.0 0.0 0.0 0.0 0.29807177189833883 0.10892429778355367 0.0 0.0 0.0 0.0 0.0 0.6722801792568385 0.7049964749997634 0.06257600199734849 1.309897387186761 0.08814073438417036 0.0 0.0 0.9036315316768848 0.0 0.0 0.0 0.0 0.0 0.0 0.0 0.0 0.0
2315 0.0 0.5751115741106366 0.0 0.8502467832466322 0.3544635697970862 0.5036563919716055 0.7535408296093404 0.0 0.0 0.0 0.0 0.154666335350543 0.0 0.0 0.0 0.0 0.0 0.0 0.6456230404984032 0.0 0.0 0.0 0.0 0.12791212673127558 1.137207305317541 0.0 0.41434837305387573 0.0 0.0 0.0 0.01675042341108357 0.0 0.0 0.0 0.0 0.0 0.0 0.0 0.0 0.0 0.0 0.0 0.0 0.0 0.0 0.0 0.0 0.0 0.30202331386841685 0.0 0.0 2.1860010901931854 0.0 0.014949684954082002 0.0 0.0 1.008076571315712 0.32531691184639444 0.0 0.0 0.9613523113423839 0.0 0.0 0.0 0.0 0.0 0.0 0.0 0.0 0.0 0.16669844683747748 0.13334377100973457 0.0 1.4296246273985556 0.0 0.0 0.0 0.591058740866322 0.0 0.0 1.564959034713595 0.32857819240799624 0.0 0.0 0.0 0.18403768089454026 0.0 0.0 0.35484357682972506 0.19137311368565735 0.0 0.0 0.0 0.0 0.0 0.8251123291847676 0.2578108093369787 0.0 0.0 0.4486113386532929 0.0 0.0 0.0 0.0 1.1094549197991757 0.016961641273425438 0.8340572406719111 1.4371422061034582 0.08680799937706545 0.0 0.0 0.0 0.0 0.0 0.0 0.0 0.0 0.0 0.0 0.0 0.0 0.0 0.0 0.0 0.0 0.0 0.0 0.34497654842178904
2312 0.0 0.0 0.10900121771575372 0.23441792177209833 0.7662078059621509 1.2163822947662497 0.0 0.0 0.0 0.0 0.0 0.0 0.09137014274385231 0.3943352860787373 0.0 0.0 0.33535822050054664 0.0 0.0 0.0 0.13084259884320826 0.0 1.0425839671750416 0.0 0.0 0.0 1.988538830879953 1.1994251632744215 0.8274890486253024 0.156488040292927 0.0 0.0 0.5203950216144189 0.15293847588920487 0.2567873363346649 0.0 0.0 0.004735002539857066 0.0 0.0 0.0 0.0 0.0 0.0 0.3932567928997726 0.26625622244104896 0.526426804084643 0.9764408338452516 0.0 0.0 0.0 0.0 0.1637765262389673 0.0 0.1106720190125689 0.0 0.0 0.8819589785941159 0.1413825944319929 0.0 0.0 0.1864195073507537 0.0345122936191089 0.0 0.0 0.0 0.0 0.0 0.0 0.9512731673584774 0.0 0.0 1.0402511294637162 0.0 0.0 0.19680981894286032 0.0 0.0 0.0 0.22875224148370701 0.7012499234500582 0.0 0.0 0.0 0.008221836865330907 0.48523310412807247 0.0 0.0 0.0 0.0 0.0 0.0 0.11093764709908681 0.5299065215089878 0.0 0.0 0.0 0.5803990321881123 0.2395191399596561 0.0 0.5770290418180045 0.0 0.2698217492404862 0.0 1.3415833600768057 0.0 0.0 0.0 1.5621623258222257 0.34521983895990577 0.0 0.0 0.8649028527682686 0.0 0.0 0.0 0.0 0.0 0.0 0.0 0.0 1.0897579034081544 0.6002706475614861 0.0 0.0 0.0 0.0 0.4092830902458562
2313 0.3816752249891347 0.0 0.0 0.20048204926525687 0.0 0.0 0.0 0.029765105440320967 0.0 0.0 0.0 0.0 0.0 0.0 0.0 0.0 0.0 0.0 0.0 0.0 0.0 0.0 0.0 0.0 0.0 0.04972832039407498 0.0 0.8240054914623276 0.0 0.0 0.0 0.0 0.0 0.0 0.0 0.0 0.0 0.35168320931178804 0.0 0.0 0.0 0.0 0.0680258744393771 0.0 0.0 0.0 0.0 0.05891649982004621 0.0 0.0 0.0 0.0 0.0 0.0 0.0 0.0 0.0 0.0 0.0 0.0 0.0 0.0 0.32374094676262505 0.11020747484954074 0.0 0.0 0.0 0.0 0.0 0.0 0.012552582151184141 0.0 0.0 0.0 0.0 0.0 0.0 0.0 0.0 0.006852080623548111 0.0 0.0 0.5067739560866846 0.17315249379262687 0.24258678620554078 0.7086529660463833 0.0 0.0 0.0 0.5427266861428595 2.12762100705091 1.2393517141871817 0.33369632118130593 0.05217110292518824 0.0 0.0 0.0 0.0 0.0 0.6175531081730521 0.0 0.0 0.0 0.0011105118494529106 0.0 0.0 0.0 0.8571251910080918 0.8307343683033814 0.0 0.0 0.5816248123129818 0.0 0.0 0.7923538526528482 0.0 0.0 0.0 0.0 0.6234279884160104 0.024715982848236857 0.0 0.0 0.0 0.0 0.0 0.0 0.30877728836208107
2310 0.0 0.0 0.0 0.0 0.0 0.0 0.0 0.766458972818801 0.0 0.0 0.0 0.0 0.0 0.0 0.0 0.0 0.4667170070800038 0.0 0.07456466685286048 1.163750540178096 0.0 0.0 0.7041786350839072 0.0 0.0 0.0 0.0 0.0 0.0 0.08442816474916308 0.0 0.0 0.0 0.0 0.0 0.0 0.0 0.0 0.0 0.7109608546973349 1.0175593367433133 0.0 0.0 0.0014612517359069502 0.0 0.20971488619175419 0.15936096267655714 0.4302548106435988 0.3653544105252135 0.0 0.18948407789276714 0.0 0.21443453878003446 0.0 0.21535492819142665 0.0 0.0 0.5719138449138405 0.0 0.14849521683189384 0.17756480185779913 0.0 0.0 0.0 0.0 0.0 0.0 0.5039734205451668 0.0 0.5567229113627707 0.0 0.11055906140796651 0.0 0.08435286715735078 0.0 0.0 0.0 0.0 0.0 1.5275582463997257 1.0466457041389192 0.2967294363959351 0.0 0.1525576572946596 0.0 0.0 0.0 0.16223921225419727 0.27347968387499366 0.0 1.3075039800594324 0.0 0.0 0.0 0.1593395210033607 0.5793400566672083 0.0 0.0 0.0 0.9861648736543634 0.0 0.0 0.0 0.2815571007233237 0.7634020952319107 0.0 0.0 0.0 0.0 0.0 0.0 0.0 0.0 0.0 0.875827173233868 0.0 0.0 0.0 0.0 0.0 0.0 0.0 1.7796228451559304 0.07726618156938972 0.0 0.0 0.0 0.1264003928397639
2311 0.0 0.0 0.0 0.0 0.0 0.8882787273135406 0.0 0.0 0.0 0.0 0.0 0.0 0.0 0.0 0.0 0.053204110782294374 0.27360143407064674 0.327908770698924 0.3099349003572561 0.05712034116264518 0.0 0.11985343157963936 1.0330208214191265 0.0 0.0 0.9732588796058522 0.0 0.0 0.0 0.0 0.0 0.0 0.06166249042728404 0.27003334277317276 0.0 1.1525043779955835 0.0 0.0 1.6797233211496856 0.0 1.3217037530034705 0.0 0.4952594273111014 0.0 0.635975685027029 0.0 0.24801364379658403 0.0 0.09097302977546394 0.0 0.25586837208417473 0.0 0.0 0.0 0.3074379157473628 0.0 0.0 0.0 0.0 0.0 0.0 0.40594158778549955 0.0 0.41661774654900974 0.0 0.0 0.0 0.1156353930042575 0.0 0.0 0.0 0.0 0.0 0.12135152340130646 0.12816234789131414 0.0 0.0 0.40060446807324324 0.0 0.9894584116741222 0.46228157752313875 0.0 0.0 0.0 0.0 0.0 0.0 0.6644402710394849 0.0 0.294555996757319 0.0 0.0 0.0 0.0 0.0 0.0 0.16698171386295374 0.0 0.0 0.07421755778779202 0.054573185743601337 0.0 0.0 0.0 0.0 0.0 0.0 0.31788402382169845 0.0 0.0 0.0 0.0 0.0 0.0 0.0 0.0 0.8254681256014598 0.0 0.13587815654522914 0.0 0.0 0.0 0.0 0.0 0.1448995938397268 0.0 0.08775006350399975 0.13320277856259857
298 0.27572247880374917 0.0 0.0 0.1711727754417995 1.358742654359059 0.0 0.5594170535697924 1.1362462193656526 0.0 0.0 0.9945445221890354 0.0 0.0 0.6185768452724524 0.0 0.0 0.4173672477752065 0.0 0.0 0.0 0.25676263108014546 0.0 0.0 0.3401383915835121 0.0 0.0 0.0 0.0 0.0 0.0 0.10032727363712948 0.0 0.0 0.0 0.2717235569274427 0.29259787593670306 0.0 0.2696832703731357 0.14384649931550933 1.3538330857754741 0.3689927707893305 0.0 0.0 0.6205213490396682 0.0 0.0 0.0 0.0 0.0 0.0 0.0 0.0 0.0 0.0 0.0 0.0 0.0 0.0 0.0 0.0 0.0 0.0 0.0 0.0 0.35067197266930195 0.0 0.0 0.0 0.0 0.0 0.2912183748756495 0.0 0.0 0.15639319471073454 0.0 0.0 0.0 0.0 0.0 0.0 0.0 0.3819204285372466 0.0 0.0 0.0 0.0 0.0 0.0 0.0 0.0 0.5884244786196106 0.3790204938688748 0.9449841468495059 0.24921853001274227 0.5541038991086774 0.2807428139859523 0.0 0.0 0.44370535272067174 0.0 0.032753503319595194 0.0 0.46894735913205843 0.0 0.0 0.654046050316139 0.8758683615543861 0.0 0.06817528809998293 1.0663967855467207 0.09289757559041625 0.0 0.0 0.0 0.0 0.9102400651400319 0.1361457938018875 0.0 0.9571798799214928 0.0 0.0 0.0 0.0 0.0 0.0 0.01811719949165794 0.0 0.0
299 0.0 0.6369466049784147 0.0 0.2075883877720758 0.0 0.0 0.17557073044326232 0.0 0.6353877091374079 0.9018724210567588 0.0 0.0 0.0 0.0 0.0 0.0 0.0 0.0 0.0 0.0 0.0 0.32512987985016645 0.0 0.255854284219724 0.0 0.0 0.0 0.5440148201177877 0.0 0.5528192731961619 0.0 0.0 0.0 0.0 0.0 0.0 0.0 0.37192797772700725 0.0 0.29101043698883705 0.0 0.0 0.0 0.0 0.0 0.0 0.4109437487182645 0.0 0.8677514994595245 1.1158244632526004 0.0 0.0 0.0 1.3977332488566763 0.0 0.0 0.6718591552838362 0.0 0.01605635186743981 0.0 0.06131677408182802 0.0 0.0 0.0 0.0 0.0 0.0 0.0 0.0 0.0 0.0 0.0 0.10050100262277577 0.0 0.8215583360508611 0.24700695293672853 0.0 0.0 0.5349186102208002 0.0 0.0 0.056961169871533116 1.3734793470513842 0.21980797332068977 0.0 0.0 0.0 0.4691087996709927 0.0 0.0 0.0 0.0 0.0 0.0 0.0 0.7409554565050506 0.35489959251991354 0.0 0.0 0.0 0.05827732070452579 0.0 0.0 0.0 0.0 0.0 0.08448163901095403 0.0 0.1866414680923472 0.0 0.0 0.3222177737616296 0.0 0.0 0.0 0.0 0.8972914706088766 0.0 0.0 0.0 1.819537497145867 0.5209090273155088 0.0 0.24135126970594292 0.0 0.12456416231208152 0.0 0.0
296 1.022033366555418 0.0 0.4012803390730384 0.0 0.49389127740158906 0.0 0.0 0.0 0.0 0.0 0.0 0.0 0.0 0.0 0.0 0.0 0.0 0.0 0.0 0.0 0.0 0.0 0.7199800349940026 0.0 0.49444882788043765 0.0 0.0 0.0 0.0 0.0 0.0 0.0 0.0 3.2097214373035987 0.11652494484641916 0.0 0.0 0.0 0.0 0.5497128872280157 0.0 0.0 0.9487521698641809 0.10467714521024334 0.0 0.0 0.0 0.13062008119401064 0.0 0.3416372551713892 0.06901856858318545 0.0 0.0 0.5427475813299448 0.6960599998251332 0.0 0.0 0.0 0.0 0.0 0.0 0.0 0.10538396432933299 0.0492393134953212 0.0 0.439786161906855 0.0 0.5646064298545547 0.0 0.0 0.0 0.0 0.03438648716469969 0.0 0.0 0.0 0.0 0.0 0.0 0.0 0.0 0.2000384553266142 0.0 0.0 0.0 0.0 0.0 0.6308689564692916 0.0 0.0 1.150697622900618 0.2033589568876874 0.0 0.0 0.0 0.025470564339011778 0.0 0.10906490445927577 0.0 0.3741080410894264 0.0 0.0 0.0 0.0 0.0 0.0 0.0 0.5321865302543237 0.0 0.0 0.0 0.543456330595792 0.0 0.0 0.0 0.1720087092664618 0.0 0.7734722500469373 0.16155643273844347 0.41815506416771286 0.0 0.0 0.0 0.0 0.0 0.5279919500240807 1.1242826642044232 0.0
297 0.0 0.0 0.21370703489882423 0.0 0.0 0.0 0.0 0.0 0.03695715607940194 0.0 0.0 0.0 0.0 0.2829883220087753 0.0 0.0 0.3783224552080912 0.02198572186724465 0.0 0.0 1.1624120310304933 0.0 0.0 0.0 0.0 0.33090262897441514 0.4023422942997922 0.0 0.0 0.0 0.0 0.18606766322973883 2.4737693150373103 0.0 1.2277297177831472 0.0 0.0 0.0 0.0 0.0 0.0 0.0 0.0 0.06443337301262532 1.0395324045416157 0.0 0.3638327221064896 0.7717252640227341 1.0901051628111198 0.0 0.0 0.0 0.0 0.7725931747982112 0.6656671500956048 0.0 0.332302072694812 0.0 0.7028126477914255 0.0 0.6708668524812348 0.22003906161002781 0.4759331208613072 0.0 0.0 0.0 0.38759804650416513 0.0 0.0 0.7085939939857621 0.0 0.0 0.23149368779992724 0.0 0.48698741752619096 0.0 0.0 0.0 0.4918900766246999 1.0730836997938844 1.7118089771326161 0.617079294337058 0.0 0.0 0.9254803846893017 0.0 0.08088199223790021 0.0 0.0 0.31497385083889445 0.0 0.0 0.0 0.0 0.0 1.0505772750762081 0.0 0.0 0.6996382784778249 0.0 0.0 0.0 0.0 0.0 0.08926319276697295 1.0556097625726193 0.0 0.7371931911513978 0.0 0.0 0.0 0.4668658965541976 0.0 0.0 0.0 0.23769192674977757 0.37602087404801765 0.0 0.0 0.0 0.0 0.0 0.7216882255355986 0.0 0.0 0.0 0.0 0.0
294 0.0 1.2329282622850797 0.0 0.0 0.9420646742355935 0.7429482287448318 0.27662452041417196 0.0 0.0 0.0 0.0 0.0 0.0 0.0 0.0 0.0 0.0 0.9139471535447616 0.0 0.6321792410700452 0.0 0.0 0.6150713526947084 0.0 0.14089909723547353 1.0654952697169273 0.4555412522924528 0.0 0.0 0.0 0.0 0.0 0.23606595677907433 0.0 0.0 1.0783993053701906 0.0 0.0 0.6890955818389418 0.0 0.0 0.0 0.09596733044310271 0.0 0.15137989916573494 0.0 0.4014229867090284 0.0 0.0 0.10620123782060019 0.0 0.0 0.0 0.0 0.0 1.9104285885462018 0.0 0.0 0.0 0.0 1.8009484660806272 0.0 0.5448827345007908 0.0 0.0 0.3525714957572904 0.0 0.0 0.0 0.6572707923661201 0.0 0.07342000794725637 0.15373562766104745 0.6754686076557321 0.0 0.0 0.0 0.0 0.0 0.86470105715465 0.0 0.0 0.0 0.0 0.0 0.10809072528814827 0.4936168006460167 0.7034793535846952 0.0 0.17098322198046312 0.0 0.0 0.21697033705483829 0.0 0.0 0.0 0.0 0.0 0.19159830348741855 0.0 0.0 0.0 0.0 0.0 0.0 0.0 0.0 0.0 0.0 0.0 0.03718518017380679 0.0 0.0 0.2559849282431785 0.34681067320690984 0.0 0.0 0.0 0.17098983222386963 0.0 0.1852761470838448 0.29602721675542915 0.0 0.0 0.3237381395642871 0.0 0.0 0.7594529546369098
295 0.0 0.23272499196338198 0.0 0.0 1.6246484951427518 0.0 0.0 0.0 0.44795150431573244 0.0 0.13761982256140431 0.0 0.3591486829982114 0.09892863480503437 0.31997678187840345 0.0 0.0 0.0 0.0 0.576291850685802 0.0 0.0 0.0 0.0 0.0 0.0 0.0 0.02912250729032657 0.8377262254182449 0.0 0.0 0.0 0.0 1.1806603901288257 0.9390793328562969 0.4708360789010924 0.0 0.0 0.008050881937211572 0.0 0.0 0.0 0.0 0.1769807392735094 0.0 0.0 0.0 0.0 0.0 0.0 0.0 0.0 0.0 0.0 0.0 0.0 0.0 0.05247593993844318 0.0 0.3577033198644649 0.0 0.13148269425082232 0.0 0.0 0.0 0.0 0.0 0.0 0.0 0.0 0.0 0.7559350166048645 1.1711964740041152 0.0 0.0 0.0 0.0 0.0 0.0 0.0 0.0 0.9828665710284751 0.0 0.0 0.0 0.0 0.0 1.244056755571726 0.0 0.0 0.0 0.0 0.0 0.0 0.0 1.4651822707696942 0.0 0.0 0.0 0.5469246155771406 0.0 0.0 0.0 0.0 0.0 0.26155391859345556 0.0 0.0 0.5948636509690349 0.0 0.0 0.23093591897704777 0.0 0.0 0.0 0.0 0.0 0.0 0.0 0.0 0.4836030350495448 0.18447152532997194 0.0 0.11600445081784158 0.4888318748788849 0.0 0.0 0.029823855115246392
292 0.0 0.0 0.0 0.4995964383835167 0.0 0.0 0.0 0.0 0.0 1.6956427602321102 0.0 0.0 0.04400367041186771 0.0 0.0 0.6759112665779058 0.4527328290790428 0.9955238085192922 0.0 0.0 0.0 0.0 0.16533021727075023 0.4121065378605752 0.0 0.941103738548599 0.424073428564871 0.0 0.0 0.0 0.0 0.2024825086164941 0.0 0.0 0.0 0.3864640623471477 0.4211023169870656 0.0 0.4281970224481888 0.0 0.24980653650475526 0.0 0.7823424020185501 0.0 0.0 0.0 0.0 0.0 0.1588820572819804 0.0 0.0 0.13555908599397595 0.0 0.0 0.0 0.6111169464214576 0.0 0.16798828376353508 1.1713664330746212 0.9201422118074835 0.0 0.0 0.0 0.0 0.0 0.0 0.0 0.0 0.0 0.0 0.0 0.5729926545851449 0.0 0.07864658802844245 0.0 0.0 0.0 0.0 0.0 0.0 0.0 0.0 0.0 0.19203003317173736 0.0 0.0 0.0 0.0 0.8264783707173101 0.0 0.0 0.9885121580992442 0.0 0.0 0.4043370667994083 0.0 0.0 0.0 0.2855527253491026 0.6088062164586966 0.0 0.0 0.0 0.0 0.0 0.0 0.0 0.0 0.0 0.0 0.05210473767399883 0.0 0.0 0.0 0.4240412327735567 0.0 0.2580314787313416 0.0 0.0 0.0 0.0 0.18256595174279872 0.0 1.230736241245918 0.0 0.0 0.18504765105562573 0.0
293 0.12258832955499521 0.0 0.0 0.0 0.0 0.0 0.0 0.6195517680205364 0.0 0.32042393627030213 0.0 0.0 0.2803050821544597 0.0 0.0 0.0 0.0 0.0 1.2520797000777668 0.0 0.15011515256224522 1.8189609064145138 0.0 0.0 0.0 0.04679586636719075 0.0 0.0 0.0 0.0 0.6257831191740174 0.0 0.0 0.0 0.0 0.0 0.0 0.0 0.3329407503105929 0.0 0.21983851550577874 0.08653754861289016 0.31440487424504077 0.0 0.0 0.0 0.0 0.0 0.0 0.2925231374474198 0.035245970457957077 0.8880219332592715 0.5586388649264145 0.2724387206091058 0.0 0.0 0.0 0.0 0.0 0.21752145561740852 0.0 0.0 0.15033358413862263 0.0 0.0 0.5325502542108078 0.40677924318637687 0.008298853063268045 0.0 0.6300157745378923 0.0 0.0 0.0 0.04386016383015243 0.04734347546872885 0.0 0.0 0.0 0.4058975089906568 0.0 0.0 0.0 0.0 0.0 0.0 0.0 0.0 0.0 0.0 0.0 0.0 0.0 0.0 0.0 0.0 0.10996080286988058 0.0 0.07269458870321811 0.0 0.0 0.0 0.0 0.0 0.9071283134212746 0.0 0.0 0.46519191560208983 0.0 0.39418802072207315 0.0 0.0 0.0 0.0 0.0 0.0 0.24637472224585327 0.36108305728611445 0.0 0.6578935180442532 0.0 0.0 0.0 0.0 0.0 0.20648850431770127 0.0 0.36150698852904894 1.651152278237523
290 0.19570361158435212 0.0 0.0 1.7511335583323329 0.8909513007241132 0.240039954066504 0.0 0.0 0.0 0.0 0.0 0.0 0.0 0.0 0.0 0.2863446367643779 0.0 0.09997367295547778 0.0 0.0 0.0 0.0 0.0 0.0 0.4763721675298756 0.040899986652847345 0.0 0.13187057248529843 0.0 0.0 0.0 0.0 0.2370380520385336 0.0 0.09676895232586265 0.0 0.0 0.0 0.0 1.3598989382858833 0.0 0.0 0.159602061083211 0.9188971420098182 0.0 0.0 0.48885490100921675 0.0 0.0 0.0 0.0 0.0 0.0 0.0 0.0 0.0 1.034674241087549 0.0 0.0 0.0 0.5509054370585027 0.15161348200403824 0.0 0.0 0.0 0.0 0.0 0.4200020911396104 0.26126314871950007 0.15876810479267506 0.9694859737943008 0.0 0.0 0.0 0.2146386116643976 0.5094367552319303 0.0 0.0 1.0186533704263654 0.0 0.0 0.0 0.0 0.0 0.25346011902448173 0.0 0.0 0.0 0.0 0.7707306186329574 0.0 0.0 0.406172316458354 0.0 0.0 0.0 0.8952960713132379 0.0 0.0 0.0 0.0 0.0 0.0 0.0 0.0 0.0 0.0 0.0 1.062605621424111 0.0 0.0 0.06334390789073908 0.0 0.0 0.28973664772735686 0.0 0.0 0.0 0.0 0.0 0.0 0.35405374756809993 0.0 0.0 0.0 0.0 0.0 0.0
291 0.3478074158971505 0.0 0.0 0.44490038845186847 0.0 0.0 0.3190592811590789 0.765699098354419 0.20008673239696634 0.0 0.0 0.0 0.0 0.861566024782812 0.0 0.0 0.0 0.0 0.0 0.7774414289509 0.8188593411854372 0.0 0.0 0.2222126262017255 0.250525243629224 0.0 0.0 0.0 0.0 0.0 0.0 0.0 0.0 0.0 0.0 0.37960408563558157 0.0 0.0 0.5798869604549832 0.14987925839662458 0.41956493627281155 0.0 0.0 0.0 0.0 0.0 0.6487291511297627 0.0 0.0 0.3918706007434741 0.8708266249512882 0.0 0.4075625762894703 0.5084986018924655 0.0 0.8192304779607215 1.3810576217995056 0.0 0.0 0.0 0.0 0.0 0.1368715937632743 0.0 0.12314709034757118 0.22242667114075854 0.0 0.0 0.0 0.2474154831225902 0.0 0.21284493297317933 0.0 0.0 0.0 0.0 0.0 0.0 0.0 0.0 0.4256603073957679 1.5425562615416526 0.7074215912632598 0.0 0.0 0.0 0.0 0.0 0.0 0.0 0.0 0.0 0.03628535393577583 0.06048758347189372 1.071387014740289 0.0 0.0 0.0 0.30311456967167155 0.0 0.0 0.0 0.0 0.0 0.25206019832961757 0.0 0.0 0.0 0.0 0.0 0.0 0.0 0.0 0.0 0.06580032390765174 0.0 0.0 0.0 0.0 0.0 0.989509449907431 0.0 0.0 0.0 0.0 0.0 0.13233905932485424 0.6273167628354602
270 0.837392675577348 0.0 0.0 0.3864307601787818 0.0 0.0 0.0 0.3269322583168364 0.0 0.0 0.0 0.0 0.0 0.0 0.0 0.0 0.0 0.0 0.38079590693931026 0.0 0.0 0.0 0.03213396312253325 0.0 0.37539382212478556 0.17451535451559458 0.0 0.45758481423040337 0.0 0.0 1.5460127900168872 0.2694012878466941 0.008404154245022999 0.0 1.9695594701151422 0.06643134348521391 0.0 0.6427516328169651 0.10085087736602005 0.0 0.0 0.0 0.0 0.0 1.2127711347590497 0.0 0.1515939807525935 0.0 0.0 0.0 0.0 0.21245207450263703 0.0 0.0 0.0 0.31461293666326157 0.0 0.0 0.0 0.0 0.0 0.0 1.1864823962697775 0.0 0.0 0.0 0.0 0.0 0.0 0.0 0.0 0.0 0.0 0.32425385753797986 0.0 0.03616461371202919 1.2727788261430137 0.0 0.0 0.2942007881513596 0.0 0.0 0.0 0.0 0.0 0.6930515796225236 0.0 0.0 0.0 0.0 0.9680648976250712 0.0 0.4270427898952729 0.051922692183113836 0.03964804610346305 0.0 0.0 0.0 0.9844355646014147 0.3637429852616764 0.0 0.056217055120687365 0.0 1.4300811660603079 0.0 0.0 0.2671438732417089 0.0 0.0 0.0 0.3014330570302315 0.0 0.0 0.0 0.0 0.0 0.0 0.0 0.0 0.02094748073504251 0.0 0.0 0.450377115477482 0.24609187810687796 0.0 0.5011791189710563 0.0 0.0
271 0.7771658981692665 0.7006841015077887 0.8396171532361776 0.0 0.0 0.0 0.0 0.0 0.04021625500838592 0.10568945846028055 0.27010825308290365 0.0 0.0 0.7414220953816378 0.0 0.0 0.0 0.6405299362913295 0.0 0.0 0.12041081923867752 0.0 0.0 0.0 0.0 0.0 0.0 1.1201115751648134 0.0 1.1282986211377044 0.0 0.0 0.0 0.04469387407554186 0.0 0.31184376906996825 0.0 0.0 0.0 0.34487449215831295 0.0 0.028530330132175954 0.0 0.19053756560110544 0.0 0.0 0.27389655277002656 0.0 0.0 0.0 0.0 0.0 0.0 0.0 0.0 0.17053461149216903 0.0 0.08606370079305141 0.31169408540244614 0.11301709351360086 0.06349189413819352 0.0 0.0 0.0 0.0 0.34299415151531454 0.0 0.0 0.0037262580186226135 0.0 0.0 0.0 0.14025920229594674 0.0 0.0 0.0 0.0 0.0 0.0 0.0 0.22339317727164748 0.0 0.0 0.0 0.5057245800310156 0.11010954705145623 0.0 0.0 0.0 0.0 0.07756661418957335 0.0 0.7811968182263849 0.0 0.5507608365007839 1.1069205042870667 0.3074426085623121 0.0 0.0 0.0 0.0 0.0 0.0 0.0 0.0 0.4725798315515791 0.0 0.0 0.0 0.0 0.5206209811140665 0.0 0.0 0.6218489904759482 0.0 0.0 0.36419903270776033 0.0 0.9384629460778937 0.0 0.0 0.0 0.0 0.7454858240009438 0.0 0.0 0.0 0.0
272 0.2806040035068336 1.6425818326561292 0.12426759454212098 0.0 0.8565390043946582 0.0 0.5121507455692068 0.0 0.0 0.0 0.0 0.0 0.0 0.16141954340733825 0.0 0.0 0.06525058583446613 0.0 0.0 0.0 0.012136864742821388 0.10910821000770028 0.0 0.0 0.9913432991305383 0.7990891977858894 0.0 0.44640604316238436 0.0 0.0 0.0 0.0 0.49535694558260984 0.0 0.0 0.0 0.17826530524218087 0.0 0.6296279109911909 0.0 0.0 0.0 0.0 0.0 0.03069919936969046 0.0 0.0 0.0 0.0 0.0 0.2199959202059872 0.12086639062589226 0.0 0.0 0.0 0.0 1.5619898046810372 0.0 0.6141150103246571 0.0 0.0 0.1456301884030221 0.0 0.0 0.0 0.0 1.33124780814463 0.0 0.0 0.0 0.0 0.0 0.0 0.0 0.0 0.0 0.0 0.0 0.0 0.0 0.0 0.0 0.14745732885545806 0.0 0.0 0.0 0.02294504611424834 0.0 0.0 0.30538041469701954 0.0 0.3445006364477891 0.0 0.0 0.0 0.9349620187272147 0.0 0.7866598767322609 0.0 0.0 0.0 0.0 0.0 0.0 0.4485415211270544 0.5839010196597255 0.008479389644126197 0.0 0.03734946978384295 0.0 0.0 0.0 1.1619918257979058 0.0 0.948070852468323 0.04305802738619791 0.0 0.0 0.0 0.5306201417223683 0.0 0.016657185598871662 0.0 0.0 0.0 0.0 0.0 0.0
273 0.0 0.0 0.0 0.8314100247723395 0.0 0.0 0.0 0.0 0.0 0.5983539464020977 0.0 0.0 0.0 0.7029810111638952 0.0 0.0 0.39588372261499377 0.0 0.0 0.06024278794528334 0.0 0.0 0.0 0.0 0.0 0.0 0.7640384634000316 0.0 0.0 0.0 0.0 0.0 0.0 0.619117554052146 0.12784497670911224 0.0 0.0 0.0 0.0 0.0 0.0 0.0 0.0 0.0 0.12026828953508849 0.0 0.0 0.20612856724848097 0.10729591335993413 0.0 0.0 0.0 0.0 0.0 0.0 0.0 0.6736755584640827 0.17060960284338944 0.25405062976443266 0.0 0.0 0.0 0.0 0.1498655005922261 0.4731807133104375 0.0 0.7045435408369904 0.0 0.5013444323848957 0.1328266443012122 0.38935147765236894 0.2513203964963474 0.0 0.0 0.24246716194935275 0.0 0.0 0.0 0.10312479314935297 0.0 0.18468141673856378 0.0 0.0 0.0 0.0 0.0 0.2507068765687449 0.0 0.0 0.0 0.0 0.6048654551561623 0.0 2.090970466420213 0.0 0.0 0.0 0.5368384305427115 0.0 0.0 0.0 0.0 0.06327354715929376 0.0 0.4782939237362377 0.0 0.44847437426232545 0.0 0.0 0.0 0.0 0.16535056309723326 0.0 0.6440952997984908 0.21745163409449486 0.0 0.0 1.0570931929785368 0.0 0.23273729677218954 0.0 0.0 1.2252998982103886 0.0 0.0 0.17446920252373746 0.0 0.0
274 0.0 0.0 0.0 0.0 0.0 0.0 0.07483898917016188 0.0 0.0 0.1922209082088255 0.0 0.3944913262542007 0.0 0.0 0.0 0.33744210850982365 0.0 0.0 0.0 0.0 0.0 0.0 0.3195330201260961 0.0 0.0 0.0 0.0 0.0 0.009681840524474024 0.3467458576068882 0.0 0.17497813379772428 0.0 0.3128893013817347 0.4187707985681983 0.0 0.0 0.0 0.0 0.626649582870952 0.0 0.0 0.0 0.0 0.03483406857174046 0.31324795186518206 0.5080003356644602 0.0 0.8480748917836657 0.0 0.0 0.0 0.0 0.0 0.0 0.020273127583930534 0.44263471325960496 0.8388240414319881 0.0 0.0 0.0 0.0 0.0 0.0 0.0 0.6529293077857498 0.0 0.6020179880543192 0.0 0.0 0.5139977551581876 0.0 0.0 0.0 0.0 0.2652950301484467 0.0 0.0 0.0 0.0 0.7053973690558073 0.0 0.0 0.0 0.0 0.5661970328773647 0.0 0.2619816879388479 0.0 0.3705635476597445 0.856628918785934 0.08730680954773581 0.0 0.0 0.0 0.4166738931509472 0.0 0.0 0.0 0.0 0.0023628686895127886 0.2610037609308399 0.2234190078473954 0.0 0.0 0.0 0.0 0.0 0.0 0.0 0.0 0.0 0.8811793239916307 0.5466553662861587 0.0 0.0 0.0 0.0 0.0 0.2694167225419237 0.0 0.0 0.0 0.0 1.29836812497149 0.0 0.0 0.0
275 0.0 0.0 0.0 0.31999840009306446 0.0 0.0 1.0150163244905008 0.0 0.3373820979911111 0.0 0.0 0.0 0.973716674776801 1.9363937571189498 0.0 0.0 0.0 0.0 0.0 1.044989925231007 0.0 0.0 0.0 0.0 0.0 0.0 0.3265352266420095 0.0 0.10948315591555455 0.8983809198751144 0.0 0.0 0.0 0.0 0.0 0.20567362615686624 0.0 0.0 0.0 0.3022052613131028 0.6776454089025598 0.0 0.0 0.0 0.16994375584275856 0.0 0.0 0.0 0.0 0.0 0.19565511318819181 0.0 0.0 0.0 0.0 0.0 0.0 0.5834129883095036 0.09344645048920756 0.0 0.6729675095552426 0.0 0.0 0.0 0.0 0.4119371882172445 0.48383958244704073 0.0 0.0 0.0 0.0 0.0 0.0 0.0 0.0 0.0 0.0 0.0 0.0 0.0 0.0 0.0 0.0 0.9283033982441707 0.0 0.0 0.0 0.400836553754528 0.0 0.42279596430012856 0.0 0.0 0.0 0.0 0.0 0.19212386299216738 0.0 0.030951055442697762 0.22225550307304942 1.119004420802954 0.0 0.0732535979504417 0.22469161551285222 1.384165340709155 0.8739059079271057 0.0 0.6925260982823013 0.0 0.0 0.0 0.5154872168523703 0.0 0.0 0.09692272079414394 0.7735105395103138 0.0 0.0 0.576969641419 0.4069775061840374 0.0 0.0 1.4232220624176473 0.713626346704081 0.0 0.0 0.0 0.0 0.0
276 0.5431819759084827 0.0 0.0 0.0 0.0 0.0 0.0 0.0 0.09200506430397351 0.06750530667779099 0.0 0.0 0.0 0.0 0.0 0.0 0.0 1.3419805624949546 0.08621845909421426 0.0 0.0 0.0 0.11009432772367196 0.0 0.0 0.7591150341706105 0.0 0.0 0.718307467197283 0.0 0.0 0.23053814887616852 0.8629206453739627 0.0 0.0 0.0 0.11087719203181637 0.0 0.0 0.3271454136021986 0.0 0.0 0.0 0.7281146082767941 0.0 0.07219959820641778 0.0 0.0 0.0 0.0 0.3532611533262039 0.0 1.1720339543736942 0.17142120474176573 1.0537669659559472 0.0 0.0 1.8592282826190216 0.0 0.0 0.0 0.0 0.0 0.013708495508046438 0.0 0.0 0.0 0.0 0.0 0.8542312049277851 0.0 0.0 0.0 0.0 0.0 0.07615476916961558 0.0 1.6318465731071152 0.0 0.7245502005794245 0.0 0.0 0.0 0.0 0.0 0.0729844566497509 0.8662776229619837 0.005068943118041606 0.0 1.4414529334084696 0.41672936948350203 0.531170896096864 0.0 0.07632909045476576 0.4341004719104167 0.0 0.0 0.0 0.0 0.35390196648340133 0.0 1.5639384328667691 0.0 0.0 0.49564967763182655 0.0 0.0 0.0 0.0 0.0 0.0 0.0 0.0 0.4227320971805105 0.0 0.0 1.2883347353723706 0.0 0.17080227813696724 0.9584225630734287 0.0 0.0 0.04135637487874102 0.20405349281627178 0.0 0.4949487685890393 0.6268281334762533 0.0
277 0.0 0.0 0.4957351518874447 0.3855267290004074 0.0 0.0 0.0 0.6024785946768609 0.0 0.8140874748649889 0.0 0.0 0.0 0.3021267539798958 0.0 0.053552773639533695 0.0 0.0 0.0 0.0 0.11821191536477103 0.0 0.5239157209470139 0.0 0.0 0.0 0.0 0.860784580299776 0.0 0.0 0.0 0.0 1.3016967156838892 0.0 0.0 0.06521048098823758 0.0 0.0 0.0 0.0 0.0 0.0 0.0 0.0 0.0 0.5541234433518597 0.0 0.0 0.0 0.0 0.0 0.0 0.0 0.0 0.0 0.0 0.0 0.0 0.0 0.0072779295285146685 0.0 0.06373325674984752 0.0 0.0 0.0 0.0 0.4124023956852881 0.0 0.6313308518166441 0.0 0.0 0.0 0.0 0.0 0.2888127645029567 0.0 0.0 0.49372352642609296 0.0 0.0 0.07322374029071234 0.43925364439203557 0.0 0.84300266358132 1.7780442815760207 0.0 0.0 0.0 0.4068619588923439 0.0 0.0 0.0 0.09741547317486775 0.0 0.0 0.0 0.0 0.0 0.0 0.0 0.0 0.0 0.0 0.0 0.6025584494989188 0.0 0.0 0.2153652433667639 0.0 0.20370349774010388 0.0 0.0 0.0 0.0 0.0 0.29481708278661456 0.1391189905933453 0.0 0.21622461672731927 0.0786464157650438 0.0 0.0 0.0 0.0 0.0 0.0 0.0 0.0
278 0.0 0.0 0.0 1.1662024450090616 0.6322937420982067 0.0 0.9018307872426637 0.0 0.23998699207800067 0.0 0.0 0.0 0.0 0.0 0.0 0.5182211140314575 0.21966361682139537 0.0 0.0 0.0 0.0 0.0933176075295408 0.0 0.0 0.0 0.10594033339545612 0.0 0.11193329214357509 0.0 0.0 0.0 0.0008799233813801873 0.0 0.0 0.0 0.41545775399991386 0.0 0.0 0.4532115306572075 0.0 0.0 0.0 0.5037627367075812 0.0 0.3364290348074217 0.0 0.0 0.0 0.28334210818710415 0.4166483433874956 0.0 0.0 0.0 0.0 0.0 0.0 0.0 0.8095089139747094 0.0 0.0 0.0 0.0 0.0 0.0 0.0 0.09897869437175198 0.0 0.0 0.0 0.0 0.0 0.0 0.0 0.0 0.0 0.0 0.0 0.0 0.0718957747856021 0.0 0.9751164466220916 0.07010616127095917 0.0 0.0 0.0 0.2125572222403521 0.0 0.0 0.0 0.0 0.0 0.0 0.0 0.0 0.0 0.0 0.48977123914522 0.0 0.1604621459368866 0.0 0.0 0.0 0.0 1.1429576374724735 0.0 0.0 0.0 0.0 0.0 0.0 0.0 0.0 0.0 0.0 0.5277656275813021 0.0 0.6410778812342588 1.0192577519224308 0.010596617369950177 0.0 0.45631736932444483 0.0 0.010203480061039081 0.0 0.0 0.0 0.0 0.0
279 0.0 0.0 0.0 0.038200431615199176 0.4174353813386479 0.0 0.0 0.0 0.0 0.0 0.5450611038605016 0.0 0.0 1.3135414843527524 0.0 0.0 0.7472669701609402 0.0 0.0 0.0 0.0 0.0 0.0 0.0 0.0 0.0 0.0 0.04255813506276706 0.0 0.0 0.1761205880340572 0.0 0.0 0.0 0.0 0.0 0.2851862633922514 0.0 0.0 0.0 0.4673096449945816 0.705993533178407 0.0 0.3066331157095118 0.0 0.0 0.0 0.6304640157866159 0.0 0.0 0.0 0.0 0.0 0.36291141778405045 0.0 0.38337685642680863 0.0 0.0 0.0 0.0 0.0 0.0 0.0 0.0 0.0 0.0 0.0 0.0 0.0 0.22877106979637546 0.0 0.08803342882919965 0.0 0.0 0.0 0.0 0.0 0.0 0.0 0.0 0.0 0.0 0.0 0.0 0.0 0.0 0.0 0.0 0.0 0.0 0.0 0.0 0.0 0.0 0.0 0.669469900883825 0.0 0.0 1.434888686409429 0.0 0.0 0.0 0.0 0.0 0.10808059365019211 0.49986535196133386 0.0 0.0 0.0 0.22049579458441254 0.2282845364744682 0.0 0.0 0.4507650505381141 0.0 0.6729318675152978 0.45880704457296384 0.0 0.0 0.0 0.10143947426882473 0.0 0.0 0.0 0.0 0.0 0.0 0.0
738 0.0 0.0 0.0 0.7776996498649419 0.0 0.0 0.0 0.0 0.0 0.0 0.0 0.0 0.0 0.0 0.7710847748658308 0.0 0.0 0.5638133575481554 0.0 0.583981702190164 0.0 0.0 1.2029111467166174 0.0 0.0 0.0 0.35899891755168417 0.0 0.0 0.2627274760934038 0.0 0.3977076574882335 0.0 0.0 0.0 0.0 0.2758374168659809 0.0 0.0 0.0 0.0 0.0 0.3036741500120851 0.0 0.0 0.0 1.029941307854668 0.0 0.0 0.9856923927407464 0.0 0.0 0.0 0.0 0.0 0.7519068706017725 0.22485357114429552 0.0 0.0 0.0 0.0 0.7254607565739195 0.1209201789051288 0.0 0.0 0.0 0.14288712648744176 0.2854682688589606 0.0 0.0 0.0 0.0 0.0 0.0 0.0 1.6194243732264133 0.0 0.0 0.08489846617307574 0.0 0.0 0.0 0.0 0.0 0.0 0.0 0.0 0.5529703908090441 0.0 0.0 0.0 0.5022367637341629 0.0 0.4375961274781325 0.5103780436275941 0.9726322356013244 0.0 0.0 0.0 1.7684921517803072 0.0 0.0 0.0 0.0 0.0 0.0 0.0 0.0 0.0 0.0 0.0 0.0 0.5494265331417063 0.1609803999083938 0.9232746894620911 0.0 0.19628833849787478 0.0 0.2708775242022885 0.0 0.0 0.0 0.0 0.07121755896087718 0.09665077140677655 0.0 0.0 0.3164911900739052
581 0.0 0.0 0.0 1.3346259347083023 0.0 0.03967145323143336 0.0 0.335132064957186 0.0 0.0 0.6987101780049478 0.0 0.12624580974871574 0.1941803956540335 1.2210654036210646 0.0 0.0 0.0 0.0 0.0 1.1530443768893008 0.0 0.0 0.0 0.0 0.0 0.16449234921119094 0.768323348895573 0.0 0.0 0.8713253505482954 0.3511551206127504 0.0 0.0 0.0 0.0 0.4624493553537183 0.0 0.0 0.0 0.0 0.0 0.0 0.0 0.0 0.0 0.6045162709735373 0.0 1.6483759802712892 0.0 0.0 0.5384303859374866 0.0 0.0 0.0 0.0 0.47130483056222366 0.0 0.0 0.0 0.0 0.0 0.0 0.0 0.0 0.7565739641734514 0.0 0.685556428100021 0.5880446876170542 0.0 0.0 0.0 0.0 0.0 0.824679683276414 0.0 0.0 0.0 0.0 0.0 0.0 0.3352153837380291 0.6755165951029196 0.0 0.826590904577142 0.0 0.10257658059302065 0.0 0.0 0.6776449163448229 0.0 0.09356110485168428 0.0 0.0 0.0 0.12000895987414326 0.0 0.0 0.0 0.0 0.0 0.0 0.0 0.0 0.0 0.0 0.0 0.22011515668799023 0.2027534940560297 0.0 0.0 0.0 1.442767273564572 0.0 0.0 0.0 0.0 0.0 0.0 0.0 0.0 0.2667816298596499 0.03732061854076646 0.0 0.0 0.0 0.0 0.0
2268 0.0 0.0 0.5441980881400624 0.0 0.0 0.24969333171791863 0.0 0.0 0.0 0.0 0.9132105348841317 0.0 0.15408653894204394 0.4837478019994624 0.00771415049506467 0.0 1.2105717597841967 0.0 1.4763799760484821 0.0 0.0 0.0 0.8144501181258277 0.0 0.0 0.0 0.0 1.5581379006045422 0.0 0.036264703461194536 0.0 0.0 0.0 0.426441013226258 0.0 0.0 0.0 0.0 0.0 0.0 0.4201785817774631 0.36244456155167193 0.0 0.0 0.9837569179757742 0.578199930346278 0.0 0.0 0.0 0.21384397807164238 0.0 0.0 0.0 0.0 0.0 0.439779642024018 0.0 0.0 0.0 0.0 0.0 0.0 0.0 0.0 0.0 0.0 0.5151101150258467 0.0 1.2364381531206756 0.0 0.0 0.0 0.0 0.0 0.0 1.11349494241845 0.0 0.0 0.0 0.0 0.5342263037415022 0.0 0.0 0.0 0.0 0.4448925281974271 0.0018238613883097441 0.1687643802502797 0.0 0.0 0.0 0.0 0.0 0.0 0.0 0.0 0.0 0.5512837845800189 0.6407559050069779 0.0 0.06086649237685407 0.0 0.06577115390074917 1.1060137618471477 0.0 1.2615512792809558 0.0 0.0 0.0 0.0 0.0 0.0 0.0 0.0 0.0 0.0 0.3743080191802388 0.0 0.002128279133497173 0.0 0.2553313589396125 0.0 0.0 0.265481917537817 0.0 0.0 0.0 0.0
2269 0.23333671865377398 0.0 0.0 0.03810009726951249 0.22410485802915422 0.0 0.0 0.0 0.0 0.0 0.0 0.0 0.0 0.0 0.0 0.11686847018660808 0.0 0.18221887608933612 0.0 0.747245538455105 0.0 0.0 0.0 0.0 0.0 0.0 0.0 0.0 0.0 0.0 0.0 0.0 0.9949502430092712 0.0 0.0 0.5356456861800555 0.0 0.21492510067343126 0.0 0.0 0.6216727846701952 0.8844392641133413 0.0 0.34707213685203503 0.0 0.0 0.1475031465350898 0.0 0.0 0.0 0.0 0.1094025053219214 0.0887938620945282 0.0 0.0 0.0 0.0 0.0 2.465286404926331 0.0 0.0 0.0 0.0 0.0 0.0 0.0 0.42476455527367923 0.0 0.0 0.48454142034624753 0.0 0.7669062603347808 0.0 0.0 0.6093554941073412 1.56095125032082 0.0 0.0 0.0 0.2076255127659122 0.0 0.0 0.0 0.0 0.0 0.0 0.0 0.0 0.0 0.0 0.0 0.0 0.2854368403984144 0.0 0.12647139535960503 0.0 0.0 0.8602612471240391 0.0 0.46981760640102815 0.0 0.0 0.0 0.0 0.0 0.0 0.0 0.0 0.10266675406523115 0.0 0.0 0.0 0.5984651973726914 0.0 0.0 0.0 0.9581737268269764 0.4342685004855076 0.0 0.0 0.0 0.8538872302630443 0.0 0.0 0.0 0.0 0.0 0.3970277120059929
2262 0.0 0.0 0.0 0.0 0.0 0.0 0.0 0.38508922972057585 0.7256462294832147 1.2480922326560024 0.0 0.0 0.0 0.9085826931096446 0.0 1.0659405115380503 0.0 0.0 0.0 0.0 0.0 0.0 0.0 0.0 0.0 0.0 0.0 0.0 0.0 0.0 0.0 0.0 0.0 0.8768920702169941 0.5559000974512317 0.0 0.0 0.0 0.10496114791357179 0.0 0.22388816795804856 0.60578279160446 0.0 0.0 0.0 0.06423463724431669 0.0 0.0 0.5805671631784963 0.0 0.0 0.0 0.0 0.0 0.0 0.0 0.0 0.0 0.0 0.0 0.0 0.0 0.0 0.0 0.0 2.2218075116946183 0.0 0.14843412389872593 0.6341622005223808 0.0 0.0 0.0 0.0 0.0 0.0 0.0 0.0 0.0 0.30763500749409356 0.0 0.0 0.0 0.5907813913341614 0.0 0.0 0.0 0.0 0.0 0.0 0.16456198410065215 0.0 0.0 0.0 0.0 0.0 0.0 0.8253978265245207 0.03947145086514573 0.0 0.0 0.0 0.0 0.0 0.0 0.0 0.0 0.0 0.0 0.0 0.0 0.0 1.008048779941593 0.0 1.0856533220334266 0.07700452268650083 0.022389158586436607 0.0 1.3058368345418772 0.0 0.29703438233214896 0.0 0.0 0.9506461842607353 0.0 0.1500966251418174 0.0 0.0 0.0
2263 0.8014545467613166 0.0 0.0 0.0 0.3082946914635298 0.1461021079933318 0.0 0.0 0.0 0.0 0.0 0.0 0.0 0.0 0.39388149821849694 0.0 0.0 0.0 0.0 0.0 0.0146984816602077 0.23510049108788572 0.055032279088224056 0.0 0.0 0.0 0.5691788651654791 0.27578578111415825 0.0 0.09569777991223456 0.0 0.0 0.0 0.0 0.0 0.0 0.0 1.0295526548125884 0.10679881649696127 0.0 0.0 0.0 0.0 0.8600441013768203 0.0 0.0 0.0 0.5649356301317442 0.0 0.0 0.0 0.12542107157639734 0.0 0.0 0.0 0.0 0.19462251569678382 0.0 2.439978501449762 0.0 0.0 0.0 0.0 0.0 0.0 0.0 0.0 0.0 0.0 0.587511042248537 0.3267414006492801 0.3814273034869359 0.0 0.0 0.36008762606595446 0.0 0.0 0.0 0.08517512221377325 0.8355785650630151 0.0 0.7303484278580551 0.0 0.0 0.0 0.0 0.3343811072414189 0.0 0.0 0.0 0.0 0.0 0.0 0.7725560303928104 0.0 0.4404573905077197 0.2020221798611858 0.3058981794179597 0.836046028206135 0.0 0.0 0.3327401599624797 0.07854868312521619 0.0 0.44334888173202047 0.0 0.0 0.0 0.0 0.0 0.97054276479687 0.0 0.0 0.0 0.0 0.0 0.0 0.0 0.0 0.0 0.11404726092698007 0.0 0.0 0.0 0.0 0.0 0.2036174653237275 0.0
2260 0.24772027953464026 0.2914192399610823 0.0 0.0 0.0 0.0 0.0 0.0 0.0 0.5234031102273018 0.0 0.0 0.7394258652563171 1.3552686630333433 1.250961651580783 0.20782451236658422 0.0 0.680108200064812 0.46050407851048736 0.0 0.0 0.0 0.0 0.0 0.0 0.0 0.0 0.0 0.0 0.764477113225534 0.0 0.0 0.26356694876027753 0.0 0.2656159174619297 0.0 0.0 0.061003789174633116 0.14705226681993902 0.0 0.8558210281952667 0.0 0.0 0.44755295210083773 0.2248525717894047 0.0 0.17902162675171945 0.10495502533483461 0.0 0.0 0.0 0.0 0.047710273926479044 0.0 0.0 0.0 0.0 0.2509530673491399 0.0 0.4889719353956631 0.0 0.0 0.07430575318532069 0.0 1.0656776442623017 0.0 0.0 0.0 0.0 0.0 0.0 0.0 0.363182642493965 0.13854310041627058 0.10718241931106995 0.0 0.0 0.6044289170448536 0.48944642334644045 0.0 0.0 0.0 1.7777551667500557 0.3117644285159208 0.0 1.9066659423739485 0.0 0.4235482363535517 0.0 0.0 0.3036684498275155 0.0 0.0 0.0 0.8091825126174489 0.0 0.22223222909152757 0.0 0.0 0.7823979603450747 0.0 0.0 0.0 0.025990795901174066 0.0 0.0 0.0 0.37731900701096444 0.0 0.8432848982910781 0.0 0.0 0.5792414686583626 0.0 0.369597601221567 0.5555405226007374 0.0 0.0 0.17912162369672274 0.0 0.0 0.0 0.0 0.0 0.777009846188774 0.0 1.768660897350211 0.0
2261 0.42046063842320275 0.0 0.0 0.04832764775684844 0.0 0.0 0.0 0.3478192447379203 0.0 0.0 0.6142606266703877 0.0 0.0 0.0 0.0 0.0 0.2676413172031966 0.0 0.0 0.0 0.4672299375851108 0.7073968834346721 0.0 0.0 0.0 0.11521850569534876 0.0 0.8205331103382635 0.2362666216077687 0.0 0.0 0.0 0.0 0.2221793336208932 0.0 0.0 0.14543338862848654 0.0 0.0 0.13039528673513345 0.0 0.0 0.0 0.7354404885458578 0.0 0.0 0.0 0.0 0.0 0.0 0.0 0.0 0.0 0.0 0.0 0.0 0.0641816330312419 0.0 0.21273743498113454 0.0 0.0 0.04195499535786236 1.5546872905540903 0.0 0.0 0.0 1.3668816202067406 0.0 0.6286358936354637 0.0 0.0 0.0 0.0 0.0 0.031336125455756925 0.0 0.0 0.0 0.0 0.0 0.0 0.0 0.0 1.0408821965929842 0.0 0.0 0.08752954743565652 0.0 0.17976604571104557 0.0 0.0 0.10910336915596684 0.02346754649723566 0.0 0.0 0.0 0.0 0.0 0.7502439301919616 0.5656973585764338 0.6910814602540857 0.015345397955042847 0.338188594219711 0.6044690435798535 0.0 0.0 0.0 0.0 0.0 0.0 0.0 0.0 0.0 0.0 0.0 0.08114448947890487 0.17771710826457593 0.0 0.0 0.0 0.0 0.0 0.0 0.0 0.0 0.3146964786259651 0.0 0.0
2266 0.0 0.0 0.0 0.0 0.0 0.0 0.0 0.0 0.0 0.3705553297937654 0.0 0.0 0.0 0.7944929386834322 0.04762616540246373 0.0 0.12139259731053686 0.0 0.2644243181130715 0.0 0.0 0.36733046761357213 0.0 0.0 0.0 0.0 0.0 0.1505949413349282 0.0 0.0 0.0 0.6407773720003526 0.0 0.0 0.0 0.0 0.0 0.0 0.0 0.0 0.0 0.0 0.0 0.0 2.5565120895446616 0.0 0.0 0.0 1.5950348295943273 0.0 0.0 0.0 0.41591625225287343 0.0 0.0 0.4480589044059957 0.0 0.0 0.4739397038064396 0.10197048683052037 0.0 0.9929104109300004 0.0 0.0 0.5454351553615202 0.0 0.0 0.0 0.16983918863353806 0.0 0.03995285673231031 0.7407315949521146 0.0 0.7589586474196838 0.0 0.0 0.16694317525573354 0.0 0.0 0.0 0.16485608981172145 0.7785380411666738 0.0 0.0 0.0 0.0 0.4154857166840652 0.0 0.27521668949877703 0.7155157601696253 0.0 0.0 0.0 0.0 0.34522448237235703 0.0 0.0 0.0 0.0 0.73061746379781 0.0 0.0 0.0 0.0 0.0 0.0 0.0 0.0 0.06772599357547773 0.0 0.0 0.0 1.2616037662482091 0.0 0.0 0.03626849240135657 0.07693498434660034 0.0 0.0 0.0 0.0 0.13242428104594037 0.0 0.0 0.0 0.0 0.0 0.0
2267 0.07351105863948953 0.0 0.0 0.0 0.5324872275783445 1.2191547316203817 0.0 0.0 0.0 1.3486051101096153 0.0 0.0 0.0 0.0 1.5648624505564983 0.0 0.0 0.0 0.1482462425536482 0.0 0.0 1.1586759472256984 0.0 0.0 0.0 0.0 0.0 0.0 0.5367617805244125 0.0 0.0 0.43077889899514976 0.0 0.0 0.07207605955949925 0.0 1.816022056823126 0.0 0.0 0.0 0.7825289839470623 0.0 0.9926371075338293 0.7711628434966422 0.0 0.0 0.0 0.24143814902077285 0.32209955992640915 0.0 0.0 0.6158096373977747 0.5787780979840835 0.0 0.4085904052232164 0.0 0.0 0.0 0.0 0.0 0.0 0.0 0.0 0.0 0.0 0.2665422240474428 0.0 0.10211425594335381 0.08380490275001908 0.0 0.0 0.0 0.0 0.0 1.2678437020783986 0.27753904828860065 0.0 0.06809434132851142 0.0 0.0 0.0 0.0 0.0 0.0 0.0 0.0 0.10009782017125883 0.0 0.15988479420251464 0.7059699894611599 0.0 0.0 0.0 0.5544399265240096 0.0 0.5808067075913599 0.0 0.0 0.08052772021379202 0.0 0.0 0.0 0.0 0.0 0.0 0.0 0.0 0.0 0.35441003870274984 0.0 0.034614152320864955 0.12461158880356522 0.0 0.0 0.0 0.4477203429872509 0.0 0.0 0.0 0.036306492500415094 0.0 0.0 0.0 0.0 0.0 0.0 0.958705278678937 0.3061089306519936
2264 0.0 0.0 0.0 0.0 0.0 0.0 0.9946482097714776 0.1585382649354911 0.0 0.564426083568811 0.5425859238054036 0.0 0.0 0.0 0.49027575799405737 0.0 0.0 0.15636743409137727 0.0 0.0 0.0 0.0 0.0 0.0 0.47018283276492945 0.0 0.0 0.0 0.0 0.0 0.23084869088039098 0.0 0.0 0.019304275321293814 0.0 0.0 0.3234656558451249 0.3752213512636018 0.3591162238371009 0.02828155814803771 0.0 0.0 0.038944273647470246 0.0 0.0 0.0 0.35264574017017775 0.0 0.0 0.0 0.19496702127945284 0.0 0.0 0.0 1.1716323165193916 0.0 0.0 0.0 0.0 0.0 0.0 0.0 0.9269136548125478 0.0 0.37336945481406736 0.1823337350322434 0.061709687559094256 0.0 0.9952212219676597 0.0 0.0 0.011564126081078343 0.08345933284120663 0.18381695645392987 0.17978585966449906 0.0 0.0 0.0 0.0 0.6953044361946784 0.0 0.0 0.0 0.20188804264868274 0.0 0.0 0.0 0.0 0.18919358769601347 1.422682163012522 0.3321510222060974 0.0 0.7566112549696439 0.0 0.0 0.0 0.0 0.0 0.2542532249546567 0.0 0.0 0.8462297755371487 0.0 0.0 0.015453666227030453 0.0 0.0 0.03987263231426661 0.11728275551922743 0.8488092622327039 0.0 0.0 0.0 0.0 0.0 0.5069327953850081 0.0 0.0 1.124628156377529 0.0 0.0 0.118118838407599 0.0 0.0 0.0 0.0 0.0 0.6541011999705263
2265 0.0 0.0 0.5095318307939887 0.07563370998973751 0.6820170587104749 0.0 0.7701388507355782 0.5503961421752334 0.0 0.0 0.0 1.1541736076343705 0.0 0.0 0.0 0.0 0.0 0.0 0.0 0.0 0.13599224615738528 0.06560333015981216 0.0 0.0 0.0 0.0 0.0909615302360007 0.09070964005993952 0.0 0.0 0.0 0.0 0.0 0.0 0.0 0.0 0.0 0.8882232989483438 0.0 0.0 0.7650923519070101 0.7697495212289072 0.0 0.9196622986537794 0.0 0.0 0.0 0.6947763218958963 0.15939292143833989 0.09412091237606943 0.0 0.0 0.0 0.0 0.0 0.5868077402212936 0.0 0.0 0.0 0.19312205727671403 0.0 0.0 0.0 0.0 0.0 0.0 0.0 0.0 0.0 0.0 0.0 0.0 0.07655499226084005 0.5887149797096318 0.21624534804510936 4.2045576013696045e-05 1.804195708587419 0.0 0.0 0.0 0.0 0.0 0.0 0.785371268996088 0.0 0.0 0.0 0.8030679150234721 0.0 0.0 0.31220924383558646 0.0 0.0 0.0 0.0497188490330138 0.0 0.0 0.0 0.0 0.10428051520234616 1.6328342389320358 0.0 0.0 0.0 0.5163796474136803 0.6470809483008053 0.0 0.0 0.0 0.4299976844103133 0.0 0.0 0.0 0.0 0.0 0.0 0.0 0.0 0.0 0.0 0.0 0.0 0.552592045035582 1.222161965311749 0.0 0.0 0.0 0.0
2442 0.0 0.0 0.15384083386841274 0.6901843613200722 0.0 0.0 0.0 0.6436738946080719 0.0 0.0 0.0 1.2083969870259237 0.6971853239949156 0.0 0.0 0.7985092051864772 0.0 0.993486089358675 0.0 0.0 0.0 0.8567752795516622 0.07289165578144186 0.0 0.0 0.0 0.0 2.5443703066035863 0.0 0.0 0.0 0.0 0.7517701064414113 0.629221028367673 0.0 0.0 0.0 0.0 0.0 0.0 0.0 0.0 0.0 0.0 0.0 0.0 0.0 0.0 0.0 0.27990621567952134 0.45434710828094427 0.6718125105674342 0.11040267527254446 0.0 0.0 0.0 0.0 0.0 1.1247582304292318 0.14206344816304156 0.31250231597038247 0.0 0.0 0.0 0.0 0.2968554851394692 0.597590455838833 0.0 0.29072264710963 0.0 0.2997021279608336 0.8398672705336466 0.4551279031728443 0.0 0.0 0.0 0.24921184412243552 0.0 0.0 0.0 0.5554017027705459 0.0 0.0 0.0 0.14395834004720037 0.0 0.0 0.0 0.0 0.03801053867045735 1.6395949220763022 0.0 0.0 0.0 0.0 0.0 0.0 0.0 0.5236987084955733 0.0 0.44040733085196293 0.8362170771902075 0.0 0.0 0.3487569272530752 0.0 0.0 0.0 0.0 0.0 0.3015737508718483 0.0 0.0 0.6429281500514864 0.1844445239619887 0.009968265317641178 0.0 0.0 0.0 0.0 0.0 0.0 0.0 0.0 0.36126614798206547 0.0 0.0 0.0
2443 0.0 0.0 0.0 0.0 0.0 0.5343987250311348 0.0 0.527833651834032 0.0 0.0 1.0711623899329776 0.0 0.0 0.0 0.0 0.0 0.008766929906142007 0.0 0.0 0.190938541289344 0.0 0.0 0.0 0.0 0.0 0.0 0.43319615697296016 0.0 0.0 0.45538640644821426 0.28615284349814546 0.0 0.0 0.3132981536948659 0.0 0.7874148148693005 0.0 0.0 0.48562944490785326 0.0 0.0 0.0 0.0 0.0 0.0 0.004671143255520968 0.0 0.0 0.0 0.0 0.3258519284308022 0.0 0.31080041966449995 0.0 0.0 0.47107943263427127 0.8094701645986456 0.04910982863842746 0.0 0.0 0.0 0.65254656411418 0.0 0.36838667854922236 0.11422243666983796 0.7802657636057988 0.0 0.0 0.48049790692618016 0.0 0.0 0.0 0.7149626235063418 0.0 0.0 0.21541292782098312 0.0 0.0 0.0 0.0 0.0 0.0 0.0 0.0 0.0 0.0 1.6145000715718576 1.5385621038257864 0.0 0.0 0.0 0.4251510909314489 0.8250649249639562 0.0 0.0 0.7908071678385179 0.0 0.0 0.0 0.0 0.09285345623939877 0.0 0.0 0.0 0.0 0.0 0.0 0.0 0.0 1.0204326114201374 0.0 0.0 0.0 0.0 0.0 1.0177663247384243 0.0 1.5025387979946503 0.5702149656704933 0.0 0.0 0.0 0.0 0.0 0.0 0.37775373799047285 0.0 0.0
2440 0.0 0.0 0.0 0.0 0.0 0.0 0.0 0.13545270207981353 0.0 0.807291602997125 0.0 0.0 0.0 1.7168744131919598 0.0 0.0 0.0 0.0338374617204958 0.0 0.0 0.0 0.0 0.0 0.0 0.0 0.0 0.022150334970842307 0.06169083837838545 0.0 0.5629079217799903 0.0 0.875793386482769 0.10923810466907898 0.0 1.8719443274022174 0.0 0.0 0.0 0.0 0.012031486290822664 0.0 0.695493481296574 0.0 0.0 0.0 0.0 0.0 0.34496926342620565 0.0 0.0 0.0 0.09691422112573646 0.0 0.0 0.0 0.0 0.1667237673943563 0.0 0.29654004427654235 0.0 0.0 0.0 0.0 0.0 0.0 0.6589389842457795 0.2631771060674208 0.0 0.052455657555393595 0.0 0.0 0.0 0.0 0.0 0.0 0.0 0.0 0.36955105017249607 0.0 0.0 0.0 0.0 0.0 0.0 0.0 1.341599461595839 0.0 0.0 0.0 0.0 0.0 0.0 0.0 1.3802275966608948 0.8552201656268225 0.0 0.0 0.0 0.0 0.0 0.0 0.0 0.0 0.0 0.0 0.21473117709634232 0.0 1.0117379997336053 0.558306952162866 0.32036047325270595 0.6164559634867719 0.0 0.0 0.0 0.15620871724427626 0.0 0.9655250122691353 0.4117315442743512 0.0 0.0 0.0 0.0 0.0 0.0 0.9859497858504355 1.0711941803336613 0.01731412869812012 0.0
2441 0.66560817817712 0.0 0.0 0.0 0.13418313306626362 0.0 0.0 0.0 0.3907342596032549 0.0 0.0 0.0 0.0 0.048344069048598226 0.0 0.12675251722774705 1.127430540549524 0.0 0.0 0.0 0.0 0.0 0.3499054149403202 0.0 0.0 0.0 0.0 0.0 0.0 0.0 0.0 0.02900244143755616 0.0 0.11279584032677138 0.0 0.0 0.0 0.0 1.2506018776037573 0.7452326770798973 0.43329150876790434 0.0 0.0004309031121547827 0.0 0.7204377700496944 0.0 0.0 0.0 0.0 0.0 0.219304182364899 0.17112943814666173 0.0 0.0 0.0 0.0 0.9898413204539236 0.7123422862651572 0.0 0.0 0.0 0.25814975693752795 0.0 0.6291937780419493 0.0 0.0 0.037646703890357486 0.6292436642637299 0.4500775995145671 0.0 0.0 0.0 0.0 0.0 0.0 0.0 0.0 0.0 0.0 0.0 0.0 0.0 0.0 0.0 0.3542422550704744 0.740681310764695 0.044097604948845306 0.0 0.0 0.5897252446492256 0.03131873719694746 0.6403544599951069 0.0 0.0 0.0 0.0 0.775629096565169 0.0 0.42524471359372373 0.7372320866716184 0.0 0.0 0.0 0.0 0.0 0.8116847828364983 0.6543673144596042 0.2574639832303756 0.0 0.0 0.0 0.0 0.0 0.0 0.0 0.0 0.0 0.0 0.0 0.0 0.0 0.30145243680890843 0.0 0.0 0.03418074715016163 0.26547119291521015 0.23271989035518462 0.0
2446 0.4639615183751973 0.0 0.0 0.0 0.0 0.0 0.002031734744924482 0.0 0.0 0.0 0.0 0.0 0.0 0.0 0.7145237650235924 0.0 0.0 0.0 0.0 0.0 0.5481325312375027 0.0 0.0 0.0 0.0 0.0 0.0 0.5160452776462308 0.0 0.03950689666645301 0.0 0.0 0.0 0.0 0.2471859002413559 0.0 0.0 0.0 0.0 0.0 0.3595088886122994 0.0 0.0905724862700681 0.0 0.0 0.0 0.10007769432480051 0.0 0.0 0.16167581695974337 0.0 0.0 0.653311953129968 0.0 0.0 0.003543148056067474 0.0 0.0 0.036836041781992394 0.0 0.3686272945318186 0.0 0.40632983441697984 0.0 0.22763457108711194 0.0 0.0 0.0 0.0 0.0 0.0 0.018716232600355362 0.26774508026577104 0.16661029178302206 0.0 0.04290978746907063 0.0 0.0 0.0 0.0 0.0 0.0 0.0 0.0 0.0 0.0 0.0 0.0 0.0 0.0 0.7041779119783889 0.22820234955089985 0.39352392036565415 0.0 0.0 0.0 0.0 0.0 0.10985209233550822 0.0 0.0 0.6091748936554404 0.07609138980385531 0.0 0.0 0.0 0.0 0.0 0.0 0.0 0.016382380663076842 0.0 0.0 0.0 0.0 0.0 0.0 0.0 0.7332140323378963 0.20262657845257062 0.0 0.0 0.14789289223708973 0.8393720730022273 0.0 0.3485337932685275 0.0 0.0
2447 0.1198737484551062 0.0 0.0 0.7331535619449308 0.0 0.16050101746766374 0.0 0.0 0.0 0.0 0.0 0.0 0.5871104619763617 0.0 0.0 0.0 0.0 0.0 0.0 1.588378179235875 0.0 0.0 0.0 0.0 0.06205758721592437 0.0 0.0 0.0 0.0 0.06546286525809752 0.0 0.0 0.0 0.43261874119695115 0.0 0.0 0.0 0.0 0.0 0.0 0.0 0.0 0.7921694648093021 0.0 0.0 0.9906924139476294 0.0 0.0 0.0 0.0 0.0 0.0 0.0 0.0 0.0 0.0 0.0 0.0 0.0 0.0 0.0 0.0 0.0 0.01758811571947176 0.017657337006078067 0.568727484316659 0.0 0.0 0.7708828370335774 0.7836658643487918 0.0 0.0 0.0 0.0 0.0 1.3100199037807 0.0 1.6287383573996617 0.0 0.5356352404776318 0.0 0.01897969422338118 0.0 0.1662567154300198 0.0 0.0 0.8135434867871099 0.04815425197083659 0.0 0.0 0.46367862561295453 0.0 0.5722364544958436 0.0 0.0 0.0 0.0 0.2585540884513741 0.0 0.0 0.0 0.0 0.022635867159205857 1.0447036209086906 1.206830562060324 0.0 1.1380972970724732 1.213426382372952 0.0 0.0004540401818524031 0.0 0.09512758375265798 0.1334851964698995 0.0 0.0 0.0 0.0 0.15362409158370588 0.10778021536801279 1.2265279542301109 0.23072096340401016 0.0 0.0 0.6816998925539786 0.0 0.6056252412673218 0.0 0.0
2444 0.41990699896292094 0.0 0.2592250107906747 0.2150009500885604 0.0 0.0 0.0 0.0 0.3344032998992471 0.0 0.0 0.0 0.0 0.0 0.0 0.0 0.0 0.20002563130819176 0.2395078046164307 0.0 0.15176808956472151 0.0 0.0 0.0 0.0 0.6317984237380331 0.0 0.0 0.0 0.0 0.0 0.0 0.0 0.0 0.0 0.0 0.23759544135783411 0.0 0.0 0.0 0.0 0.9631643975904494 0.0 0.0 0.8553685541549612 0.0 0.7777497308396981 0.0 0.0 0.2620593245641079 0.0 0.0 0.40918662970217473 0.0 0.0 0.0 0.0 0.0 0.0 0.0 0.0 0.0 0.0 0.0 0.0 0.449932932179629 0.0 0.1710205810204152 0.0 0.0 0.0 0.0 0.0 0.0 0.19622587180679457 0.06874790061782533 0.46921766591677927 0.0 0.0 0.3293116924755582 0.0 0.0 0.0 0.0 0.6376591033358375 0.43756058357950645 0.0 0.0 0.0 0.0 0.18382224700530342 0.0 0.0 0.0 0.0 0.0 0.0 0.0 0.0 0.0 0.2910386276059616 0.0 0.0 0.0 0.0 0.6151487433380207 0.0 0.0 0.8553727907097657 0.0 0.27821920575253 0.0 0.0 0.621497042118121 0.0 0.0 0.46878550347346215 0.006013920033869337 0.0 0.0 0.1860402875051244 0.0 0.14513500743988164 0.3541053497480628 0.2504099067623985 0.0 0.0 0.0
2445 0.30810321649260186 0.5903242163199705 0.0 0.2944172603850911 0.0 0.0 0.27964207453022444 1.0735640447817842 0.0 0.0 0.0 0.0 0.0 0.0 0.0 0.35920691536408794 0.7337552799289574 0.037959728810285566 0.0 0.0 0.08270611911522978 0.0 0.0 0.0 0.0 0.0 0.0 0.0 0.0 0.0 0.24613085183544406 0.0 0.0 0.0 0.0 0.0 0.0 0.0 0.0 0.0 1.1804397438537715 0.48516287900035837 0.0 0.0 0.24629178995057735 1.5848828737968388 0.0 0.0 0.0 0.49988617777538036 0.0 0.0 0.0 0.0 0.0 0.0 0.6142269428988101 0.20216600209071828 0.29645057006743253 0.0 0.0 0.0 0.0 0.0 0.0 0.0 0.0 0.0 0.0 0.0 0.0 0.0 0.3245715990908428 0.0 0.5120784508128757 0.0 0.0 0.0 0.8648849682588552 0.0 0.0 0.0 0.0 0.0 1.477792088315726 0.0 0.0 0.0 0.0 0.0 0.0 0.0 0.0 0.0 0.0 0.0 0.0 0.0 0.3772008000026529 0.05520838685354574 0.0 0.0 0.0 0.0 0.0 0.37301075733288336 0.0 0.0 0.0 1.6985032877833148 0.0 0.0 1.8155155414621393 0.0 0.2738860485257558 0.0 0.3210648840025936 0.045360911129529446 0.0 0.0 1.1478327347267694 0.0 0.0 0.14263032836967016 0.0 0.0 0.0 0.0
2448 0.0 0.1880793334841395 0.0 0.0 0.4112331221500846 0.0 0.0 0.0 0.0 0.0 0.0 2.0398654337845508 0.0 0.0 0.0 0.0 0.0 0.0 0.0 0.0 0.0 0.0 0.0 0.0 0.18542622665194183 0.22595030880713782 0.5637356688694642 0.0 0.0 0.0 0.0 0.0 0.014862150697933695 0.0 0.5355095281948102 0.9914837837307247 0.0 0.0 0.0 0.0 0.0 0.0 0.0 0.0 0.0 0.0 0.21556407369321848 0.21739663687706007 0.0 0.0 0.0 0.0 0.4518632577441486 0.0 0.00010658387311528704 0.0 0.4668126982860191 0.004186178982915807 0.06954493550648319 0.0 0.0 0.0 0.0 0.0 1.3231116084533256 0.0 0.0 0.0 0.471818063832627 0.0 0.0 0.5764982602494847 0.0 0.0 0.0 1.9419951860052074 0.0 0.7807491024364115 0.0 0.08672038358524872 0.0 0.0 0.519694892461239 0.07877905073034656 0.10418146196090514 0.0 0.0 0.0 0.0 0.00017544678647754205 0.0 1.16834480987873 0.3271989458445234 0.0 0.7737913506135219 0.0 0.01655447966108474 0.0 0.0 0.0 0.0 0.0 0.0 0.0 0.0 0.0 0.0 0.0 0.0 0.0 0.0 0.0 1.1282538969087044 0.0 0.37537823863522585 0.0 0.0 0.0 0.0 0.0 1.0566172156740168 0.21651456482795944 0.0 0.17239696938353727 0.0 0.0 0.0 0.0
2449 0.0 0.0 0.0 1.498194244248357 0.5260186791967468 0.0 0.0 0.0 0.44370565583694094 0.0 0.0 0.4088165128587179 0.8934173339994027 0.0 0.46091717397090975 0.0 0.0 0.0 0.0 0.0 0.2619358202669976 0.0 0.022389319603907065 0.0 0.0 0.0 0.0 0.0 0.0 0.0 0.6517656256385027 0.0 1.3235470462884271 0.0 0.0 0.021254148766183728 0.0 0.0 0.0 0.0 0.12174904356127453 0.0 0.685680773150114 0.27398602667830196 0.4245979875087911 0.0 0.0 0.0 0.0 0.0 0.0 0.0 0.0 0.0 0.0 0.0 0.0 0.0 0.47123177841096897 1.6825325980240278 0.0 0.0 0.0 0.0 0.2517531535443854 0.0 0.0 1.2749627636877154 0.46325350912603425 0.0 0.9559779247226213 0.4783188295667237 0.0 0.0 0.0 0.7908049700800529 0.37421538942565086 0.0 0.0 0.0 0.4762552788274029 0.26770047562042043 0.0 0.0 0.25067224681529404 0.0 0.0 0.42226505570429435 0.0 0.0 0.0 0.0 0.0 0.0812995950206148 0.0 0.0 0.7405211313037208 0.0 0.17082837535885934 0.0 0.6806577146278311 0.0 0.0 0.0 0.0 0.0 0.34029388599104793 1.5041054730918932 0.0 0.0 0.0 0.36229406533592323 0.0 0.0 0.0 0.0 0.0 0.0 0.0 0.0 0.0 0.934329989431362 0.0 0.0 0.0 0.0 0.0 0.11626508618836631
2189 0.0 0.0 0.4545481366027201 0.0 0.6772281549432728 0.0 0.0 0.0 0.0 0.0 0.719212909752968 0.0 0.0 0.05281514521916762 0.15408048416835715 0.0 0.0 0.0 0.0 0.0 0.2926681215802161 1.0813090015734408 0.0 0.7607940546136944 0.12922128461201138 0.457711335303947 0.0 0.0 0.0 0.0 0.0 0.7349231299615737 0.0 0.9600632842445974 0.0 0.0 0.0 0.0 0.0 0.0 0.0 0.0 0.14001914131964532 0.0 0.9469786949599047 0.0 0.0 0.9435053300278856 0.4957758182549443 0.4192340156496954 0.0 0.0 0.0 0.0 0.0 0.0 0.0 0.0 0.33321402171755427 0.0 0.7577926514051334 0.0 0.0 0.0 0.0 0.0 0.0 0.6109168373982555 0.0 0.6381718386151612 0.0 0.0 0.0 0.0 0.6734473014094272 0.368169426896034 0.15802834953008318 0.0 0.0 0.0 0.0 0.052013298277382235 0.0 0.7570738459366675 0.0 0.0 0.7693960109794895 0.0 0.2765923198283 0.27756169049648327 0.0 0.0 0.0 0.0 0.9387509703139396 0.0 0.0 0.2073159661703611 0.0 0.0 0.0 0.00858555114420258 0.0 0.0 0.0 0.0 0.02146404866207554 0.0 0.0 0.27018256485691833 0.0 0.13828321493841506 0.6255412046821835 0.0 0.0 0.0 0.0 0.0 0.0 0.0 1.0892997691238788 0.9302821327506046 0.0 0.0 0.0 0.0 0.0 0.0
108 0.0 0.8844053228885882 1.2710430025104424 0.0 0.7207014697340868 0.0 0.0 0.0 0.0 0.0 0.042079934070414084 0.0 0.9610015348153477 0.0 0.29840192330278503 0.0 0.0 0.0 0.2415847840235618 0.0 0.0 0.0 0.0 0.0 0.0 0.8634032141825171 0.36217964877803216 0.0 0.5275997117286864 0.0 0.0 0.10662092840442361 0.0798126500191547 0.23365176899656312 0.30064201398562107 0.16788245727529702 0.0 0.0 0.0 0.0 0.0 0.0 0.0 0.3404829323066673 0.7148887276055592 0.0 0.0 0.0 0.18071171110611367 0.0 0.0 0.0 0.0 0.511523197554898 0.0 0.0 0.0 0.0 0.0 0.24179755278064802 0.9380163485993269 0.0 0.0 0.0 1.5092844359393847 0.6045296764240576 0.22554379265791902 0.4010476886741378 0.0 0.8246640425373697 0.0 0.0 0.0 0.0 0.0 0.7224323838400677 0.0 0.5129085303718034 0.551717972711415 0.0 0.9867539178196026 0.2747691600216877 0.0 0.0 0.0 0.0 0.0 0.0 0.0 0.06307001570062166 0.0 0.23187819482693325 0.0 0.0 0.0 0.0 0.08166362039916944 0.0 0.0 0.0 0.0 0.0 0.0 0.0 0.0 0.28387167356345355 0.016240944706692878 0.0 0.0 0.0 0.41653473237954797 0.0 0.6463445089760876 0.0 0.0 0.4216186072419789 0.7860871628659437 0.0 0.0 0.13717580546370445 0.19743775684336523 0.0 0.0 0.0 0.0 0.0 0.0 0.0
109 0.0 0.2989912336267643 0.0 0.0 0.0 0.0 0.5756863025724812 0.0 0.0 0.0 0.0 0.0 0.0 0.0 0.0 0.0 0.40532262778386724 0.0 0.0 0.0 0.0 0.0 0.0 0.03944557431400556 0.0 0.0 0.13207618870338803 0.18812996110786348 1.0454369089171762 1.007882798964098 0.0 0.0 0.0 0.8898436932178162 0.0 0.0 0.0 0.3162029310671195 0.0 0.0 1.6650893011403336 0.0 0.0 0.0 0.0 0.0 0.0 0.0 0.0 0.0 0.25243850764886144 0.0 0.0 0.870800165911697 0.0 0.0 0.0 0.0 0.479552021004631 0.0 0.0 0.0 0.0 0.0 0.0 0.0 0.03794015187855221 0.0 0.0 0.0 0.04629392231946164 0.0 0.0 0.0 0.0 0.0 0.38278463180474676 0.9420999770551702 0.0 0.7327859144278795 0.0 0.0 0.0 0.0 0.0 0.14656237763497576 0.0 0.0 0.26115933750728043 0.0 0.0 1.1731141330734187 0.0 0.40214707455420284 0.0 0.0 0.0 0.0 0.4187887615783571 0.6403210203679236 0.0 0.0 0.40479942327288926 0.0 0.34673168608246 0.0 0.31274323618291966 0.0 0.23967357720493682 0.0 0.11300737216013003 0.0424257236999678 0.0 0.20387138674092212 0.0 0.18270014522016234 0.0 1.0746938919322946 0.0 0.10984631356256325 0.0 0.29796301864530444 0.0 0.0 0.0 0.49231827637224373 0.41501133360717135 0.6967950487964334
102 0.0 0.0 0.0 0.0 0.0 1.170206635432857 0.13010793554142497 0.0 0.0 0.0 0.0 0.0 0.0 0.6279836602010527 1.0086792324321716 0.0 0.0 0.26581690165923616 0.0 0.0 0.0 0.0 0.0 0.09272832211195096 0.0 0.17049620809884156 0.0 0.7119165541845962 0.0 1.2513808122454844 0.5559209808009682 0.0 1.0315580439472434 0.18410730245125342 0.0 0.0 0.0 0.6136245038830801 0.0 0.0 0.0 0.0 0.4866682531368475 0.0 0.0 0.0 0.0 1.320261064948254 0.0 0.0 0.6262690791201382 1.1715516230513365 0.0 0.0 0.0 0.0 0.0 0.0 0.0 0.0 0.0 0.0 0.42116042166922774 0.24126683772979268 0.6562754675448039 0.30761680791530327 0.0 0.0 0.0 0.10097368929491413 0.0 0.0 0.0 1.3013063922738246 0.10754599265836426 0.29513189813217894 0.0 0.0013131124032817179 0.0 0.0 0.0 0.0 0.0 0.0 0.010233644739898429 0.0 0.0 0.0 1.1397866874377012 0.0 0.0 0.0 0.0 0.6429310460408466 0.0 0.0 0.3007137800727234 0.0 0.0 0.0 0.0 0.0 0.9895535571479742 0.0 0.0 0.9371730319786279 0.19358978817660713 0.0 0.0 0.0 0.0 0.0 0.0 0.29588257565174003 0.0 1.1324647744858827 0.0922072030698637 0.0 0.0 0.0 0.0 0.675406849077165 0.0 0.0 0.410622765403008 0.33231061963228276 0.17876350208304467 0.0
103 0.0 0.0 0.0 0.0 0.39860590854667455 0.0 0.0 1.219740312578276 0.4148047846240272 0.0 0.0 0.0 0.0 0.0 0.0 0.0 0.0 0.0 0.0 0.0 0.0 0.0 0.4191297567269981 0.5761173161846305 0.0 0.0 0.0 1.5789730285997003 0.0 0.0 0.0 0.0 0.22392259000372522 0.0 0.0 1.3476765345842552 0.0 0.0 0.5402424025456851 0.0 0.0 0.0 1.241413453196893 0.0 0.0 0.0 0.20321610215062055 0.1414894977739886 0.7005876576215615 0.0 0.0 0.0 0.0 0.17789870016508724 0.0 0.0 0.0 0.0 0.06998871831840596 0.0 0.0 0.0 0.0 0.0 0.0 0.5139066340213635 0.35113222710396935 0.0 0.0 0.0 0.0 0.5649847376304027 0.5023089058176492 0.0 0.3439343706237776 0.0 0.0 0.134753897941593 0.285133395703511 0.0 0.0 0.5056711393498747 0.0 0.0 0.16893368741255066 0.0 0.0 0.27056618020782053 0.0 0.0 0.0 0.0 0.6681909521463405 0.0 0.0 0.0 0.0 0.0 0.0 0.0 0.6501030680153391 0.0 0.0 0.0 0.4406787603924189 0.0 0.0 0.0 0.0 0.040672452938232614 0.0 0.0 1.8583921011887272 0.5107551797477458 0.0 0.0 0.0 0.0 0.4064580412888803 0.0 0.0 0.0 0.0 0.27688213403952716 0.0 0.0 0.6361033872025103 0.0
100 0.0 0.0 0.6525663714822482 0.0 1.4802946090529112 2.335674945862761 0.0 0.39556305494379046 0.0 0.4711873386426504 0.0 0.0 0.0 0.7392712960455793 0.0 0.0 0.7778073796974374 0.0 0.0 0.0 0.5919705935417705 0.0 0.0 0.0 0.6653315186441706 0.0 0.0 0.5798069207790338 0.0 1.228837980799236 0.0 0.8222661730969877 0.0 1.3378970936925427 0.0 0.0 0.0 0.0 0.2498729295232345 0.0 0.0 0.0 0.15001833553489166 0.04789150897733844 0.436527064874302 1.8999938034329367 0.0 0.0 0.0 0.0 0.0 0.0 0.0 0.0 0.3293460380139499 0.0 1.2596649758224003 0.0 0.0 0.0 0.7141770136178797 0.27908312539885816 0.4650892210792732 0.0 0.0 0.030255909109598265 0.4058152965425357 0.0 0.0 0.0 1.4019132210886973 0.014970036643592362 0.0 0.0 0.0005659129020260658 0.0 0.8331011953279011 0.0 0.0 0.0 0.7736403085154971 0.0 0.0 0.0 0.0 0.0 0.0 0.024985368528157643 0.0 1.0932703935785077 0.0 0.44550644767155434 0.0 0.8754619429712118 0.0 0.3008189940985306 0.0 0.6075662178631845 1.8499527196431647 0.0 0.0 0.24975332244234094 0.22610713318391124 1.0915831023709635 0.0 0.0 0.0 0.0 0.0 0.10157316546619614 0.0 0.0 0.0 0.3721771899001359 0.0 0.0 0.0 0.0 0.0 0.0 0.40294787114756436 0.0 0.0 0.0 0.0 0.0 0.0 0.2763761461431211
101 0.0 0.0 0.0 0.0 0.011684383806910817 0.0 0.0 0.0 0.0 0.2643835916818222 0.0 0.0 0.35596396046248335 0.19530857100229987 0.3576467571122911 0.0 0.0 0.0 0.0 0.0 1.338476142179184 0.10675814242454078 0.0 0.8557198524455709 0.2244437529786848 0.0 0.0 0.0 0.0 0.0 0.0 0.0 1.477859786420983 0.0 0.0 0.0 0.0012726903996925464 0.0 0.10810084861535467 0.0 0.0 0.21939398026029072 0.0 0.0 0.0 0.0 0.0 1.0556942781596514 0.2043095253235692 0.0 0.0 0.0 0.0 0.0 0.2282288153141696 0.9383775798012647 0.0 0.0 0.0 0.0 0.0 0.38792169000397575 0.0 0.0 0.0 0.0 0.0 0.16980129730816845 0.0 0.0 0.0 0.0 0.08714367068273969 0.3999562806455357 0.0 0.0 0.0 0.0 0.0 0.0 0.0 0.0 0.0 0.0 0.0 0.0 0.0 0.20047688599679075 0.0 0.0 0.37084866737145344 0.24064086836326964 0.0 0.8554584717667196 0.0 0.0 0.0 0.0 0.0 0.0 0.33777035877184164 0.0 0.0 0.0 0.0 0.0 0.0 0.0 0.0 0.0 0.0 0.0 0.0 0.0 0.2854401029852283 0.0 0.0 0.0 0.0 0.0 0.0 0.25807732693708557 0.0 1.8536613374691835 0.0 0.47634302729542727 0.14163560553871213 0.0
106 0.0 0.0 0.0 0.0 0.0 0.0 0.0 0.0 0.07919173301604548 0.0 0.0 0.0 0.0 0.0 0.24685639828193628 0.0 0.13703121382364186 0.0 0.0 0.0 0.07753513180563494 0.0 0.0 0.0 0.004823388124152917 0.0 0.0 0.0 0.5092097873654345 0.0 0.0 0.4074818870045003 0.0 0.38994180104210485 0.7369322123221606 0.409921173858758 0.0 0.0 1.0131159853599123 0.0 0.0 0.0 0.15312516253273603 0.0 0.0 0.0 0.0 0.0 0.20379399402310108 0.0 0.0 0.0 0.0 0.0 0.0 0.739280148378647 0.0 0.0 0.0 0.0 1.113552219265488 0.12921720789916735 0.0 0.1786290484718955 1.9649706942164082 0.13793240484152341 0.0 0.0 0.0 0.0 1.7006805836338064 0.2538629405434784 0.0 0.0 0.0 0.0 0.0 0.0 0.0 0.6003777881288865 0.22086676424288865 0.0 0.0 0.3811314981138161 0.0 0.0 0.0 0.2382277425214668 0.0 0.0 0.0 0.0 0.0 0.4147068280101509 0.18728648980712315 0.0 0.0 0.37401756211532977 0.7769303845604161 0.0 0.0 0.0 0.0 0.0 0.0 0.0 0.0 0.0 0.0 0.0 0.0 1.7686004323215367 0.0 0.0 0.0 0.0 0.0414188346011572 0.0 0.0 0.0 0.0 0.0 0.0 0.0 0.0 0.0 1.0219210418712226 0.0
107 0.0 0.0 0.0 0.0 0.0 0.0 0.0 0.013720996023404028 0.0 1.170742865269726 0.5610703628907968 0.0 0.0 0.0 0.0 0.0 0.0 1.0834299024432572 0.7519909174896433 0.0 0.0 0.0 0.06239137933680857 0.0 0.0 0.0 0.0 0.11192599583920863 0.0 0.0 0.0 0.0 0.0 0.0 0.05097912841066922 0.0 0.0 0.0 0.0 0.0 0.0 0.0 0.0 0.0 0.0 0.0 0.0 0.02384315718495471 0.0 0.0 0.0 0.5065452137644233 0.0 0.7671235006641826 0.27654019141216685 0.30479896181275773 1.6594268000677734 0.0 0.0 0.0 0.0 0.0 0.8101261328207097 0.0 0.0 0.0 0.0 0.25898422706793733 0.526796163532017 0.5057642331267486 0.4099122497070729 0.0 0.0 0.0 1.4502724020165507 0.21100179569573557 0.0 0.37565707075878774 1.0451321294933615 0.0 0.0 0.0 0.0 0.0 0.0 0.0 0.0 0.0 0.0 0.0 0.0 0.0 0.0 0.0 0.0 0.0 0.7595923012542972 0.0 0.0 0.0 0.0 0.0 0.0 0.6562357279813182 0.0 0.8360786198762186 0.3948416207826852 0.0 0.0 0.7525526110365669 0.20492180926784265 0.0 0.0 0.0 0.22898080892025277 0.0 0.0 0.0 0.0 0.0 0.05867273607953103 0.010594337773403576 0.5436374097763995 0.0 0.0 0.1367985874699159 0.4390091053497991 0.0
104 0.0 0.0 0.0 0.0 0.0 0.0 0.0 0.0 0.0 0.0 0.0 0.0 0.0 0.0 0.0 0.0 0.0 0.0 0.0 0.0 0.0 0.0 0.0 0.0 0.0 0.06504498281141716 0.0 0.006684168984124668 0.0 0.0 0.0 0.0 0.0 0.0 0.009489256338866534 0.9138203960647721 0.0 0.3867747989844005 0.0 0.0 0.040906639249718026 0.0 0.0 0.0 0.07052847561593278 0.6416814839855297 0.656799231195075 0.6560468040241458 0.0 0.0 1.0878821058000256 0.0 0.0 0.0 0.0 0.0 0.0 0.0 0.0 0.0 0.0 0.0 0.0 0.0 0.5532397962108693 0.0 0.0 0.0 0.0 0.0 0.0 0.0 0.7601963346428047 0.0 0.8810914336157767 0.08928210524854824 0.0 0.0 0.0 0.0 0.0 0.0 0.015801379692978366 0.0 0.0 0.2793298886522864 0.0 0.0 0.0 0.0 0.0 0.0 0.037834844993466996 0.0 0.0 0.0 0.0 0.0 0.0 0.0 0.0 0.0 0.0 0.03850526436213163 0.28480998403225904 0.0 0.052344292248525603 0.0 0.0 0.0 0.0 0.628104980460401 0.0 0.4173361548270414 0.0 0.0 0.0 0.0 0.5590595873443338 0.3500091127431315 0.0 0.0 0.0 0.45469326521259834 0.0 0.0 0.0 1.1171503003306544
105 0.9553426456053545 1.0277618598052176 0.0 0.0 0.0 1.2666765478498836 0.0 0.2677206601127255 0.08203766718010977 0.0 0.0 0.19708023852591555 0.0 0.0 0.0 0.0 0.0 0.0 0.1952326739126919 0.0072145744983744065 0.0 0.0 0.0 0.30999930200016507 0.3491361787317007 0.0 0.0 0.0 0.0 0.0 0.6096175908272906 0.0 0.0 0.0 0.17403176593843844 0.0 0.0 0.0 0.7239044513011709 0.0 0.0 0.0 0.0 0.0 0.0 0.0 1.0424108702312276 0.2860402519119559 0.0 0.0 0.0 0.0 0.0 0.0 0.0 0.0 0.0 0.0 0.0 0.0 0.0 0.0 0.0 0.4347217702378927 0.0 0.9904659448519211 0.0 0.0 0.0 0.0 0.0 0.0 0.0 0.06669425825448248 0.0 0.0 0.0 0.0 0.0 0.0 0.49209693151863204 0.04937489991066033 0.0 0.0 0.0 0.09766741836978748 0.0 0.0 0.0 0.0 0.0 0.0 0.5645985933607294 0.0 0.0430905834583603 0.0 1.3140178327293772 0.0 0.0 0.0 0.041251592187818945 0.0 0.0 0.0 0.0 0.47032211295206733 0.0 0.9164052840188813 0.484889842906732 0.0 0.0 0.0 0.0 0.16662250261362538 0.0 0.5004183550064865 0.0 0.0 0.0 0.1573671408509171 0.0 0.0 0.08897812736727724 0.36043168838173684 0.0 0.3319313635978839 0.0 0.0
2046 0.38265724773853277 0.0 0.0 0.0 0.0 0.0 0.42101496983172665 0.254944401447534 0.0 0.15994591774020683 0.0 1.1416229620676814 0.0 0.0 0.0 0.0 0.0 0.0 0.0 0.0 0.0 0.15916483355591574 0.3637180982337294 0.8029847961059877 0.0 0.0 0.0 1.237975611205488 0.0 1.4802615418010785 0.1965811790862915 0.7801426437111473 0.6493448879043094 0.0 0.0 0.0 0.0 0.0 0.0815871796066256 0.0 0.7770904804340437 0.0 0.0 0.2787817456875945 0.3521563429502935 0.0 0.0 0.0 0.0 0.0 0.0 0.0 0.0 0.0 1.1587474625557264 0.0 0.0 0.0 1.0049175037799505 0.0 0.0 0.0 0.3727546491509909 0.0 0.016121403484990984 0.19548459509271052 0.9247791699718815 0.34192708312425085 0.27907167609044375 0.0 0.0 0.0 0.0 0.0 0.26506479987856274 0.46400653636523953 0.0 0.35493424908572313 0.021047466093832817 0.0 0.0 0.0 0.0 0.0 0.0 0.22539773027041515 0.0 0.7399928766522437 0.949875111860383 0.44194488483741445 0.0 0.0 0.20610979507446955 0.5689650461199296 0.0 0.0 0.0 0.0 0.0 0.0 0.0 0.0 0.0 0.0 0.05731694171242005 0.0 0.0 0.0 0.0 0.0 0.0 0.130951903580964 0.0 0.2598656836380039 0.0 0.0 0.3089889580151268 0.0 0.0 0.0 0.0 0.0 0.04470740665423215 0.0 0.0 0.0 0.0 0.05402314514552576
2047 0.0 0.0 0.0 0.5690926366296007 0.0 0.26076363207829667 0.0 0.0 0.0 0.0 0.09960792505880112 0.5230599668028896 0.0 0.0 0.0 1.2245556354316651 0.0 0.0 0.0 0.0 0.791652564975325 0.0 0.0 0.35558289714163327 0.0 0.0 0.0 0.0 0.0 0.42656594212509796 0.0 0.0 0.0 0.0 0.0 0.0 0.09362854090863199 0.0 0.0 0.0 0.0 0.0 0.23106308721493948 0.0 1.7742685437069647 0.0 0.0 0.6333405007900016 0.0 0.0 0.0 0.0 0.0 0.08986732888891838 1.2856951517010222 1.8110934742569258 0.0 0.0 0.0 0.0 0.0 0.0 0.3706297642328244 0.0 0.0 0.06503362490185355 0.0 0.0 0.9594207057950938 0.0 0.0 0.665425294109723 0.0 0.0 0.49565492841965836 0.0 0.5696458193682185 0.0 0.07389376862406422 0.0 0.015310675380296367 0.0 0.0 0.20742888304921353 0.0 0.5485349848764863 0.0 0.0 0.0 0.0 0.0 0.0 0.4229519984347289 0.0 0.0 0.0 2.204457997128524 0.24843872522193833 0.0 0.0 0.0 0.9861616420231464 0.4268199416316081 0.0 0.0 0.0 0.0 0.0 0.015397035956590557 0.0 0.21231575994112922 0.44078452579766075 0.0 0.0 0.0 1.2882249255511262 0.33182297322157167 0.052011794110479605 0.0967123930837867 1.067789249987784 0.0 0.0 0.0 0.0 0.0 0.0 0.0 0.0
2044 0.0 0.30629634078132495 0.3642935623693588 0.0 0.1820247739694613 0.0 0.69357740676002 0.03460262481218089 0.12244190121473796 0.0 0.0 1.1954352839858684 0.027486494954699316 0.0 0.0 0.0 0.0 0.0 0.0 0.0 0.0 0.0 0.33982229262081365 0.0 0.0 0.1977106773503776 0.0 0.0960958871776777 0.1642243526233771 0.0 0.2892303212509257 0.27775659936455477 0.09249081316826777 0.8272603022492095 0.0 0.0 0.0 0.0 0.0 0.0 0.0 0.0 0.0 0.29525256575507147 0.0 0.0 0.0 0.0 0.0 0.0 1.118165909862668 0.0 0.0 0.8508394830991923 0.0 0.0 0.05028786025160915 0.0 0.0 0.0 0.0 0.0 0.2220485679952198 0.0 0.0 0.0 0.0 0.06910327118943961 0.0 0.0 0.0 0.0 0.0 0.0 0.0 1.4710966709755375 0.008615118279433117 0.0 0.6586034459628778 0.15980254835283025 0.0 0.31830764009565476 0.0 0.0 0.0 0.0 0.0 0.0 0.0 0.0 0.0 0.0 0.7066482074571129 0.0 0.0 0.0 0.0 1.37580220742048 0.0 0.0 1.0911647251831158 0.0 0.0 0.0 0.0 0.45714669053757945 0.0 0.0 0.0 0.0 0.0 0.669248977113077 0.2716158002597041 0.0 0.0 0.0 0.0 0.0 1.0659503789747504 0.0 1.7130418347263883 0.0 0.0 0.0 0.0 0.0 0.0 0.0
2045 0.056297120663340965 0.2005700481939433 0.9615881919061217 0.0 0.0 0.0 0.0 0.460440924827799 0.0 0.0 0.0 0.0 0.0 0.0 0.9345340619963465 0.0 0.0 0.06014574197559331 0.0 0.0 0.0 0.0 0.3540321533291826 0.0 0.0 0.0 0.0 0.0 0.0 0.0 1.4629953385373593 1.5147807041454855 0.29255600364792383 0.028066472259802994 0.0 0.0 0.24009534026337362 0.0 0.0 0.48846005089283484 0.0 0.3037016335769803 0.5043695813929688 0.0 0.0 0.0 0.0 0.0 0.0 0.0 0.0 0.0 0.0 0.10689993551484817 0.15169955859345158 0.0 0.6644070042824923 0.0 0.028434205910659555 0.0 0.0 0.0 0.4829757923023554 0.0 0.0 0.0 0.0 0.0 0.0 0.0 0.0 0.0 0.0 1.6749345253603949 1.3384777993959736 0.0 0.0 0.5361806729512729 1.2021399396985786 0.0 0.0 0.7396227985503796 0.5313590554474279 0.0 0.51471422603804 0.5045759034853262 0.0 0.0 0.0 0.0 0.0 0.0 0.0 0.0 0.1624003144528437 0.0 0.0 0.1575075482129979 0.0 0.0 0.0 0.0 0.0 1.1709531080751951 0.0 0.0 0.0 0.6962122514275473 0.2667591278711573 0.17079094317675142 0.05996242088085141 0.4087803324615386 0.0 0.4709840115061337 0.46349590983579225 0.7913561758304286 0.0 0.7846639458385632 0.0 0.9537852731558237 0.0 0.0 0.010580581773052749 0.40033527257657026 0.0 0.0 0.07978226802004311 0.0
2042 0.0 0.7595644353176625 0.0 0.0 0.0 0.0 0.0 0.09970725929189157 0.0 0.0 0.394086484267127 0.0 0.0 0.0 0.0 0.031462783701359374 0.0 0.0 0.09166613394931156 0.4456518233698427 0.23347483881999653 0.0 0.0 0.0 0.0 0.0 0.6661051377649623 0.0 0.0 0.1487731816421135 0.0 0.28782589493069954 0.0 0.0 0.2554364139652793 0.7136370736101524 0.0 0.5995901123396683 0.0 0.0 0.9831040422629701 0.0 0.060663973634808896 0.9472958321805007 0.0 0.0 0.0 0.0 0.0 0.6472141394582661 0.0 0.0 0.0 0.8519667470769557 0.0 0.0 0.0 0.9919240796505127 0.0 0.0 0.0 0.0 0.33463823377931134 0.0 0.0 0.13989790191228735 0.0 0.0 0.0 0.0 1.5960965402757576 0.0 0.18355564580067718 0.056277783274510204 0.3395622569401442 0.0 0.2286602006581176 0.248820595625732 0.0 0.0 0.0 0.0 0.0 0.9822230255925207 0.0 0.0 0.0 0.0 0.0 0.0 0.0 0.2753005137393044 0.0 0.0 0.0 0.0 0.0 0.0 0.0 0.6578336535939254 0.0 0.21528508247952716 0.0 0.0 0.0 0.0 0.3670745096296043 0.29611949927086895 0.01787932692070062 0.28778618372528236 0.0 0.0 0.0 0.0 0.0 0.0 0.0 0.0 0.0 0.8574409359728602 0.0 0.0 0.0 0.4263210250491375 0.0 0.0 1.4302636602531262 0.0
2043 0.0 0.026170992789762537 0.0 0.0 0.0 0.0 0.0 1.0033500571220662 0.0 1.5433793744840454 0.0 1.0624125610220063 0.0 0.0 0.0 0.0 0.0 0.0 0.0 0.0 0.0 0.1075775061509014 0.0 0.0 0.0 0.0 0.0 0.0 0.060966704810291386 0.0 0.0 0.0 0.0 0.0 0.0 0.0 0.0 0.0763209472702671 0.0 0.0 0.0 0.295783133803038 0.0 0.0 0.0 0.6889875376069146 0.0 0.0 0.0 0.0 0.0 0.05856927534981746 0.0 0.0 0.0 0.7072133009676584 0.0 0.0 0.0 0.0 0.0 0.0 0.01744920739769322 0.0 0.0 0.0 0.015536471157274707 0.0 0.0 0.0 0.0 0.0 0.0 0.0 0.0 0.0 0.0 0.0 0.6072022855702479 0.0 0.0 0.04834547583326609 0.0 0.3462089833075862 0.0 0.0 0.0 0.0 0.0 0.0 0.6392923786943948 0.8091420649845319 0.0 1.0601892710530416 0.0 0.08025969928523066 0.3778256812477209 0.0 0.0 0.0 0.09996490063179769 0.0 0.0 0.3097519411002273 0.0 0.0 0.0 1.2629513474273908 0.0 0.0 0.0 0.0 0.2281631462544071 0.0 0.0 0.0 0.0 1.0103400474943105 0.28093379401604807 0.0 0.0 0.0 0.0 0.0 0.37967466975616787 0.0 0.0 0.46373787853445525
2040 0.11936555285592552 0.20949912008712945 1.81547922419302 0.0 0.0 0.0 0.0 0.145655669703289 0.0 0.013462381481412062 0.0 0.0 0.0 0.4241977000365515 0.0 0.0 0.0 0.3303494000351745 0.5455854955373052 0.43964875770525136 0.7589331389876527 0.0 0.0 0.0 0.0 0.0 0.0 0.0 0.64292472468853 0.5134157558048803 0.0 0.0 0.0 0.0 0.0 1.0280663587566397 0.0 0.01783617199215727 1.343067467366639 0.0 0.0 0.0 0.09403620271642671 0.0 0.0 0.0 0.0 0.2466255879886792 0.0 0.778176846249571 0.0 0.2871822517299935 0.0 0.0 0.26301899918769756 0.0 0.0 0.0 0.7372848431903363 0.0 0.0 0.0 0.0 1.0890918184304232 0.0 0.0 0.0 0.1790370739605812 0.0 0.0 0.22125277941171473 0.0 0.0 0.0 0.0 0.5340464316350363 0.0 0.0 0.0 0.0 0.0 0.0 0.4379138431473385 0.0 0.0 1.056157998697094 0.0 0.0 0.0 0.0 0.0 0.19247485217681526 0.12955677823760706 0.0 0.0 0.0 0.0 0.0 0.0 0.0 0.0 0.09236685787280981 0.0 0.5314347272209093 0.0 0.06218486644029145 0.0 0.0 0.0 0.0 0.0 0.0 0.0 1.2078116826452014 0.0 0.0 0.0 0.0 0.0 0.5243589732021741 0.4389789847984022 0.0 0.0 0.0 0.0 1.7529602092103749 0.36935646757411894 0.0
2041 0.0 0.0 0.0 0.0 0.0 0.0 0.4491483517863454 0.8833004313720862 0.0 0.0 0.0 0.0 0.0 0.0 0.5743436831601416 0.0 0.0 0.0 0.0 0.0 0.0 0.0 0.0 0.0 0.0 0.0 0.4935847491735227 0.0 0.0 0.0 0.0 0.0 1.1703386767658812 0.0 0.6201065306340385 0.04108265770322394 0.0 0.0 0.0 1.2203162320137095 0.0 0.0 0.0 0.0 0.0 0.0 0.0 0.0 0.0 0.0 0.0 0.0 0.0 0.0 0.0 0.0 0.9603820763911914 0.0 0.0 0.0 0.0 0.0 0.0 0.0 0.2300183548067211 0.2336825898013573 0.0 0.0 0.2023125862446654 0.0 0.0 0.0 0.0 0.0 0.0 0.0 0.0 0.0 0.0 0.17268485684537074 0.0 0.0 0.0 0.0 0.7908444446081019 0.0 0.8808540257783054 0.19002040297836018 0.18079179046718505 0.0 0.18674837994925297 0.04535488431309838 1.5441261463943932 0.0 0.0 0.0 0.6054069300142965 0.0 0.0 0.0 0.0 0.0 0.0 0.23473814813742117 0.0 0.2226077184671675 0.0 0.24521583100106908 0.0 0.0 0.0 0.0 0.0 0.0 0.6392253853742529 0.0 0.5836127042029433 0.0 0.0 0.0 0.29264808253517 0.0 0.0 0.0 0.0 0.0 0.0 0.10193822050961793
1297 0.0 0.0 0.0 0.0 0.0 0.0 0.0 0.0 0.02375211640891223 0.0 0.0 0.5057471650267346 0.0 0.0 0.5137280773540704 0.0 0.0 0.0 0.0 0.0 0.0 0.0 0.13473163865240587 0.0 1.682945439853129 0.0 0.0 0.09801620058781095 0.3592636674118525 0.0 0.0 0.0 0.0 0.19618735445075458 0.2180653664580864 0.0 0.0 0.6680566954589068 0.0 0.0 0.0 0.0 0.0 0.0 0.0 0.0 0.0 0.3755539519140603 0.0 0.04469171204132201 1.2860373749108494 0.0 0.4345174383864282 0.0 0.0 0.0 0.0 0.0 0.0 0.0 0.0 0.0 0.0 0.11295134672121752 0.10846385988227836 0.0 0.0 0.0 0.4160564728803776 0.0 0.5816509682254578 0.5154898055851161 0.0 0.0 0.31861277839783164 0.0 0.0 0.17828870104978725 0.0 0.0 0.0 0.0 0.0 0.0 0.0937604772949503 0.0 1.0192115012090364 0.0 0.03934223389241119 0.0 0.0 0.0 0.0 0.0 0.0 0.0 0.0 0.0 0.0 0.0 0.0 0.0 0.08446730788056668 0.0 0.0 0.9413625530876595 0.8545710307170518 0.26863224887765713 0.0 0.47435660616095565 0.36560294330979903 0.6361065657524844 0.0 1.0079885069531433 0.5409463666668605 0.32020412270278864 0.0 0.0 0.0 0.0 1.0328973559380994 0.4944581373011366 0.0 0.7330435443630947 0.019888206262976715 0.0 0.4785728796443496 0.0
2048 0.0 0.0 0.0 0.0 0.6564727256524001 0.0 0.0 0.0 0.0 0.0 0.0 0.11936297406272102 0.0 0.0 0.0 0.0 0.005333480789732064 0.780705394548084 0.0 0.0 0.0 0.0 0.0 0.0 0.0 0.0 0.0 0.0909316538843616 0.0 0.0 0.0 0.36045676403529 0.0 1.1062584351775746 0.0 0.03057228745042811 0.0 0.0 0.0 0.0 0.42660977627494684 0.0 0.0 0.0 1.372654836545234 0.0 0.0 0.2838182690088112 0.0 0.0 0.12447427611584076 0.26265848993265556 0.0 0.6085981361610745 0.0 0.03899992782048402 1.0522309880198433 0.00251291820058673 0.0945696119685725 0.0 0.0 0.2943096591249247 1.1707573315458997 0.26879746923028425 0.0 0.043749302973151126 0.7911508543119385 0.1353333253878008 0.48293960745875447 0.20729344030891964 0.1235417235722587 0.0 0.0 0.3445341609801855 0.0 0.0 0.0 0.0 0.07069554128045033 0.0 0.0 0.0 0.0 0.984932257862279 0.0 0.0 0.0 0.0 0.0 0.2653085847287235 0.6518592537691003 0.0 0.5893917503347613 0.8761199910656289 0.0 1.021902687963018 0.0 0.0 0.0 0.0 0.0 0.0 0.0 0.0 0.0 0.0 0.48311973559621435 0.0 0.45623986977621445 0.0 0.0 0.0 0.6422924913129718 0.0 0.0 0.0 0.0 0.0 0.0 0.002726808656749874 0.0 0.3983357225648299 0.7158419572705754 0.0 0.0 0.0 0.0 1.083312204790326
2049 0.0 0.0 0.16518478312031581 0.25894082846197797 0.11313493532470191 0.0 0.17439220843035363 0.9927682958878999 0.23139950197401363 0.2642955316377455 0.0 0.0 0.0 0.0 0.0 0.0 0.0 0.06886657355791528 0.0 0.6252946717384328 0.0 0.0 0.8884905982014977 0.0 0.0 0.0 0.0 0.08052292543512252 0.0 2.140754932406616 0.0 0.0 0.0 0.5305110470038138 0.0 0.0 0.0 0.0 0.7587684582817164 0.0 0.0 0.535341319997084 0.057773751273692775 0.0 0.0 0.0 0.0 0.0 0.0 0.0 0.0 0.0 0.5854439957422001 0.8060411482645972 0.0 0.0 0.0 0.0 0.33934549000850095 0.0 0.0 0.0 0.0 0.6003340730006486 0.02618743076118738 0.0 0.0 0.046696618328220064 0.0 0.49267669500141004 0.0 0.0 0.0 1.029152470034981 1.3899497494947264 0.0 0.0 0.0 0.0 0.0 0.43847309162181924 0.0 0.14990716354122569 0.23920038777246377 0.4549328748095041 0.0 0.0 0.3857728804568658 0.4882709023545931 0.0 0.0 0.5086774220857353 0.8315340380453629 0.0 0.0 0.0 0.0 0.0 0.40932303363024963 0.0 0.0 0.0 0.0 0.0 0.32980777766221814 0.0 0.0 0.4792221340535725 0.0 0.0 0.1966057940590496 0.0 0.0 0.0 0.0 0.0 0.0 0.9034785585866184 0.0 0.0 0.0 0.0 0.0 0.0 0.0 0.05658108001178317 0.0 0.0
3155 0.0 0.0 0.0 0.09898509920223728 0.0 0.0 0.0 0.0 0.0 0.0 0.583650196831573 0.0 0.0 0.0 0.8443468660240045 0.707961866482993 0.053123104176022146 0.0 0.6691232554842912 0.0 0.0 0.0 0.0 0.0 1.337217660933846 0.41836822956815733 0.11046949991128897 0.9252776485379227 0.0 0.01618926357998603 0.9845066580351185 0.9413555397309311 0.0 0.0 0.0 0.0 0.43777889070726894 0.0 0.0 0.0 0.0 0.0 0.0 0.0 0.4715906433596814 0.0 0.32440630640417417 0.6733162297151347 0.0 0.0 0.0 0.0 0.0 0.21460845912022983 0.0 1.3232578743597752 0.42321846311332634 0.0 0.0 0.0 0.0 0.0 0.0 0.0 0.0 0.0 0.0 0.0 0.0 0.06098161974378313 0.0 0.0 0.6435445302944728 0.0 1.1395248916874112 0.0 0.0 1.0787295419121528 0.0 0.29051881271411584 0.0 0.12026120439259973 0.0 0.0 0.0 0.2992824192100166 0.0 0.0 1.0529383900232794 0.0 0.0 0.0 0.0 0.27260386895831296 0.0 0.16006135541167427 1.1223677202902698 0.0 0.0 0.037962758458793835 0.0 0.0 0.0 0.16749416924034682 0.0 0.0 0.5566478752468667 0.610569852672503 0.2407213753393475 0.8432899523858539 0.0 0.0007319603730213857 0.4723692686517515 0.0 0.0 0.0 0.26494169120319466 0.0 0.0 0.0 0.0 0.0 0.032424010956580096 0.0 0.0 0.381006255332505 0.8324738175098517 0.03049292526601008
3154 0.0 0.0 0.8434232618293498 0.0 0.0 0.0 0.0 0.0 0.4300039147332212 0.0 0.20734428896748044 0.47325278492831924 0.0 0.8182575231563948 0.014892823303252346 0.0 0.0 0.30414364253827497 0.0 0.0 0.0 0.0 0.0 0.0 0.0 0.0 0.044249194427988706 0.0 0.0 0.0 0.0 0.0 0.4753448128620002 0.0 0.0 0.0 0.0 0.0 0.0 0.0 0.0 0.4503166812571573 0.28425713382990575 0.23847635475487877 0.0 0.0 0.0 0.0 0.0 0.0 0.0 0.9471387637303413 0.0 0.0 0.0 1.5034660256271286 0.0 0.0 0.0 0.9337999452882756 0.0 0.0 0.0 0.0 0.0 0.0 0.0 0.6991217905695053 1.6411043201096907 0.0 0.0 0.0 0.0 0.9982516650808394 0.0 0.0 0.34394419955048755 0.0 0.43902966243668945 0.8541507101216718 0.0 0.0 0.0 0.0 0.0 0.0 0.00827501169387064 0.0 0.0 0.0 0.0 0.0 0.0 0.15424178648630577 0.0 0.0 0.0 0.0 0.0 0.0 0.0 0.0 0.0 0.0 0.0 0.0 1.990174183917679 0.0 0.0 0.5499115693279313 0.0 0.007518921047500538 0.0 0.0 0.0 0.0 0.22703283646572797 0.0 0.25060877918389185 0.0 0.7987380020234455 1.1501792634725572 0.0 0.0 0.2526714790880583 0.3431728956945349 0.0 0.0
3159 0.0 0.0 0.0 0.0 0.0 0.0 0.0 0.0 0.32386568570038826 0.0 0.5320248817848472 0.10478695187128974 0.49372217735990387 0.0 0.0 0.0 0.0 1.1569039724540884 0.0 0.28501472885848456 0.0 0.0 0.0 0.0 0.0 0.0 0.0 0.0 0.2602869326663369 0.0 0.0 0.0 1.0592903960052371 0.0 0.10058038379011643 0.0 0.0 1.3817160774632342 0.0 0.01514747213859513 0.0 0.12098416361352263 0.740683375770717 0.0 0.3399949063915546 0.0 0.0 0.0 0.0 0.0 0.193588860398084 0.0 0.0 0.0 0.0 0.0 0.0 0.0 0.09276524128098533 0.0 0.0 0.0 0.0 0.22211579755086613 0.7592260949852577 0.0 0.0 0.9223727914694984 0.0 0.0 0.03790065908701012 0.0 0.0 0.0 0.0 0.0 0.0 0.0 0.0 0.0 0.0 0.0 0.33692960844055786 0.6669945253666141 0.06799243571891085 0.0 0.12959463145052103 0.0 0.0 0.057842707073316096 0.3446800613254641 0.0 0.0 0.15818121744429633 0.0 0.21442394678841156 0.0 0.4742703242730876 0.043023368032253394 1.112705450967732 0.3570930296316823 0.0 0.04249838837394307 0.0 0.3216065031645748 0.0 0.0 0.0 0.0 0.0 0.0 0.5207708586625212 0.7672338933060338 0.1667623520037656 0.0 0.0 0.0 1.2579493599526672 0.0 0.0 0.0 0.0 1.0689937853076406 0.0 0.0 0.0 1.1911196765877314 0.0
3158 0.0 0.0 0.0 0.0 0.0 0.0 0.0 0.0 0.0 0.0 0.02063653196619611 0.0 0.0 0.3095973363252939 0.0 0.0 0.0 0.0 0.0 0.44551765387033937 0.1715478380048078 0.0 1.1003780969881638 0.0 0.0 0.0 0.0 0.16013671508869062 0.0 0.0 0.14995717992774799 0.0 0.0 0.8511822856369378 0.0 0.0 0.0 0.4241678003644735 0.0 0.08500760662698024 0.0 0.0 0.0 0.0 0.0 0.0 1.8593733188330759 0.0 0.0 0.0 0.0 0.0 0.0 0.49366664722751186 0.0 0.4889688940479702 0.37038862337871087 0.0 0.0 0.3840276189699589 0.0 0.0 0.0 0.0 0.808218816353238 0.0 0.0 0.0 0.0 0.0 0.0 0.0 0.0 0.0 0.0 0.0 0.0 0.26814587231930026 0.0 0.2717964937629971 0.03776266577426938 0.0 0.0 0.0 0.0 0.13982526184297997 0.1387152122761393 0.011624170195922726 0.0 0.0 0.0 0.0 0.2797358595783275 0.0 0.0 0.0 0.0 0.0 0.0 0.26410914378007344 0.0 0.0 0.1543226770951914 0.0 0.0 0.0 0.0 0.0927741790840968 0.0 0.0 0.5976086733995367 0.0 0.017850948398767368 0.0 0.0 0.0 0.4337443272668248 0.0 0.0 0.0 0.0 0.0 0.0 0.0 0.0 0.0 0.0 0.0
1375 0.0 0.0 0.0 1.1184782620624456 0.5015005710554385 0.20906741487663394 0.0 0.0 0.6419397710379703 0.2238387335364436 0.0 0.0 0.0 0.0 0.0 0.13113169582634887 0.7669648793575617 0.0 0.0 0.0 0.0 0.0 0.0 0.0 0.0 0.039021722761890816 0.6805143289284366 0.0 0.0 0.0 0.2333377309073951 0.0 0.0 0.0 0.0 0.3706403821517153 0.0 0.0 0.0 0.0 0.0 0.0 0.5140973828204485 0.0 0.0 0.15101865355187521 0.0 0.004943181543561637 0.0 0.0 0.0 0.0 0.8136437567908629 0.6007722833471235 0.0 0.0 0.35421054758080767 0.0 0.0 0.1787590801908853 0.0 0.14001126541267211 0.0 0.0 0.0 1.0021632134201384 0.0 0.0 0.0 0.0 0.0 0.21211458088508367 0.22194786226569863 0.0 0.0 0.0 0.0 1.7280905900982488 0.061992296234499665 1.4844065937677347 0.0 0.4109363861101618 0.5962713496059412 0.0 1.6104536731516021 0.0 0.0 0.0 0.2921351195023562 0.0 0.00895750379589561 0.1278894599225026 0.06284789022087958 0.43063408939394227 0.0 0.0 0.0 0.29539999840199876 0.0 0.13318743511012815 0.0 0.4669705246024174 0.0 0.0 0.0 0.16339401737615514 0.0 0.4913355825990173 0.0 0.01576599622986443 0.19807848764973568 0.0 0.0 0.0 0.0 0.17584750140937394 0.0 0.0 0.0 0.0 0.0 0.0 0.0 0.0 0.0003371765610324876 0.9177167317250369 0.0 0.0
